<?xml version="1.0"?>
<opencv_storage>
<cascade>
  <stageType>BOOST</stageType>
  <featureType>HAAR</featureType>
  <height>27</height>
  <width>48</width>
  <stageParams>
    <boostType>GAB</boostType>
    <minHitRate>9.9500000476837158e-01</minHitRate>
    <maxFalseAlarm>2.5000000000000000e-01</maxFalseAlarm>
    <weightTrimRate>9.4999999999999996e-01</weightTrimRate>
    <maxDepth>1</maxDepth>
    <maxWeakCount>100</maxWeakCount></stageParams>
  <featureParams>
    <maxCatCount>0</maxCatCount>
    <featSize>1</featSize>
    <mode>BASIC</mode></featureParams>
  <stageNum>24</stageNum>
  <stages>
    <!-- stage 0 -->
    <_>
      <maxWeakCount>9</maxWeakCount>
      <stageThreshold>1.1684434721246362e-03</stageThreshold>
      <weakClassifiers>
        <_>
          <internalNodes>
            0 -1 71 1.8952181562781334e-04</internalNodes>
          <leafValues>
            5.2117264270782471e-01 -6.3768118619918823e-01</leafValues></_>
        <_>
          <internalNodes>
            0 -1 75 -4.3260656297206879e-02</internalNodes>
          <leafValues>
            8.3925390243530273e-01 -2.2971469163894653e-01</leafValues></_>
        <_>
          <internalNodes>
            0 -1 306 -5.3874793229624629e-04</internalNodes>
          <leafValues>
            -7.9635322093963623e-01 3.1101804971694946e-01</leafValues></_>
        <_>
          <internalNodes>
            0 -1 63 -7.8376665711402893e-02</internalNodes>
          <leafValues>
            8.0460345745086670e-01 -2.9059618711471558e-01</leafValues></_>
        <_>
          <internalNodes>
            0 -1 79 -5.4209135472774506e-02</internalNodes>
          <leafValues>
            -6.8349653482437134e-01 3.8128265738487244e-01</leafValues></_>
        <_>
          <internalNodes>
            0 -1 436 3.8458354538306594e-04</internalNodes>
          <leafValues>
            2.3893637955188751e-01 -8.4483242034912109e-01</leafValues></_>
        <_>
          <internalNodes>
            0 -1 436 -2.9948621522635221e-04</internalNodes>
          <leafValues>
            -9.2687427997589111e-01 2.6384818553924561e-01</leafValues></_>
        <_>
          <internalNodes>
            0 -1 154 -4.5962389558553696e-03</internalNodes>
          <leafValues>
            8.0258756875991821e-01 -3.6422055959701538e-01</leafValues></_>
        <_>
          <internalNodes>
            0 -1 248 3.2796373125165701e-04</internalNodes>
          <leafValues>
            3.6669841408729553e-01 -6.7257803678512573e-01</leafValues></_></weakClassifiers></_>
    <!-- stage 1 -->
    <_>
      <maxWeakCount>10</maxWeakCount>
      <stageThreshold>-2.5987625122070313e-01</stageThreshold>
      <weakClassifiers>
        <_>
          <internalNodes>
            0 -1 71 -1.6832057735882699e-04</internalNodes>
          <leafValues>
            -5.1136362552642822e-01 5.4964536428451538e-01</leafValues></_>
        <_>
          <internalNodes>
            0 -1 436 9.9046468676533550e-05</internalNodes>
          <leafValues>
            3.2894006371498108e-01 -6.3823103904724121e-01</leafValues></_>
        <_>
          <internalNodes>
            0 -1 148 1.6707120812498033e-04</internalNodes>
          <leafValues>
            3.2751187682151794e-01 -6.1391341686248779e-01</leafValues></_>
        <_>
          <internalNodes>
            0 -1 256 8.7903940584510565e-04</internalNodes>
          <leafValues>
            2.4537466466426849e-01 -7.0406019687652588e-01</leafValues></_>
        <_>
          <internalNodes>
            0 -1 343 1.0281321592628956e-03</internalNodes>
          <leafValues>
            2.4889081716537476e-01 -8.0783575773239136e-01</leafValues></_>
        <_>
          <internalNodes>
            0 -1 312 -1.5181583585217595e-03</internalNodes>
          <leafValues>
            -7.4865937232971191e-01 2.0958481729030609e-01</leafValues></_>
        <_>
          <internalNodes>
            0 -1 206 7.0741823874413967e-03</internalNodes>
          <leafValues>
            -2.8836292028427124e-01 7.2947043180465698e-01</leafValues></_>
        <_>
          <internalNodes>
            0 -1 413 -1.6115584003273398e-04</internalNodes>
          <leafValues>
            -7.7625286579132080e-01 2.4263121187686920e-01</leafValues></_>
        <_>
          <internalNodes>
            0 -1 366 -1.2124018743634224e-02</internalNodes>
          <leafValues>
            6.1512488126754761e-01 -3.0179253220558167e-01</leafValues></_>
        <_>
          <internalNodes>
            0 -1 413 8.7206666648853570e-05</internalNodes>
          <leafValues>
            2.4825671315193176e-01 -7.1103692054748535e-01</leafValues></_></weakClassifiers></_>
    <!-- stage 2 -->
    <_>
      <maxWeakCount>14</maxWeakCount>
      <stageThreshold>-4.4963249564170837e-01</stageThreshold>
      <weakClassifiers>
        <_>
          <internalNodes>
            0 -1 1 2.6882597012445331e-04</internalNodes>
          <leafValues>
            4.3251532316207886e-01 -7.0454543828964233e-01</leafValues></_>
        <_>
          <internalNodes>
            0 -1 18 1.1842022649943829e-03</internalNodes>
          <leafValues>
            -3.3062434196472168e-01 3.9837905764579773e-01</leafValues></_>
        <_>
          <internalNodes>
            0 -1 1 -1.7565270536579192e-04</internalNodes>
          <leafValues>
            -7.2549206018447876e-01 2.3244403302669525e-01</leafValues></_>
        <_>
          <internalNodes>
            0 -1 379 -1.4104621368460357e-04</internalNodes>
          <leafValues>
            -6.4131438732147217e-01 1.6203106939792633e-01</leafValues></_>
        <_>
          <internalNodes>
            0 -1 193 3.4967847168445587e-03</internalNodes>
          <leafValues>
            -2.0381313562393188e-01 6.4299774169921875e-01</leafValues></_>
        <_>
          <internalNodes>
            0 -1 419 1.1953686771448702e-04</internalNodes>
          <leafValues>
            2.1922744810581207e-01 -5.6416821479797363e-01</leafValues></_>
        <_>
          <internalNodes>
            0 -1 125 1.3445219956338406e-03</internalNodes>
          <leafValues>
            -3.9252626895904541e-01 3.4120583534240723e-01</leafValues></_>
        <_>
          <internalNodes>
            0 -1 262 2.0170854404568672e-03</internalNodes>
          <leafValues>
            1.6482624411582947e-01 -7.3382776975631714e-01</leafValues></_>
        <_>
          <internalNodes>
            0 -1 456 8.6878048023208976e-05</internalNodes>
          <leafValues>
            1.3212025165557861e-01 -7.6199388504028320e-01</leafValues></_>
        <_>
          <internalNodes>
            0 -1 91 -1.1355336755514145e-03</internalNodes>
          <leafValues>
            5.6092500686645508e-01 -2.4080188572406769e-01</leafValues></_>
        <_>
          <internalNodes>
            0 -1 237 -2.4218574981205165e-04</internalNodes>
          <leafValues>
            -6.8191164731979370e-01 1.9520738720893860e-01</leafValues></_>
        <_>
          <internalNodes>
            0 -1 54 -2.4873986840248108e-02</internalNodes>
          <leafValues>
            4.9020653963088989e-01 -2.8361734747886658e-01</leafValues></_>
        <_>
          <internalNodes>
            0 -1 95 2.7814994100481272e-03</internalNodes>
          <leafValues>
            -1.9583947956562042e-01 6.6935533285140991e-01</leafValues></_>
        <_>
          <internalNodes>
            0 -1 221 -3.7451894022524357e-03</internalNodes>
          <leafValues>
            5.3446781635284424e-01 -2.6159667968750000e-01</leafValues></_></weakClassifiers></_>
    <!-- stage 3 -->
    <_>
      <maxWeakCount>17</maxWeakCount>
      <stageThreshold>-2.6593226194381714e-01</stageThreshold>
      <weakClassifiers>
        <_>
          <internalNodes>
            0 -1 0 7.5052645115647465e-05</internalNodes>
          <leafValues>
            4.4132232666015625e-01 -3.4814813733100891e-01</leafValues></_>
        <_>
          <internalNodes>
            0 -1 23 5.1351555157452822e-04</internalNodes>
          <leafValues>
            -2.3556388914585114e-01 5.0968307256698608e-01</leafValues></_>
        <_>
          <internalNodes>
            0 -1 252 1.0800204472616315e-03</internalNodes>
          <leafValues>
            -1.6606721282005310e-01 6.8938225507736206e-01</leafValues></_>
        <_>
          <internalNodes>
            0 -1 411 5.1703257486224174e-04</internalNodes>
          <leafValues>
            -1.8606902658939362e-01 6.9369471073150635e-01</leafValues></_>
        <_>
          <internalNodes>
            0 -1 61 8.4115155041217804e-03</internalNodes>
          <leafValues>
            -1.9072151184082031e-01 6.3231968879699707e-01</leafValues></_>
        <_>
          <internalNodes>
            0 -1 162 -1.1401370284147561e-04</internalNodes>
          <leafValues>
            -4.8417514562606812e-01 2.6928773522377014e-01</leafValues></_>
        <_>
          <internalNodes>
            0 -1 14 -2.5587277486920357e-03</internalNodes>
          <leafValues>
            5.2379852533340454e-01 -2.4215714633464813e-01</leafValues></_>
        <_>
          <internalNodes>
            0 -1 43 1.7471422324888408e-05</internalNodes>
          <leafValues>
            2.4928276240825653e-01 -4.8075309395790100e-01</leafValues></_>
        <_>
          <internalNodes>
            0 -1 307 -1.9694981165230274e-03</internalNodes>
          <leafValues>
            3.5013735294342041e-01 -3.9726063609123230e-01</leafValues></_>
        <_>
          <internalNodes>
            0 -1 292 2.6128347963094711e-04</internalNodes>
          <leafValues>
            2.3711732029914856e-01 -5.6264042854309082e-01</leafValues></_>
        <_>
          <internalNodes>
            0 -1 446 -2.7580228634178638e-03</internalNodes>
          <leafValues>
            5.0825589895248413e-01 -2.6708063483238220e-01</leafValues></_>
        <_>
          <internalNodes>
            0 -1 131 4.0683509723749012e-05</internalNodes>
          <leafValues>
            3.0418312549591064e-01 -4.1980713605880737e-01</leafValues></_>
        <_>
          <internalNodes>
            0 -1 182 2.0540159195661545e-02</internalNodes>
          <leafValues>
            -2.6311612129211426e-01 5.1578897237777710e-01</leafValues></_>
        <_>
          <internalNodes>
            0 -1 268 -3.5863477387465537e-04</internalNodes>
          <leafValues>
            6.5692365169525146e-01 -1.8532298505306244e-01</leafValues></_>
        <_>
          <internalNodes>
            0 -1 113 -1.3015146832913160e-03</internalNodes>
          <leafValues>
            5.1819014549255371e-01 -2.5165846943855286e-01</leafValues></_>
        <_>
          <internalNodes>
            0 -1 255 -2.7490881620906293e-04</internalNodes>
          <leafValues>
            -6.3566768169403076e-01 2.2669300436973572e-01</leafValues></_>
        <_>
          <internalNodes>
            0 -1 405 1.1606689076870680e-03</internalNodes>
          <leafValues>
            -3.5404780507087708e-01 4.2377504706382751e-01</leafValues></_></weakClassifiers></_>
    <!-- stage 4 -->
    <_>
      <maxWeakCount>17</maxWeakCount>
      <stageThreshold>-2.3785936832427979e-01</stageThreshold>
      <weakClassifiers>
        <_>
          <internalNodes>
            0 -1 156 1.2179064797237515e-03</internalNodes>
          <leafValues>
            3.4168563783168793e-02 6.8106311559677124e-01</leafValues></_>
        <_>
          <internalNodes>
            0 -1 424 -1.4512788038700819e-03</internalNodes>
          <leafValues>
            5.2665472030639648e-01 -1.9402129948139191e-01</leafValues></_>
        <_>
          <internalNodes>
            0 -1 388 1.9717193208634853e-03</internalNodes>
          <leafValues>
            -1.9009891152381897e-01 5.4626160860061646e-01</leafValues></_>
        <_>
          <internalNodes>
            0 -1 394 4.5211873948574066e-03</internalNodes>
          <leafValues>
            -1.9717428088188171e-01 5.7551741600036621e-01</leafValues></_>
        <_>
          <internalNodes>
            0 -1 195 1.1203791655134410e-04</internalNodes>
          <leafValues>
            2.4660953879356384e-01 -4.3990734219551086e-01</leafValues></_>
        <_>
          <internalNodes>
            0 -1 235 9.5859158318489790e-04</internalNodes>
          <leafValues>
            -2.0422045886516571e-01 5.4304039478302002e-01</leafValues></_>
        <_>
          <internalNodes>
            0 -1 242 -7.5065193232148886e-04</internalNodes>
          <leafValues>
            5.7369941473007202e-01 -2.3645319044589996e-01</leafValues></_>
        <_>
          <internalNodes>
            0 -1 130 -4.6190674765966833e-05</internalNodes>
          <leafValues>
            -4.6834680438041687e-01 2.7729293704032898e-01</leafValues></_>
        <_>
          <internalNodes>
            0 -1 390 1.1130452185170725e-04</internalNodes>
          <leafValues>
            2.1945561468601227e-01 -6.3971179723739624e-01</leafValues></_>
        <_>
          <internalNodes>
            0 -1 30 -9.6854113508015871e-04</internalNodes>
          <leafValues>
            5.2208822965621948e-01 -2.5923216342926025e-01</leafValues></_>
        <_>
          <internalNodes>
            0 -1 454 6.7172906710766256e-05</internalNodes>
          <leafValues>
            2.1279528737068176e-01 -6.3809919357299805e-01</leafValues></_>
        <_>
          <internalNodes>
            0 -1 398 -1.8297425704076886e-03</internalNodes>
          <leafValues>
            6.0735237598419189e-01 -2.3102718591690063e-01</leafValues></_>
        <_>
          <internalNodes>
            0 -1 297 -1.8773171177599579e-04</internalNodes>
          <leafValues>
            -6.0071563720703125e-01 2.7246841788291931e-01</leafValues></_>
        <_>
          <internalNodes>
            0 -1 318 1.6217350494116545e-03</internalNodes>
          <leafValues>
            -3.1972736120223999e-01 4.0270131826400757e-01</leafValues></_>
        <_>
          <internalNodes>
            0 -1 320 2.9669882496818900e-04</internalNodes>
          <leafValues>
            2.5841864943504333e-01 -5.6918197870254517e-01</leafValues></_>
        <_>
          <internalNodes>
            0 -1 83 -1.0396318975836039e-03</internalNodes>
          <leafValues>
            5.6446111202239990e-01 -2.5280979275703430e-01</leafValues></_>
        <_>
          <internalNodes>
            0 -1 170 1.5982259064912796e-02</internalNodes>
          <leafValues>
            -1.6293321549892426e-01 7.8471672534942627e-01</leafValues></_></weakClassifiers></_>
    <!-- stage 5 -->
    <_>
      <maxWeakCount>17</maxWeakCount>
      <stageThreshold>-5.9992444515228271e-01</stageThreshold>
      <weakClassifiers>
        <_>
          <internalNodes>
            0 -1 413 2.0076641521882266e-04</internalNodes>
          <leafValues>
            4.0866872668266296e-01 -6.4285713434219360e-01</leafValues></_>
        <_>
          <internalNodes>
            0 -1 51 -5.3099228534847498e-04</internalNodes>
          <leafValues>
            4.3524512648582458e-01 -3.0869141221046448e-01</leafValues></_>
        <_>
          <internalNodes>
            0 -1 73 1.3708100654184818e-02</internalNodes>
          <leafValues>
            -1.7063175141811371e-01 6.4194798469543457e-01</leafValues></_>
        <_>
          <internalNodes>
            0 -1 119 -3.5712651908397675e-02</internalNodes>
          <leafValues>
            5.7852762937545776e-01 -2.6991316676139832e-01</leafValues></_>
        <_>
          <internalNodes>
            0 -1 413 -8.8479006080888212e-05</internalNodes>
          <leafValues>
            -5.3772896528244019e-01 2.7872338891029358e-01</leafValues></_>
        <_>
          <internalNodes>
            0 -1 354 1.6879098257049918e-04</internalNodes>
          <leafValues>
            1.4753334224224091e-01 -6.0179191827774048e-01</leafValues></_>
        <_>
          <internalNodes>
            0 -1 438 1.5375040238723159e-03</internalNodes>
          <leafValues>
            -2.3226241767406464e-01 5.3543257713317871e-01</leafValues></_>
        <_>
          <internalNodes>
            0 -1 245 -1.8475187243893743e-04</internalNodes>
          <leafValues>
            -5.1323676109313965e-01 2.1464584767818451e-01</leafValues></_>
        <_>
          <internalNodes>
            0 -1 106 -1.5253138262778521e-03</internalNodes>
          <leafValues>
            6.6133236885070801e-01 -1.9043195247650146e-01</leafValues></_>
        <_>
          <internalNodes>
            0 -1 194 -6.6568469628691673e-04</internalNodes>
          <leafValues>
            4.3055641651153564e-01 -2.6968434453010559e-01</leafValues></_>
        <_>
          <internalNodes>
            0 -1 232 -3.2756815198808908e-04</internalNodes>
          <leafValues>
            -5.7610833644866943e-01 2.2709807753562927e-01</leafValues></_>
        <_>
          <internalNodes>
            0 -1 234 -1.2068513780832291e-02</internalNodes>
          <leafValues>
            7.2998660802841187e-01 -1.6367597877979279e-01</leafValues></_>
        <_>
          <internalNodes>
            0 -1 346 -1.2885969772469252e-04</internalNodes>
          <leafValues>
            -5.5040162801742554e-01 2.1651867032051086e-01</leafValues></_>
        <_>
          <internalNodes>
            0 -1 385 -2.1896597463637590e-03</internalNodes>
          <leafValues>
            5.0353807210922241e-01 -2.2852483391761780e-01</leafValues></_>
        <_>
          <internalNodes>
            0 -1 287 3.5730889067053795e-03</internalNodes>
          <leafValues>
            -2.3243749141693115e-01 4.7630923986434937e-01</leafValues></_>
        <_>
          <internalNodes>
            0 -1 24 -1.3255628291517496e-03</internalNodes>
          <leafValues>
            4.7369855642318726e-01 -2.5890570878982544e-01</leafValues></_>
        <_>
          <internalNodes>
            0 -1 373 -1.2330804020166397e-04</internalNodes>
          <leafValues>
            -5.5543130636215210e-01 2.1971836686134338e-01</leafValues></_></weakClassifiers></_>
    <!-- stage 6 -->
    <_>
      <maxWeakCount>15</maxWeakCount>
      <stageThreshold>-2.3704145848751068e-01</stageThreshold>
      <weakClassifiers>
        <_>
          <internalNodes>
            0 -1 177 6.9411098957061768e-04</internalNodes>
          <leafValues>
            6.4516127109527588e-02 7.6068377494812012e-01</leafValues></_>
        <_>
          <internalNodes>
            0 -1 166 -3.1107682734727859e-03</internalNodes>
          <leafValues>
            8.2524180412292480e-01 -1.2172523140907288e-01</leafValues></_>
        <_>
          <internalNodes>
            0 -1 179 1.4235745184123516e-03</internalNodes>
          <leafValues>
            -1.7416982352733612e-01 7.6362341642379761e-01</leafValues></_>
        <_>
          <internalNodes>
            0 -1 273 7.7331569045782089e-03</internalNodes>
          <leafValues>
            -2.2001016139984131e-01 5.7349652051925659e-01</leafValues></_>
        <_>
          <internalNodes>
            0 -1 157 9.7198709845542908e-03</internalNodes>
          <leafValues>
            -1.4412559568881989e-01 8.4949469566345215e-01</leafValues></_>
        <_>
          <internalNodes>
            0 -1 84 5.6719724088907242e-03</internalNodes>
          <leafValues>
            -1.8914365768432617e-01 6.4896845817565918e-01</leafValues></_>
        <_>
          <internalNodes>
            0 -1 406 2.3416010662913322e-03</internalNodes>
          <leafValues>
            -1.5508922934532166e-01 6.8115103244781494e-01</leafValues></_>
        <_>
          <internalNodes>
            0 -1 280 -3.6535819526761770e-03</internalNodes>
          <leafValues>
            8.2809162139892578e-01 -1.3529004156589508e-01</leafValues></_>
        <_>
          <internalNodes>
            0 -1 152 -5.3274311358109117e-04</internalNodes>
          <leafValues>
            5.1951348781585693e-01 -2.3216310143470764e-01</leafValues></_>
        <_>
          <internalNodes>
            0 -1 82 -6.4307730644941330e-04</internalNodes>
          <leafValues>
            6.8506199121475220e-01 -1.9931961596012115e-01</leafValues></_>
        <_>
          <internalNodes>
            0 -1 98 -5.1719527691602707e-03</internalNodes>
          <leafValues>
            5.2834701538085938e-01 -2.1604038774967194e-01</leafValues></_>
        <_>
          <internalNodes>
            0 -1 465 5.4152554366737604e-04</internalNodes>
          <leafValues>
            -2.6548105478286743e-01 4.5814692974090576e-01</leafValues></_>
        <_>
          <internalNodes>
            0 -1 419 -2.1392613416537642e-04</internalNodes>
          <leafValues>
            -7.2397178411483765e-01 1.9272834062576294e-01</leafValues></_>
        <_>
          <internalNodes>
            0 -1 55 1.1418967042118311e-03</internalNodes>
          <leafValues>
            -2.4351292848587036e-01 5.7822650671005249e-01</leafValues></_>
        <_>
          <internalNodes>
            0 -1 259 -7.3818591772578657e-05</internalNodes>
          <leafValues>
            -4.3956595659255981e-01 3.0044010281562805e-01</leafValues></_></weakClassifiers></_>
    <!-- stage 7 -->
    <_>
      <maxWeakCount>19</maxWeakCount>
      <stageThreshold>-1.4371661841869354e-01</stageThreshold>
      <weakClassifiers>
        <_>
          <internalNodes>
            0 -1 377 9.5581576228141785e-02</internalNodes>
          <leafValues>
            3.8438880443572998e-01 -1.</leafValues></_>
        <_>
          <internalNodes>
            0 -1 153 4.3622851371765137e-03</internalNodes>
          <leafValues>
            -1.4828555285930634e-01 6.0397762060165405e-01</leafValues></_>
        <_>
          <internalNodes>
            0 -1 337 5.6104972027242184e-03</internalNodes>
          <leafValues>
            -2.2636024653911591e-01 4.2180001735687256e-01</leafValues></_>
        <_>
          <internalNodes>
            0 -1 464 -1.0039816843345761e-03</internalNodes>
          <leafValues>
            4.8168906569480896e-01 -2.2630681097507477e-01</leafValues></_>
        <_>
          <internalNodes>
            0 -1 361 -5.7806144468486309e-03</internalNodes>
          <leafValues>
            4.3453106284141541e-01 -2.6494872570037842e-01</leafValues></_>
        <_>
          <internalNodes>
            0 -1 460 -1.0995870979968458e-04</internalNodes>
          <leafValues>
            -4.9867093563079834e-01 2.1390719711780548e-01</leafValues></_>
        <_>
          <internalNodes>
            0 -1 176 -3.9027162711136043e-04</internalNodes>
          <leafValues>
            4.3687000870704651e-01 -2.4314530193805695e-01</leafValues></_>
        <_>
          <internalNodes>
            0 -1 110 5.6175831705331802e-03</internalNodes>
          <leafValues>
            -2.6696437597274780e-01 3.4123018383979797e-01</leafValues></_>
        <_>
          <internalNodes>
            0 -1 381 1.7856749764177948e-04</internalNodes>
          <leafValues>
            2.0658263564109802e-01 -5.0214803218841553e-01</leafValues></_>
        <_>
          <internalNodes>
            0 -1 203 3.6254699807614088e-03</internalNodes>
          <leafValues>
            -2.3363074660301208e-01 5.3853696584701538e-01</leafValues></_>
        <_>
          <internalNodes>
            0 -1 142 1.5555313229560852e-01</internalNodes>
          <leafValues>
            -1.5081728994846344e-01 6.1345744132995605e-01</leafValues></_>
        <_>
          <internalNodes>
            0 -1 93 3.2098717056214809e-03</internalNodes>
          <leafValues>
            -1.6135910153388977e-01 6.9710677862167358e-01</leafValues></_>
        <_>
          <internalNodes>
            0 -1 418 1.3343908358365297e-04</internalNodes>
          <leafValues>
            1.8990141153335571e-01 -6.6091609001159668e-01</leafValues></_>
        <_>
          <internalNodes>
            0 -1 17 4.6682371757924557e-03</internalNodes>
          <leafValues>
            -2.7534955739974976e-01 4.6089497208595276e-01</leafValues></_>
        <_>
          <internalNodes>
            0 -1 279 -8.7769476522225887e-05</internalNodes>
          <leafValues>
            -4.2732825875282288e-01 2.7021753787994385e-01</leafValues></_>
        <_>
          <internalNodes>
            0 -1 143 -1.9957812037318945e-03</internalNodes>
          <leafValues>
            4.9506708979606628e-01 -2.3874121904373169e-01</leafValues></_>
        <_>
          <internalNodes>
            0 -1 114 2.7593774721026421e-02</internalNodes>
          <leafValues>
            -1.9571398198604584e-01 4.9911651015281677e-01</leafValues></_>
        <_>
          <internalNodes>
            0 -1 240 -2.7923418208956718e-02</internalNodes>
          <leafValues>
            5.6865125894546509e-01 -1.9786997139453888e-01</leafValues></_>
        <_>
          <internalNodes>
            0 -1 468 -1.0607787407934666e-04</internalNodes>
          <leafValues>
            -6.9142228364944458e-01 1.8195429444313049e-01</leafValues></_></weakClassifiers></_>
    <!-- stage 8 -->
    <_>
      <maxWeakCount>20</maxWeakCount>
      <stageThreshold>-3.6913108825683594e-01</stageThreshold>
      <weakClassifiers>
        <_>
          <internalNodes>
            0 -1 426 2.9772218316793442e-02</internalNodes>
          <leafValues>
            3.6535662412643433e-01 -9.5348834991455078e-01</leafValues></_>
        <_>
          <internalNodes>
            0 -1 60 1.7117743846029043e-03</internalNodes>
          <leafValues>
            1.6042289137840271e-01 -6.7478996515274048e-01</leafValues></_>
        <_>
          <internalNodes>
            0 -1 463 1.4820124488323927e-03</internalNodes>
          <leafValues>
            -1.6788564622402191e-01 6.5838140249252319e-01</leafValues></_>
        <_>
          <internalNodes>
            0 -1 23 1.3797830324620008e-03</internalNodes>
          <leafValues>
            -1.7396187782287598e-01 5.9149438142776489e-01</leafValues></_>
        <_>
          <internalNodes>
            0 -1 351 3.5347312223166227e-04</internalNodes>
          <leafValues>
            1.9582918286323547e-01 -5.4715013504028320e-01</leafValues></_>
        <_>
          <internalNodes>
            0 -1 295 3.6445938050746918e-02</internalNodes>
          <leafValues>
            -2.1650058031082153e-01 4.8775556683540344e-01</leafValues></_>
        <_>
          <internalNodes>
            0 -1 300 -1.9024361972697079e-04</internalNodes>
          <leafValues>
            -4.2017832398414612e-01 2.9511022567749023e-01</leafValues></_>
        <_>
          <internalNodes>
            0 -1 146 1.0647629387676716e-03</internalNodes>
          <leafValues>
            -1.5500779449939728e-01 6.2415605783462524e-01</leafValues></_>
        <_>
          <internalNodes>
            0 -1 263 1.6547934501431882e-04</internalNodes>
          <leafValues>
            1.9439877569675446e-01 -5.6796127557754517e-01</leafValues></_>
        <_>
          <internalNodes>
            0 -1 58 -5.2710111049236730e-06</internalNodes>
          <leafValues>
            3.0250969529151917e-01 -3.8254970312118530e-01</leafValues></_>
        <_>
          <internalNodes>
            0 -1 269 -4.2253086576238275e-04</internalNodes>
          <leafValues>
            6.5688902139663696e-01 -1.7185573279857635e-01</leafValues></_>
        <_>
          <internalNodes>
            0 -1 217 -1.3603772094938904e-04</internalNodes>
          <leafValues>
            -4.2298534512519836e-01 2.6278549432754517e-01</leafValues></_>
        <_>
          <internalNodes>
            0 -1 309 -7.9062934964895248e-03</internalNodes>
          <leafValues>
            7.9335427284240723e-01 -1.4649647474288940e-01</leafValues></_>
        <_>
          <internalNodes>
            0 -1 469 3.0466826865449548e-04</internalNodes>
          <leafValues>
            1.9859637320041656e-01 -5.3327161073684692e-01</leafValues></_>
        <_>
          <internalNodes>
            0 -1 103 3.7861405871808529e-03</internalNodes>
          <leafValues>
            -1.8086664378643036e-01 5.7467377185821533e-01</leafValues></_>
        <_>
          <internalNodes>
            0 -1 260 5.3466057579498738e-05</internalNodes>
          <leafValues>
            -2.9703781008720398e-01 3.5232570767402649e-01</leafValues></_>
        <_>
          <internalNodes>
            0 -1 383 4.1011691791936755e-04</internalNodes>
          <leafValues>
            2.3662480711936951e-01 -4.3812999129295349e-01</leafValues></_>
        <_>
          <internalNodes>
            0 -1 224 -3.4133174922317266e-03</internalNodes>
          <leafValues>
            9.7923284769058228e-01 -1.1487103998661041e-01</leafValues></_>
        <_>
          <internalNodes>
            0 -1 347 1.1848250869661570e-04</internalNodes>
          <leafValues>
            -2.6998284459114075e-01 3.9465799927711487e-01</leafValues></_>
        <_>
          <internalNodes>
            0 -1 266 -1.6771708033047616e-04</internalNodes>
          <leafValues>
            -4.8834931850433350e-01 2.0247615873813629e-01</leafValues></_></weakClassifiers></_>
    <!-- stage 9 -->
    <_>
      <maxWeakCount>17</maxWeakCount>
      <stageThreshold>-5.0202000141143799e-01</stageThreshold>
      <weakClassifiers>
        <_>
          <internalNodes>
            0 -1 10 5.8088883757591248e-02</internalNodes>
          <leafValues>
            4.0030440688133240e-01 -7.2602736949920654e-01</leafValues></_>
        <_>
          <internalNodes>
            0 -1 429 1.7695152200758457e-03</internalNodes>
          <leafValues>
            -9.1441616415977478e-02 7.5314515829086304e-01</leafValues></_>
        <_>
          <internalNodes>
            0 -1 355 5.1721942145377398e-04</internalNodes>
          <leafValues>
            -1.2822853028774261e-01 9.5464324951171875e-01</leafValues></_>
        <_>
          <internalNodes>
            0 -1 41 5.8189257288177032e-06</internalNodes>
          <leafValues>
            -3.2840174436569214e-01 3.2028171420097351e-01</leafValues></_>
        <_>
          <internalNodes>
            0 -1 447 4.6527484664693475e-04</internalNodes>
          <leafValues>
            -1.2841361761093140e-01 9.1077464818954468e-01</leafValues></_>
        <_>
          <internalNodes>
            0 -1 251 5.9055071324110031e-04</internalNodes>
          <leafValues>
            -1.0565793514251709e-01 7.7230149507522583e-01</leafValues></_>
        <_>
          <internalNodes>
            0 -1 369 3.4705369034782052e-04</internalNodes>
          <leafValues>
            -2.1542149782180786e-01 4.1328635811805725e-01</leafValues></_>
        <_>
          <internalNodes>
            0 -1 330 1.1148958001285791e-03</internalNodes>
          <leafValues>
            -1.3831184804439545e-01 8.2238644361495972e-01</leafValues></_>
        <_>
          <internalNodes>
            0 -1 81 4.9240710213780403e-03</internalNodes>
          <leafValues>
            -1.3123737275600433e-01 7.3432612419128418e-01</leafValues></_>
        <_>
          <internalNodes>
            0 -1 2 1.3043142098467797e-04</internalNodes>
          <leafValues>
            1.9953781366348267e-01 -5.9606486558914185e-01</leafValues></_>
        <_>
          <internalNodes>
            0 -1 31 4.4120853999629617e-04</internalNodes>
          <leafValues>
            -1.3752958178520203e-01 8.6241531372070313e-01</leafValues></_>
        <_>
          <internalNodes>
            0 -1 342 -5.1619285841297824e-06</internalNodes>
          <leafValues>
            3.6704969406127930e-01 -2.8421914577484131e-01</leafValues></_>
        <_>
          <internalNodes>
            0 -1 168 9.5535907894372940e-03</internalNodes>
          <leafValues>
            -1.9880168139934540e-01 5.2801668643951416e-01</leafValues></_>
        <_>
          <internalNodes>
            0 -1 104 -4.4817645102739334e-03</internalNodes>
          <leafValues>
            7.2349989414215088e-01 -1.4462999999523163e-01</leafValues></_>
        <_>
          <internalNodes>
            0 -1 226 -8.7406523525714874e-03</internalNodes>
          <leafValues>
            -6.6264975070953369e-01 1.8063405156135559e-01</leafValues></_>
        <_>
          <internalNodes>
            0 -1 165 5.2714953199028969e-04</internalNodes>
          <leafValues>
            -2.0266953110694885e-01 6.0870057344436646e-01</leafValues></_>
        <_>
          <internalNodes>
            0 -1 80 -4.1838451288640499e-03</internalNodes>
          <leafValues>
            8.1087714433670044e-01 -1.2553517520427704e-01</leafValues></_></weakClassifiers></_>
    <!-- stage 10 -->
    <_>
      <maxWeakCount>22</maxWeakCount>
      <stageThreshold>-3.6691543459892273e-01</stageThreshold>
      <weakClassifiers>
        <_>
          <internalNodes>
            0 -1 457 1.6654793580528349e-04</internalNodes>
          <leafValues>
            4.0799999237060547e-01 -5.0000000000000000e-01</leafValues></_>
        <_>
          <internalNodes>
            0 -1 308 1.1201684828847647e-03</internalNodes>
          <leafValues>
            -1.0313043743371964e-01 7.1481519937515259e-01</leafValues></_>
        <_>
          <internalNodes>
            0 -1 6 1.9093195442110300e-03</internalNodes>
          <leafValues>
            -1.4221051335334778e-01 5.7425844669342041e-01</leafValues></_>
        <_>
          <internalNodes>
            0 -1 448 -1.4755045995116234e-03</internalNodes>
          <leafValues>
            7.7668470144271851e-01 -1.2057372927665710e-01</leafValues></_>
        <_>
          <internalNodes>
            0 -1 381 -1.3878877507522702e-04</internalNodes>
          <leafValues>
            -4.2852973937988281e-01 1.9770058989524841e-01</leafValues></_>
        <_>
          <internalNodes>
            0 -1 450 9.8370038904249668e-04</internalNodes>
          <leafValues>
            -1.4790092408657074e-01 5.7823514938354492e-01</leafValues></_>
        <_>
          <internalNodes>
            0 -1 101 -1.9922958686947823e-02</internalNodes>
          <leafValues>
            4.7474095225334167e-01 -2.0313477516174316e-01</leafValues></_>
        <_>
          <internalNodes>
            0 -1 265 3.5944240516982973e-04</internalNodes>
          <leafValues>
            -2.4207875132560730e-01 3.8516309857368469e-01</leafValues></_>
        <_>
          <internalNodes>
            0 -1 134 9.3973930925130844e-03</internalNodes>
          <leafValues>
            -3.2842835783958435e-01 3.1602525711059570e-01</leafValues></_>
        <_>
          <internalNodes>
            0 -1 326 3.3280747011303902e-03</internalNodes>
          <leafValues>
            -2.8256282210350037e-01 3.4619307518005371e-01</leafValues></_>
        <_>
          <internalNodes>
            0 -1 45 -1.3710747589357197e-04</internalNodes>
          <leafValues>
            -6.4680379629135132e-01 1.5891015529632568e-01</leafValues></_>
        <_>
          <internalNodes>
            0 -1 365 2.3803981021046638e-03</internalNodes>
          <leafValues>
            -1.0989690572023392e-01 8.9612567424774170e-01</leafValues></_>
        <_>
          <internalNodes>
            0 -1 181 2.8247926384210587e-03</internalNodes>
          <leafValues>
            -1.4861720800399780e-01 5.7662111520767212e-01</leafValues></_>
        <_>
          <internalNodes>
            0 -1 210 3.8744763005524874e-03</internalNodes>
          <leafValues>
            -9.5888026058673859e-02 8.3524143695831299e-01</leafValues></_>
        <_>
          <internalNodes>
            0 -1 87 -3.3749928115867078e-04</internalNodes>
          <leafValues>
            3.7055587768554688e-01 -2.4161426723003387e-01</leafValues></_>
        <_>
          <internalNodes>
            0 -1 204 -6.9342239294201136e-04</internalNodes>
          <leafValues>
            5.3495216369628906e-01 -1.7575107514858246e-01</leafValues></_>
        <_>
          <internalNodes>
            0 -1 44 9.6908843261189759e-05</internalNodes>
          <leafValues>
            1.4974449574947357e-01 -7.2621351480484009e-01</leafValues></_>
        <_>
          <internalNodes>
            0 -1 375 -1.5019682177808136e-04</internalNodes>
          <leafValues>
            -4.7397416830062866e-01 1.7892213165760040e-01</leafValues></_>
        <_>
          <internalNodes>
            0 -1 311 1.0890748817473650e-03</internalNodes>
          <leafValues>
            -1.8975929915904999e-01 5.1957648992538452e-01</leafValues></_>
        <_>
          <internalNodes>
            0 -1 316 -1.2527056969702244e-04</internalNodes>
          <leafValues>
            -4.4350993633270264e-01 2.0114678144454956e-01</leafValues></_>
        <_>
          <internalNodes>
            0 -1 444 -1.1483312118798494e-03</internalNodes>
          <leafValues>
            6.3807785511016846e-01 -1.4537416398525238e-01</leafValues></_>
        <_>
          <internalNodes>
            0 -1 437 4.2420145473442972e-04</internalNodes>
          <leafValues>
            -2.5488209724426270e-01 4.0655693411827087e-01</leafValues></_></weakClassifiers></_>
    <!-- stage 11 -->
    <_>
      <maxWeakCount>21</maxWeakCount>
      <stageThreshold>-3.8679587841033936e-01</stageThreshold>
      <weakClassifiers>
        <_>
          <internalNodes>
            0 -1 212 7.0316463708877563e-02</internalNodes>
          <leafValues>
            3.8863286375999451e-01 -6.4864861965179443e-01</leafValues></_>
        <_>
          <internalNodes>
            0 -1 270 3.9693322032690048e-02</internalNodes>
          <leafValues>
            -1.1512229591608047e-01 5.9762287139892578e-01</leafValues></_>
        <_>
          <internalNodes>
            0 -1 32 6.6725085489451885e-03</internalNodes>
          <leafValues>
            -1.6927845776081085e-01 7.0623868703842163e-01</leafValues></_>
        <_>
          <internalNodes>
            0 -1 169 -8.9713634224608541e-05</internalNodes>
          <leafValues>
            -3.1326565146446228e-01 2.4970361590385437e-01</leafValues></_>
        <_>
          <internalNodes>
            0 -1 466 3.2637817785143852e-03</internalNodes>
          <leafValues>
            -1.1812264472246170e-01 9.1511321067810059e-01</leafValues></_>
        <_>
          <internalNodes>
            0 -1 183 2.9263817705214024e-03</internalNodes>
          <leafValues>
            -1.3427209854125977e-01 5.4971289634704590e-01</leafValues></_>
        <_>
          <internalNodes>
            0 -1 8 -7.5764028588309884e-04</internalNodes>
          <leafValues>
            -6.1279964447021484e-01 1.4749149978160858e-01</leafValues></_>
        <_>
          <internalNodes>
            0 -1 78 1.5724084805697203e-03</internalNodes>
          <leafValues>
            -1.6600231826305389e-01 5.5281585454940796e-01</leafValues></_>
        <_>
          <internalNodes>
            0 -1 118 -1.7097511887550354e-01</internalNodes>
          <leafValues>
            7.3997938632965088e-01 -1.0852325707674026e-01</leafValues></_>
        <_>
          <internalNodes>
            0 -1 155 -5.1290523260831833e-03</internalNodes>
          <leafValues>
            7.5734293460845947e-01 -9.2188142240047455e-02</leafValues></_>
        <_>
          <internalNodes>
            0 -1 38 -2.4801412597298622e-02</internalNodes>
          <leafValues>
            3.9573389291763306e-01 -2.5218090415000916e-01</leafValues></_>
        <_>
          <internalNodes>
            0 -1 116 3.4703955054283142e-02</internalNodes>
          <leafValues>
            -2.2699016332626343e-01 4.9419638514518738e-01</leafValues></_>
        <_>
          <internalNodes>
            0 -1 65 -2.5957538746297359e-03</internalNodes>
          <leafValues>
            5.7446402311325073e-01 -1.6005846858024597e-01</leafValues></_>
        <_>
          <internalNodes>
            0 -1 239 -2.3562368005514145e-03</internalNodes>
          <leafValues>
            -3.9267516136169434e-01 2.1841017901897430e-01</leafValues></_>
        <_>
          <internalNodes>
            0 -1 301 1.1671062093228102e-03</internalNodes>
          <leafValues>
            -1.8898518383502960e-01 4.7880259156227112e-01</leafValues></_>
        <_>
          <internalNodes>
            0 -1 470 3.4482311457395554e-03</internalNodes>
          <leafValues>
            1.7507115006446838e-01 -5.3000354766845703e-01</leafValues></_>
        <_>
          <internalNodes>
            0 -1 102 -2.5669387541711330e-03</internalNodes>
          <leafValues>
            3.9208257198333740e-01 -2.1596048772335052e-01</leafValues></_>
        <_>
          <internalNodes>
            0 -1 15 9.8906108178198338e-04</internalNodes>
          <leafValues>
            -2.4123843014240265e-01 3.5141602158546448e-01</leafValues></_>
        <_>
          <internalNodes>
            0 -1 36 -5.4821534831717145e-06</internalNodes>
          <leafValues>
            3.6103644967079163e-01 -2.2920547425746918e-01</leafValues></_>
        <_>
          <internalNodes>
            0 -1 35 1.4529949985444546e-03</internalNodes>
          <leafValues>
            -9.8054289817810059e-02 8.5959756374359131e-01</leafValues></_>
        <_>
          <internalNodes>
            0 -1 281 -2.6901095407083631e-04</internalNodes>
          <leafValues>
            -4.1131559014320374e-01 2.3733226954936981e-01</leafValues></_></weakClassifiers></_>
    <!-- stage 12 -->
    <_>
      <maxWeakCount>23</maxWeakCount>
      <stageThreshold>-4.4774347543716431e-01</stageThreshold>
      <weakClassifiers>
        <_>
          <internalNodes>
            0 -1 404 2.4086993653327227e-04</internalNodes>
          <leafValues>
            4.3006992340087891e-01 -3.1081080436706543e-01</leafValues></_>
        <_>
          <internalNodes>
            0 -1 27 1.0693519143387675e-03</internalNodes>
          <leafValues>
            -7.5919494032859802e-02 8.2964885234832764e-01</leafValues></_>
        <_>
          <internalNodes>
            0 -1 348 -1.6318153939209878e-04</internalNodes>
          <leafValues>
            -6.6170507669448853e-01 1.1780047416687012e-01</leafValues></_>
        <_>
          <internalNodes>
            0 -1 420 -2.0757003221660852e-04</internalNodes>
          <leafValues>
            -5.8275955915451050e-01 1.6265954077243805e-01</leafValues></_>
        <_>
          <internalNodes>
            0 -1 431 3.6558398278430104e-04</internalNodes>
          <leafValues>
            -1.2966220080852509e-01 6.3734024763107300e-01</leafValues></_>
        <_>
          <internalNodes>
            0 -1 127 -1.0420115431770682e-03</internalNodes>
          <leafValues>
            7.0616513490676880e-01 -1.3832855224609375e-01</leafValues></_>
        <_>
          <internalNodes>
            0 -1 409 -6.2232511118054390e-03</internalNodes>
          <leafValues>
            5.6303131580352783e-01 -1.2741667032241821e-01</leafValues></_>
        <_>
          <internalNodes>
            0 -1 277 1.7008386203087866e-04</internalNodes>
          <leafValues>
            1.8323083221912384e-01 -6.0288137197494507e-01</leafValues></_>
        <_>
          <internalNodes>
            0 -1 341 1.7568445764482021e-03</internalNodes>
          <leafValues>
            -3.3250889182090759e-01 2.3246984183788300e-01</leafValues></_>
        <_>
          <internalNodes>
            0 -1 174 2.9742056503891945e-02</internalNodes>
          <leafValues>
            -1.6901318728923798e-01 4.6750518679618835e-01</leafValues></_>
        <_>
          <internalNodes>
            0 -1 9 -5.5973738431930542e-02</internalNodes>
          <leafValues>
            -7.9146885871887207e-01 1.1447978019714355e-01</leafValues></_>
        <_>
          <internalNodes>
            0 -1 180 4.0168017148971558e-03</internalNodes>
          <leafValues>
            -1.1514944583177567e-01 8.3330702781677246e-01</leafValues></_>
        <_>
          <internalNodes>
            0 -1 211 -3.3401403925381601e-04</internalNodes>
          <leafValues>
            5.2038586139678955e-01 -1.2743303179740906e-01</leafValues></_>
        <_>
          <internalNodes>
            0 -1 117 9.4560440629720688e-03</internalNodes>
          <leafValues>
            -2.8802737593650818e-01 2.9290628433227539e-01</leafValues></_>
        <_>
          <internalNodes>
            0 -1 428 1.4537898096023127e-05</internalNodes>
          <leafValues>
            -2.3658905923366547e-01 3.7213292717933655e-01</leafValues></_>
        <_>
          <internalNodes>
            0 -1 276 -2.0566691819112748e-04</internalNodes>
          <leafValues>
            -4.9270096421241760e-01 1.7585279047489166e-01</leafValues></_>
        <_>
          <internalNodes>
            0 -1 188 2.6634386181831360e-01</internalNodes>
          <leafValues>
            -1.2547305226325989e-01 7.7670776844024658e-01</leafValues></_>
        <_>
          <internalNodes>
            0 -1 442 2.3187878541648388e-03</internalNodes>
          <leafValues>
            -1.0429979860782623e-01 7.1891993284225464e-01</leafValues></_>
        <_>
          <internalNodes>
            0 -1 474 -1.3975406181998551e-04</internalNodes>
          <leafValues>
            -5.1816660165786743e-01 1.7872555553913116e-01</leafValues></_>
        <_>
          <internalNodes>
            0 -1 402 1.0428229579702020e-03</internalNodes>
          <leafValues>
            -2.4197307229042053e-01 4.1701006889343262e-01</leafValues></_>
        <_>
          <internalNodes>
            0 -1 96 -3.1189780565910041e-04</internalNodes>
          <leafValues>
            6.2247866392135620e-01 -1.3818101584911346e-01</leafValues></_>
        <_>
          <internalNodes>
            0 -1 283 -4.9101008335128427e-04</internalNodes>
          <leafValues>
            -3.6275926232337952e-01 2.5123402476310730e-01</leafValues></_>
        <_>
          <internalNodes>
            0 -1 288 1.2891290243715048e-03</internalNodes>
          <leafValues>
            -2.1288512647151947e-01 4.0382489562034607e-01</leafValues></_></weakClassifiers></_>
    <!-- stage 13 -->
    <_>
      <maxWeakCount>21</maxWeakCount>
      <stageThreshold>-4.4932901859283447e-01</stageThreshold>
      <weakClassifiers>
        <_>
          <internalNodes>
            0 -1 57 5.2535142458509654e-06</internalNodes>
          <leafValues>
            -3.3707864582538605e-02 5.8241760730743408e-01</leafValues></_>
        <_>
          <internalNodes>
            0 -1 66 -1.0067098628496751e-05</internalNodes>
          <leafValues>
            3.5913649201393127e-01 -2.4933107197284698e-01</leafValues></_>
        <_>
          <internalNodes>
            0 -1 178 1.2231634173076600e-05</internalNodes>
          <leafValues>
            -2.5116467475891113e-01 3.3931264281272888e-01</leafValues></_>
        <_>
          <internalNodes>
            0 -1 249 -3.5829155240207911e-04</internalNodes>
          <leafValues>
            -5.8050394058227539e-01 1.3433644175529480e-01</leafValues></_>
        <_>
          <internalNodes>
            0 -1 184 -1.0030369594460353e-05</internalNodes>
          <leafValues>
            3.9375975728034973e-01 -2.2915226221084595e-01</leafValues></_>
        <_>
          <internalNodes>
            0 -1 158 3.7390314973890781e-03</internalNodes>
          <leafValues>
            -9.8469860851764679e-02 8.1969076395034790e-01</leafValues></_>
        <_>
          <internalNodes>
            0 -1 334 -5.1619285841297824e-06</internalNodes>
          <leafValues>
            4.0317252278327942e-01 -2.1797917783260345e-01</leafValues></_>
        <_>
          <internalNodes>
            0 -1 272 6.4773514168336987e-05</internalNodes>
          <leafValues>
            -2.1118590235710144e-01 4.5975163578987122e-01</leafValues></_>
        <_>
          <internalNodes>
            0 -1 53 -5.2893333304382395e-06</internalNodes>
          <leafValues>
            3.7364989519119263e-01 -2.6796284317970276e-01</leafValues></_>
        <_>
          <internalNodes>
            0 -1 296 2.6316970586776733e-02</internalNodes>
          <leafValues>
            -1.1709550023078918e-01 7.4561983346939087e-01</leafValues></_>
        <_>
          <internalNodes>
            0 -1 396 5.2893333304382395e-06</internalNodes>
          <leafValues>
            -2.0098713040351868e-01 4.7904923558235168e-01</leafValues></_>
        <_>
          <internalNodes>
            0 -1 472 -8.7633430957794189e-03</internalNodes>
          <leafValues>
            -4.7523343563079834e-01 2.0133055746555328e-01</leafValues></_>
        <_>
          <internalNodes>
            0 -1 363 -5.1619285841297824e-06</internalNodes>
          <leafValues>
            3.5050526261329651e-01 -2.8302940726280212e-01</leafValues></_>
        <_>
          <internalNodes>
            0 -1 25 9.6827698871493340e-04</internalNodes>
          <leafValues>
            -1.5663425624370575e-01 6.1774504184722900e-01</leafValues></_>
        <_>
          <internalNodes>
            0 -1 3 3.2573138014413416e-04</internalNodes>
          <leafValues>
            1.8481516838073730e-01 -5.6840938329696655e-01</leafValues></_>
        <_>
          <internalNodes>
            0 -1 16 8.2084798123105429e-06</internalNodes>
          <leafValues>
            -2.8962105512619019e-01 3.6207947134971619e-01</leafValues></_>
        <_>
          <internalNodes>
            0 -1 319 1.6329711070284247e-04</internalNodes>
          <leafValues>
            3.1714409589767456e-01 -3.1823310256004333e-01</leafValues></_>
        <_>
          <internalNodes>
            0 -1 21 -5.1974542438983917e-03</internalNodes>
          <leafValues>
            4.0606003999710083e-01 -2.4658133089542389e-01</leafValues></_>
        <_>
          <internalNodes>
            0 -1 286 -3.7008835352025926e-04</internalNodes>
          <leafValues>
            -5.2551949024200439e-01 2.0646990835666656e-01</leafValues></_>
        <_>
          <internalNodes>
            0 -1 387 -1.3348170796234626e-05</internalNodes>
          <leafValues>
            3.6762708425521851e-01 -2.7786958217620850e-01</leafValues></_>
        <_>
          <internalNodes>
            0 -1 241 5.3073608796694316e-06</internalNodes>
          <leafValues>
            -2.2814740240573883e-01 3.9402693510055542e-01</leafValues></_></weakClassifiers></_>
    <!-- stage 14 -->
    <_>
      <maxWeakCount>23</maxWeakCount>
      <stageThreshold>-3.1704607605934143e-01</stageThreshold>
      <weakClassifiers>
        <_>
          <internalNodes>
            0 -1 358 -1.6148094437085092e-04</internalNodes>
          <leafValues>
            -1.1794871836900711e-01 4.1923075914382935e-01</leafValues></_>
        <_>
          <internalNodes>
            0 -1 371 1.5274449251592159e-03</internalNodes>
          <leafValues>
            -1.4192792773246765e-01 4.3616017699241638e-01</leafValues></_>
        <_>
          <internalNodes>
            0 -1 150 1.0110323783010244e-03</internalNodes>
          <leafValues>
            2.2124041616916656e-01 -3.1055325269699097e-01</leafValues></_>
        <_>
          <internalNodes>
            0 -1 238 4.6389796771109104e-03</internalNodes>
          <leafValues>
            -9.9265046417713165e-02 7.2393006086349487e-01</leafValues></_>
        <_>
          <internalNodes>
            0 -1 468 5.3282665248843841e-06</internalNodes>
          <leafValues>
            -2.9324474930763245e-01 2.5025522708892822e-01</leafValues></_>
        <_>
          <internalNodes>
            0 -1 400 1.2542568147182465e-02</internalNodes>
          <leafValues>
            -2.0030705630779266e-01 4.2956584692001343e-01</leafValues></_>
        <_>
          <internalNodes>
            0 -1 391 -5.3420085350808222e-06</internalNodes>
          <leafValues>
            3.9164426922798157e-01 -1.7536976933479309e-01</leafValues></_>
        <_>
          <internalNodes>
            0 -1 108 -1.4794140588492155e-03</internalNodes>
          <leafValues>
            4.8798048496246338e-01 -1.7198693752288818e-01</leafValues></_>
        <_>
          <internalNodes>
            0 -1 271 -2.4095964909065515e-04</internalNodes>
          <leafValues>
            -6.1399865150451660e-01 1.4837183058261871e-01</leafValues></_>
        <_>
          <internalNodes>
            0 -1 298 -6.3266782090067863e-03</internalNodes>
          <leafValues>
            5.8204180002212524e-01 -1.6103072464466095e-01</leafValues></_>
        <_>
          <internalNodes>
            0 -1 321 4.1929690632969141e-04</internalNodes>
          <leafValues>
            -1.9686186313629150e-01 4.1663268208503723e-01</leafValues></_>
        <_>
          <internalNodes>
            0 -1 207 -2.2111533326096833e-04</internalNodes>
          <leafValues>
            -4.1710495948791504e-01 2.1044248342514038e-01</leafValues></_>
        <_>
          <internalNodes>
            0 -1 467 9.7371113952249289e-05</internalNodes>
          <leafValues>
            -1.8211530148983002e-01 4.6289592981338501e-01</leafValues></_>
        <_>
          <internalNodes>
            0 -1 274 -7.8343669883906841e-04</internalNodes>
          <leafValues>
            5.9432208538055420e-01 -1.4383420348167419e-01</leafValues></_>
        <_>
          <internalNodes>
            0 -1 247 6.7464156927599106e-06</internalNodes>
          <leafValues>
            -2.7454230189323425e-01 3.0781978368759155e-01</leafValues></_>
        <_>
          <internalNodes>
            0 -1 368 5.3953317546984181e-06</internalNodes>
          <leafValues>
            -2.3617127537727356e-01 3.5260888934135437e-01</leafValues></_>
        <_>
          <internalNodes>
            0 -1 433 2.0459978259168565e-05</internalNodes>
          <leafValues>
            -2.5150054693222046e-01 3.4721246361732483e-01</leafValues></_>
        <_>
          <internalNodes>
            0 -1 92 2.3461814969778061e-02</internalNodes>
          <leafValues>
            -2.1937100589275360e-01 4.3230497837066650e-01</leafValues></_>
        <_>
          <internalNodes>
            0 -1 109 -3.7514336407184601e-02</internalNodes>
          <leafValues>
            7.4226546287536621e-01 -1.1976131796836853e-01</leafValues></_>
        <_>
          <internalNodes>
            0 -1 128 1.6257970035076141e-01</internalNodes>
          <leafValues>
            -1.7122232913970947e-01 4.7436344623565674e-01</leafValues></_>
        <_>
          <internalNodes>
            0 -1 250 -3.0314619652926922e-04</internalNodes>
          <leafValues>
            -3.6714038252830505e-01 3.4265935420989990e-01</leafValues></_>
        <_>
          <internalNodes>
            0 -1 285 -1.7009466886520386e-02</internalNodes>
          <leafValues>
            3.6639073491096497e-01 -2.7458575367927551e-01</leafValues></_>
        <_>
          <internalNodes>
            0 -1 135 -1.8126501142978668e-01</internalNodes>
          <leafValues>
            8.1200087070465088e-01 -1.0937801003456116e-01</leafValues></_></weakClassifiers></_>
    <!-- stage 15 -->
    <_>
      <maxWeakCount>22</maxWeakCount>
      <stageThreshold>-2.5734582543373108e-01</stageThreshold>
      <weakClassifiers>
        <_>
          <internalNodes>
            0 -1 427 2.0508319139480591e-02</internalNodes>
          <leafValues>
            3.6600306630134583e-01 -7.0967739820480347e-01</leafValues></_>
        <_>
          <internalNodes>
            0 -1 403 5.4229763009061571e-06</internalNodes>
          <leafValues>
            -2.4032206833362579e-01 3.8622224330902100e-01</leafValues></_>
        <_>
          <internalNodes>
            0 -1 367 -5.0542881945148110e-04</internalNodes>
          <leafValues>
            -5.8231586217880249e-01 1.3255675137042999e-01</leafValues></_>
        <_>
          <internalNodes>
            0 -1 172 5.8739455416798592e-03</internalNodes>
          <leafValues>
            -1.1899463087320328e-01 9.0235012769699097e-01</leafValues></_>
        <_>
          <internalNodes>
            0 -1 189 5.2001328185724560e-06</internalNodes>
          <leafValues>
            -2.5066262483596802e-01 3.4014630317687988e-01</leafValues></_>
        <_>
          <internalNodes>
            0 -1 349 -1.1153613450005651e-03</internalNodes>
          <leafValues>
            -5.8664411306381226e-01 1.3560923933982849e-01</leafValues></_>
        <_>
          <internalNodes>
            0 -1 417 -8.1783342466223985e-05</internalNodes>
          <leafValues>
            -5.9778285026550293e-01 1.1982541531324387e-01</leafValues></_>
        <_>
          <internalNodes>
            0 -1 163 -2.3921384126879275e-04</internalNodes>
          <leafValues>
            -5.0021344423294067e-01 1.5488095581531525e-01</leafValues></_>
        <_>
          <internalNodes>
            0 -1 401 5.4254287533694878e-06</internalNodes>
          <leafValues>
            -2.4813897907733917e-01 3.3934864401817322e-01</leafValues></_>
        <_>
          <internalNodes>
            0 -1 290 4.3384479358792305e-03</internalNodes>
          <leafValues>
            -1.9505451619625092e-01 4.2062532901763916e-01</leafValues></_>
        <_>
          <internalNodes>
            0 -1 430 6.2184990383684635e-05</internalNodes>
          <leafValues>
            -2.0878747105598450e-01 4.2264917492866516e-01</leafValues></_>
        <_>
          <internalNodes>
            0 -1 145 -2.7139780577272177e-03</internalNodes>
          <leafValues>
            4.4460034370422363e-01 -1.7775729298591614e-01</leafValues></_>
        <_>
          <internalNodes>
            0 -1 236 1.6005134209990501e-02</internalNodes>
          <leafValues>
            -1.8385636806488037e-01 4.6604761481285095e-01</leafValues></_>
        <_>
          <internalNodes>
            0 -1 69 -5.1434553824947216e-06</internalNodes>
          <leafValues>
            2.8458073735237122e-01 -2.9716345667839050e-01</leafValues></_>
        <_>
          <internalNodes>
            0 -1 225 5.1038183300988749e-05</internalNodes>
          <leafValues>
            -2.0535221695899963e-01 4.3183332681655884e-01</leafValues></_>
        <_>
          <internalNodes>
            0 -1 198 3.1598348869010806e-04</internalNodes>
          <leafValues>
            -1.8725468218326569e-01 4.4067522883415222e-01</leafValues></_>
        <_>
          <internalNodes>
            0 -1 421 -2.0824791863560677e-04</internalNodes>
          <leafValues>
            -4.5995509624481201e-01 1.9353480637073517e-01</leafValues></_>
        <_>
          <internalNodes>
            0 -1 302 5.1988475024700165e-03</internalNodes>
          <leafValues>
            1.9777196645736694e-01 -4.4043532013893127e-01</leafValues></_>
        <_>
          <internalNodes>
            0 -1 33 2.9051546007394791e-03</internalNodes>
          <leafValues>
            -2.0556333661079407e-01 4.4738090038299561e-01</leafValues></_>
        <_>
          <internalNodes>
            0 -1 46 -1.8788736313581467e-02</internalNodes>
          <leafValues>
            3.3644488453865051e-01 -2.9599609971046448e-01</leafValues></_>
        <_>
          <internalNodes>
            0 -1 434 5.6038938964775298e-06</internalNodes>
          <leafValues>
            -3.1487834453582764e-01 3.0592557787895203e-01</leafValues></_>
        <_>
          <internalNodes>
            0 -1 111 1.7828373238444328e-02</internalNodes>
          <leafValues>
            -1.1653994023799896e-01 7.1929472684860229e-01</leafValues></_></weakClassifiers></_>
    <!-- stage 16 -->
    <_>
      <maxWeakCount>25</maxWeakCount>
      <stageThreshold>-3.5449391603469849e-01</stageThreshold>
      <weakClassifiers>
        <_>
          <internalNodes>
            0 -1 264 -4.3129999539814889e-04</internalNodes>
          <leafValues>
            -4.4897958636283875e-01 3.7726524472236633e-01</leafValues></_>
        <_>
          <internalNodes>
            0 -1 192 2.0895959460176528e-04</internalNodes>
          <leafValues>
            1.8477988243103027e-01 -4.1606187820434570e-01</leafValues></_>
        <_>
          <internalNodes>
            0 -1 99 -1.9658720120787621e-02</internalNodes>
          <leafValues>
            4.9128386378288269e-01 -1.3393788039684296e-01</leafValues></_>
        <_>
          <internalNodes>
            0 -1 107 4.1402105125598609e-04</internalNodes>
          <leafValues>
            9.5284588634967804e-02 -7.0129054784774780e-01</leafValues></_>
        <_>
          <internalNodes>
            0 -1 62 -3.3419691026210785e-03</internalNodes>
          <leafValues>
            3.7522804737091064e-01 -1.8860888481140137e-01</leafValues></_>
        <_>
          <internalNodes>
            0 -1 5 4.8189243534579873e-04</internalNodes>
          <leafValues>
            -2.3238143324851990e-01 3.1252264976501465e-01</leafValues></_>
        <_>
          <internalNodes>
            0 -1 140 -3.1650052405893803e-03</internalNodes>
          <leafValues>
            -7.5680100917816162e-01 9.0514361858367920e-02</leafValues></_>
        <_>
          <internalNodes>
            0 -1 445 -4.1317977011203766e-03</internalNodes>
          <leafValues>
            8.2455027103424072e-01 -1.3195514678955078e-01</leafValues></_>
        <_>
          <internalNodes>
            0 -1 314 4.5667053200304508e-03</internalNodes>
          <leafValues>
            -2.0318564772605896e-01 3.3968716859817505e-01</leafValues></_>
        <_>
          <internalNodes>
            0 -1 213 9.3489482998847961e-02</internalNodes>
          <leafValues>
            8.7692037224769592e-02 -8.1877595186233521e-01</leafValues></_>
        <_>
          <internalNodes>
            0 -1 218 1.3102378579787910e-04</internalNodes>
          <leafValues>
            -2.6904931664466858e-01 3.0509558320045471e-01</leafValues></_>
        <_>
          <internalNodes>
            0 -1 331 -2.1367711015045643e-03</internalNodes>
          <leafValues>
            -8.4267312288284302e-01 1.3037645816802979e-01</leafValues></_>
        <_>
          <internalNodes>
            0 -1 374 2.8309499612078071e-04</internalNodes>
          <leafValues>
            9.7436070442199707e-02 -5.8507871627807617e-01</leafValues></_>
        <_>
          <internalNodes>
            0 -1 449 5.6560093071311712e-04</internalNodes>
          <leafValues>
            -1.8530105054378510e-01 4.7755545377731323e-01</leafValues></_>
        <_>
          <internalNodes>
            0 -1 282 8.6286831647157669e-03</internalNodes>
          <leafValues>
            -2.2502908110618591e-01 3.1828564405441284e-01</leafValues></_>
        <_>
          <internalNodes>
            0 -1 339 -1.9886985421180725e-02</internalNodes>
          <leafValues>
            7.2173672914505005e-01 -1.2912844121456146e-01</leafValues></_>
        <_>
          <internalNodes>
            0 -1 68 -1.7678202129900455e-03</internalNodes>
          <leafValues>
            3.7615826725959778e-01 -1.7893651127815247e-01</leafValues></_>
        <_>
          <internalNodes>
            0 -1 350 1.6194608178921044e-04</internalNodes>
          <leafValues>
            1.4641228318214417e-01 -5.1737159490585327e-01</leafValues></_>
        <_>
          <internalNodes>
            0 -1 313 2.8527562972158194e-04</internalNodes>
          <leafValues>
            -2.3382048308849335e-01 3.2884898781776428e-01</leafValues></_>
        <_>
          <internalNodes>
            0 -1 139 -2.3326729424297810e-03</internalNodes>
          <leafValues>
            6.8353611230850220e-01 -1.1800975352525711e-01</leafValues></_>
        <_>
          <internalNodes>
            0 -1 275 -3.6510874633677304e-04</internalNodes>
          <leafValues>
            -6.7812347412109375e-01 1.4135698974132538e-01</leafValues></_>
        <_>
          <internalNodes>
            0 -1 205 -8.8463246356695890e-04</internalNodes>
          <leafValues>
            4.3062394857406616e-01 -1.9700294733047485e-01</leafValues></_>
        <_>
          <internalNodes>
            0 -1 201 6.1341117543634027e-05</internalNodes>
          <leafValues>
            2.3524543642997742e-01 -3.8034644722938538e-01</leafValues></_>
        <_>
          <internalNodes>
            0 -1 344 -3.6498450208455324e-04</internalNodes>
          <leafValues>
            3.1558021903038025e-01 -2.6453053951263428e-01</leafValues></_>
        <_>
          <internalNodes>
            0 -1 215 -5.4988833144307137e-03</internalNodes>
          <leafValues>
            3.7803652882575989e-01 -2.2220958769321442e-01</leafValues></_></weakClassifiers></_>
    <!-- stage 17 -->
    <_>
      <maxWeakCount>24</maxWeakCount>
      <stageThreshold>-3.1370973587036133e-01</stageThreshold>
      <weakClassifiers>
        <_>
          <internalNodes>
            0 -1 471 1.3200248940847814e-04</internalNodes>
          <leafValues>
            3.8144329190254211e-01 -3.0081301927566528e-01</leafValues></_>
        <_>
          <internalNodes>
            0 -1 410 8.6641218513250351e-04</internalNodes>
          <leafValues>
            -1.7054598033428192e-01 4.0374442934989929e-01</leafValues></_>
        <_>
          <internalNodes>
            0 -1 455 -9.5351562777068466e-05</internalNodes>
          <leafValues>
            -6.0381966829299927e-01 1.3005639612674713e-01</leafValues></_>
        <_>
          <internalNodes>
            0 -1 126 -1.4502384699881077e-02</internalNodes>
          <leafValues>
            -7.4066925048828125e-01 9.0321987867355347e-02</leafValues></_>
        <_>
          <internalNodes>
            0 -1 37 3.9827441796660423e-03</internalNodes>
          <leafValues>
            -2.1998536586761475e-01 3.3129981160163879e-01</leafValues></_>
        <_>
          <internalNodes>
            0 -1 291 -1.7055345699191093e-02</internalNodes>
          <leafValues>
            7.0980143547058105e-01 -1.2789776921272278e-01</leafValues></_>
        <_>
          <internalNodes>
            0 -1 303 -3.4492515260353684e-04</internalNodes>
          <leafValues>
            -5.1888030767440796e-01 1.7078280448913574e-01</leafValues></_>
        <_>
          <internalNodes>
            0 -1 338 -1.0426298715174198e-02</internalNodes>
          <leafValues>
            6.5627318620681763e-01 -1.4978197216987610e-01</leafValues></_>
        <_>
          <internalNodes>
            0 -1 173 3.3599592745304108e-02</internalNodes>
          <leafValues>
            -1.4691706001758575e-01 4.7825667262077332e-01</leafValues></_>
        <_>
          <internalNodes>
            0 -1 208 5.7398818898946047e-04</internalNodes>
          <leafValues>
            1.3421304523944855e-01 -6.3593095541000366e-01</leafValues></_>
        <_>
          <internalNodes>
            0 -1 76 -7.5185768306255341e-02</internalNodes>
          <leafValues>
            4.9420762062072754e-01 -1.6954223811626434e-01</leafValues></_>
        <_>
          <internalNodes>
            0 -1 441 -7.8396056778728962e-04</internalNodes>
          <leafValues>
            5.9067195653915405e-01 -1.6695122420787811e-01</leafValues></_>
        <_>
          <internalNodes>
            0 -1 376 6.1123754130676389e-04</internalNodes>
          <leafValues>
            1.3564747571945190e-01 -6.4766138792037964e-01</leafValues></_>
        <_>
          <internalNodes>
            0 -1 380 9.8564341897144914e-05</internalNodes>
          <leafValues>
            -2.2544097900390625e-01 3.7594512104988098e-01</leafValues></_>
        <_>
          <internalNodes>
            0 -1 397 -6.6532322671264410e-04</internalNodes>
          <leafValues>
            3.6071118712425232e-01 -2.2505605220794678e-01</leafValues></_>
        <_>
          <internalNodes>
            0 -1 323 -2.0893418695777655e-04</internalNodes>
          <leafValues>
            4.0003928542137146e-01 -2.1154896914958954e-01</leafValues></_>
        <_>
          <internalNodes>
            0 -1 4 -3.7676416104659438e-04</internalNodes>
          <leafValues>
            -4.1990774869918823e-01 1.8109443783760071e-01</leafValues></_>
        <_>
          <internalNodes>
            0 -1 105 -3.9628357626497746e-05</internalNodes>
          <leafValues>
            2.9399463534355164e-01 -2.5529006123542786e-01</leafValues></_>
        <_>
          <internalNodes>
            0 -1 345 -3.0505857430398464e-03</internalNodes>
          <leafValues>
            3.9110019803047180e-01 -1.9106292724609375e-01</leafValues></_>
        <_>
          <internalNodes>
            0 -1 378 2.7568815276026726e-03</internalNodes>
          <leafValues>
            -2.1480283141136169e-01 4.2644900083541870e-01</leafValues></_>
        <_>
          <internalNodes>
            0 -1 353 -7.3808332672342658e-04</internalNodes>
          <leafValues>
            -5.8392655849456787e-01 1.5870900452136993e-01</leafValues></_>
        <_>
          <internalNodes>
            0 -1 49 2.0106371957808733e-03</internalNodes>
          <leafValues>
            -1.9168549776077271e-01 4.4239309430122375e-01</leafValues></_>
        <_>
          <internalNodes>
            0 -1 423 2.7906103059649467e-04</internalNodes>
          <leafValues>
            -1.8541270494461060e-01 4.2426604032516479e-01</leafValues></_>
        <_>
          <internalNodes>
            0 -1 124 1.2253501918166876e-03</internalNodes>
          <leafValues>
            8.8510021567344666e-02 -8.5028576850891113e-01</leafValues></_></weakClassifiers></_>
    <!-- stage 18 -->
    <_>
      <maxWeakCount>27</maxWeakCount>
      <stageThreshold>-4.0091547369956970e-01</stageThreshold>
      <weakClassifiers>
        <_>
          <internalNodes>
            0 -1 40 -5.6130073964595795e-02</internalNodes>
          <leafValues>
            -5.5932205915451050e-01 3.3746129274368286e-01</leafValues></_>
        <_>
          <internalNodes>
            0 -1 85 7.2502074763178825e-03</internalNodes>
          <leafValues>
            -8.3320952951908112e-02 5.9253650903701782e-01</leafValues></_>
        <_>
          <internalNodes>
            0 -1 202 -1.5748996520414948e-03</internalNodes>
          <leafValues>
            3.1790229678153992e-01 -2.4951058626174927e-01</leafValues></_>
        <_>
          <internalNodes>
            0 -1 74 1.7145264428108931e-04</internalNodes>
          <leafValues>
            -2.5660100579261780e-01 3.2535618543624878e-01</leafValues></_>
        <_>
          <internalNodes>
            0 -1 20 1.3400299940258265e-03</internalNodes>
          <leafValues>
            -3.0311670899391174e-01 2.8704458475112915e-01</leafValues></_>
        <_>
          <internalNodes>
            0 -1 70 9.8496879218146205e-05</internalNodes>
          <leafValues>
            1.3512524962425232e-01 -5.8850032091140747e-01</leafValues></_>
        <_>
          <internalNodes>
            0 -1 136 -6.9099208340048790e-03</internalNodes>
          <leafValues>
            -5.6873708963394165e-01 1.4214251935482025e-01</leafValues></_>
        <_>
          <internalNodes>
            0 -1 191 -2.5856439606286585e-05</internalNodes>
          <leafValues>
            2.8557547926902771e-01 -2.8211912512779236e-01</leafValues></_>
        <_>
          <internalNodes>
            0 -1 422 1.9069090485572815e-03</internalNodes>
          <leafValues>
            -1.6704951226711273e-01 5.1399916410446167e-01</leafValues></_>
        <_>
          <internalNodes>
            0 -1 133 -2.7560028247535229e-03</internalNodes>
          <leafValues>
            -6.2740826606750488e-01 1.4046731591224670e-01</leafValues></_>
        <_>
          <internalNodes>
            0 -1 42 -1.0068502888316289e-05</internalNodes>
          <leafValues>
            2.0375403761863708e-01 -3.5632601380348206e-01</leafValues></_>
        <_>
          <internalNodes>
            0 -1 299 -6.7617469467222691e-03</internalNodes>
          <leafValues>
            8.4312599897384644e-01 -9.6829243004322052e-02</leafValues></_>
        <_>
          <internalNodes>
            0 -1 443 5.5642903316766024e-04</internalNodes>
          <leafValues>
            -8.5566580295562744e-02 6.3788414001464844e-01</leafValues></_>
        <_>
          <internalNodes>
            0 -1 161 -1.8849095795303583e-03</internalNodes>
          <leafValues>
            -7.1168839931488037e-01 1.1342927068471909e-01</leafValues></_>
        <_>
          <internalNodes>
            0 -1 123 9.0431247372180223e-04</internalNodes>
          <leafValues>
            -1.8823313713073730e-01 5.0078505277633667e-01</leafValues></_>
        <_>
          <internalNodes>
            0 -1 357 2.1434552036225796e-03</internalNodes>
          <leafValues>
            1.6556306183338165e-01 -4.7957268357276917e-01</leafValues></_>
        <_>
          <internalNodes>
            0 -1 209 2.8331155772320926e-04</internalNodes>
          <leafValues>
            -1.9271749258041382e-01 3.8951361179351807e-01</leafValues></_>
        <_>
          <internalNodes>
            0 -1 243 2.5495502632111311e-04</internalNodes>
          <leafValues>
            -2.2009128332138062e-01 3.7256553769111633e-01</leafValues></_>
        <_>
          <internalNodes>
            0 -1 340 1.1104559525847435e-02</internalNodes>
          <leafValues>
            -1.8260940909385681e-01 4.3564027547836304e-01</leafValues></_>
        <_>
          <internalNodes>
            0 -1 284 -5.7411867601331323e-05</internalNodes>
          <leafValues>
            -3.8501864671707153e-01 2.1414591372013092e-01</leafValues></_>
        <_>
          <internalNodes>
            0 -1 370 -4.3121352064190432e-05</internalNodes>
          <leafValues>
            3.8407635688781738e-01 -2.1028979122638702e-01</leafValues></_>
        <_>
          <internalNodes>
            0 -1 47 1.3463761424645782e-03</internalNodes>
          <leafValues>
            -2.5808539986610413e-01 3.0500936508178711e-01</leafValues></_>
        <_>
          <internalNodes>
            0 -1 220 4.0672955947229639e-05</internalNodes>
          <leafValues>
            -2.1229527890682220e-01 3.2709825038909912e-01</leafValues></_>
        <_>
          <internalNodes>
            0 -1 29 9.9169183522462845e-04</internalNodes>
          <leafValues>
            -1.8165813386440277e-01 4.1955509781837463e-01</leafValues></_>
        <_>
          <internalNodes>
            0 -1 59 -1.3411071267910302e-04</internalNodes>
          <leafValues>
            -6.1334484815597534e-01 1.4432597160339355e-01</leafValues></_>
        <_>
          <internalNodes>
            0 -1 160 -1.1483973264694214e-01</internalNodes>
          <leafValues>
            8.7926721572875977e-01 -1.0712366551160812e-01</leafValues></_>
        <_>
          <internalNodes>
            0 -1 228 -1.2216204777359962e-04</internalNodes>
          <leafValues>
            -4.0288782119750977e-01 2.3059202730655670e-01</leafValues></_></weakClassifiers></_>
    <!-- stage 19 -->
    <_>
      <maxWeakCount>24</maxWeakCount>
      <stageThreshold>-3.4694790840148926e-01</stageThreshold>
      <weakClassifiers>
        <_>
          <internalNodes>
            0 -1 214 5.4226502776145935e-02</internalNodes>
          <leafValues>
            3.0421686172485352e-01 -8.7096774578094482e-01</leafValues></_>
        <_>
          <internalNodes>
            0 -1 440 4.8439425881952047e-04</internalNodes>
          <leafValues>
            -1.7229102551937103e-01 3.6885488033294678e-01</leafValues></_>
        <_>
          <internalNodes>
            0 -1 22 2.9461694066412747e-04</internalNodes>
          <leafValues>
            -1.2272639572620392e-01 5.3528827428817749e-01</leafValues></_>
        <_>
          <internalNodes>
            0 -1 12 5.2479901351034641e-03</internalNodes>
          <leafValues>
            1.1665882170200348e-01 -5.6228911876678467e-01</leafValues></_>
        <_>
          <internalNodes>
            0 -1 67 2.9657813720405102e-03</internalNodes>
          <leafValues>
            -1.1342930793762207e-01 6.0739874839782715e-01</leafValues></_>
        <_>
          <internalNodes>
            0 -1 416 7.2631504735909402e-05</internalNodes>
          <leafValues>
            -2.5671699643135071e-01 2.9687821865081787e-01</leafValues></_>
        <_>
          <internalNodes>
            0 -1 77 6.0984584706602618e-06</internalNodes>
          <leafValues>
            -2.8526565432548523e-01 2.5747370719909668e-01</leafValues></_>
        <_>
          <internalNodes>
            0 -1 322 7.0480385329574347e-04</internalNodes>
          <leafValues>
            -1.2885405123233795e-01 5.3798049688339233e-01</leafValues></_>
        <_>
          <internalNodes>
            0 -1 382 2.2615343332290649e-03</internalNodes>
          <leafValues>
            1.8638476729393005e-01 -4.3719321489334106e-01</leafValues></_>
        <_>
          <internalNodes>
            0 -1 200 2.6137969689443707e-04</internalNodes>
          <leafValues>
            2.4424509704113007e-01 -3.2081842422485352e-01</leafValues></_>
        <_>
          <internalNodes>
            0 -1 100 -1.7578160623088479e-04</internalNodes>
          <leafValues>
            -3.0261430144309998e-01 2.5208902359008789e-01</leafValues></_>
        <_>
          <internalNodes>
            0 -1 159 1.5521051827818155e-03</internalNodes>
          <leafValues>
            -1.0960497707128525e-01 7.1065342426300049e-01</leafValues></_>
        <_>
          <internalNodes>
            0 -1 372 2.8643549885600805e-03</internalNodes>
          <leafValues>
            -1.2719425559043884e-01 5.0240921974182129e-01</leafValues></_>
        <_>
          <internalNodes>
            0 -1 352 9.5960833132266998e-03</internalNodes>
          <leafValues>
            -2.3237989842891693e-01 3.7442204356193542e-01</leafValues></_>
        <_>
          <internalNodes>
            0 -1 459 8.0979345366358757e-03</internalNodes>
          <leafValues>
            1.7343498766422272e-01 -5.5085092782974243e-01</leafValues></_>
        <_>
          <internalNodes>
            0 -1 121 1.3655906077474356e-03</internalNodes>
          <leafValues>
            -2.2589820623397827e-01 3.8770127296447754e-01</leafValues></_>
        <_>
          <internalNodes>
            0 -1 278 -2.8545414097607136e-03</internalNodes>
          <leafValues>
            -3.5599610209465027e-01 2.8476446866989136e-01</leafValues></_>
        <_>
          <internalNodes>
            0 -1 186 -2.9962849617004395e-01</internalNodes>
          <leafValues>
            9.4661962985992432e-01 -1.0383126139640808e-01</leafValues></_>
        <_>
          <internalNodes>
            0 -1 261 2.6554442592896521e-04</internalNodes>
          <leafValues>
            -1.9151788949966431e-01 3.6636579036712646e-01</leafValues></_>
        <_>
          <internalNodes>
            0 -1 231 5.4254690185189247e-03</internalNodes>
          <leafValues>
            -9.0197876095771790e-02 8.3873325586318970e-01</leafValues></_>
        <_>
          <internalNodes>
            0 -1 386 -4.7933496534824371e-03</internalNodes>
          <leafValues>
            -4.2776912450790405e-01 1.8946065008640289e-01</leafValues></_>
        <_>
          <internalNodes>
            0 -1 112 3.3138392027467489e-03</internalNodes>
          <leafValues>
            -1.5158525109291077e-01 5.9144365787506104e-01</leafValues></_>
        <_>
          <internalNodes>
            0 -1 329 -4.7150434693321586e-04</internalNodes>
          <leafValues>
            -3.0274096131324768e-01 2.9874959588050842e-01</leafValues></_>
        <_>
          <internalNodes>
            0 -1 89 6.6740822512656450e-04</internalNodes>
          <leafValues>
            2.1465526521205902e-01 -3.9057561755180359e-01</leafValues></_></weakClassifiers></_>
    <!-- stage 20 -->
    <_>
      <maxWeakCount>25</maxWeakCount>
      <stageThreshold>-4.7326180338859558e-01</stageThreshold>
      <weakClassifiers>
        <_>
          <internalNodes>
            0 -1 7 1.7229473451152444e-04</internalNodes>
          <leafValues>
            3.7388193607330322e-01 -2.5000000000000000e-01</leafValues></_>
        <_>
          <internalNodes>
            0 -1 439 4.7706210170872509e-04</internalNodes>
          <leafValues>
            -9.3734912574291229e-02 6.4024209976196289e-01</leafValues></_>
        <_>
          <internalNodes>
            0 -1 435 1.3402375043369830e-04</internalNodes>
          <leafValues>
            8.6172297596931458e-02 -6.3476645946502686e-01</leafValues></_>
        <_>
          <internalNodes>
            0 -1 34 2.4093296378850937e-03</internalNodes>
          <leafValues>
            -1.8653486669063568e-01 3.4976208209991455e-01</leafValues></_>
        <_>
          <internalNodes>
            0 -1 399 2.8152199229225516e-04</internalNodes>
          <leafValues>
            -2.1353518962860107e-01 3.2931089401245117e-01</leafValues></_>
        <_>
          <internalNodes>
            0 -1 223 1.1581873986870050e-03</internalNodes>
          <leafValues>
            -1.4389853179454803e-01 4.7501823306083679e-01</leafValues></_>
        <_>
          <internalNodes>
            0 -1 72 -7.7545386739075184e-04</internalNodes>
          <leafValues>
            7.1769189834594727e-01 -1.1124175786972046e-01</leafValues></_>
        <_>
          <internalNodes>
            0 -1 473 -8.8951183715835214e-04</internalNodes>
          <leafValues>
            -6.1551666259765625e-01 1.5402615070343018e-01</leafValues></_>
        <_>
          <internalNodes>
            0 -1 64 -4.0376722812652588e-02</internalNodes>
          <leafValues>
            -3.4167569875717163e-01 1.9487753510475159e-01</leafValues></_>
        <_>
          <internalNodes>
            0 -1 132 7.0612609852105379e-04</internalNodes>
          <leafValues>
            -1.3422276079654694e-01 6.1026048660278320e-01</leafValues></_>
        <_>
          <internalNodes>
            0 -1 294 -1.3407052028924227e-04</internalNodes>
          <leafValues>
            -3.9442738890647888e-01 2.1453937888145447e-01</leafValues></_>
        <_>
          <internalNodes>
            0 -1 138 -5.2893333304382395e-06</internalNodes>
          <leafValues>
            3.1237092614173889e-01 -2.7017670869827271e-01</leafValues></_>
        <_>
          <internalNodes>
            0 -1 462 -1.4544661389663815e-03</internalNodes>
          <leafValues>
            5.7860630750656128e-01 -1.1454535275697708e-01</leafValues></_>
        <_>
          <internalNodes>
            0 -1 147 -1.7151790857315063e-01</internalNodes>
          <leafValues>
            8.0649363994598389e-01 -9.2256136238574982e-02</leafValues></_>
        <_>
          <internalNodes>
            0 -1 293 6.1763485427945852e-04</internalNodes>
          <leafValues>
            1.7291463911533356e-01 -5.1271170377731323e-01</leafValues></_>
        <_>
          <internalNodes>
            0 -1 407 1.9546182826161385e-02</internalNodes>
          <leafValues>
            -1.1909995228052139e-01 7.5826263427734375e-01</leafValues></_>
        <_>
          <internalNodes>
            0 -1 392 2.0540695637464523e-02</internalNodes>
          <leafValues>
            3.2057854533195496e-01 -2.6866111159324646e-01</leafValues></_>
        <_>
          <internalNodes>
            0 -1 187 2.9483062680810690e-03</internalNodes>
          <leafValues>
            -2.6375266909599304e-01 2.9888764023780823e-01</leafValues></_>
        <_>
          <internalNodes>
            0 -1 227 -5.9244304429739714e-04</internalNodes>
          <leafValues>
            -2.9388934373855591e-01 2.5776150822639465e-01</leafValues></_>
        <_>
          <internalNodes>
            0 -1 115 -1.1432450264692307e-05</internalNodes>
          <leafValues>
            3.0173826217651367e-01 -2.6858457922935486e-01</leafValues></_>
        <_>
          <internalNodes>
            0 -1 39 9.4261448830366135e-03</internalNodes>
          <leafValues>
            -1.6832186281681061e-01 4.8954617977142334e-01</leafValues></_>
        <_>
          <internalNodes>
            0 -1 122 6.2634772621095181e-04</internalNodes>
          <leafValues>
            1.5059927105903625e-01 -5.9356325864791870e-01</leafValues></_>
        <_>
          <internalNodes>
            0 -1 88 -5.2710111049236730e-06</internalNodes>
          <leafValues>
            2.5629895925521851e-01 -2.8994596004486084e-01</leafValues></_>
        <_>
          <internalNodes>
            0 -1 13 1.3060163473710418e-03</internalNodes>
          <leafValues>
            -1.8291114270687103e-01 4.6066707372665405e-01</leafValues></_>
        <_>
          <internalNodes>
            0 -1 359 -1.1190564837306738e-03</internalNodes>
          <leafValues>
            -7.2475945949554443e-01 1.2711882591247559e-01</leafValues></_></weakClassifiers></_>
    <!-- stage 21 -->
    <_>
      <maxWeakCount>25</maxWeakCount>
      <stageThreshold>-2.9172217845916748e-01</stageThreshold>
      <weakClassifiers>
        <_>
          <internalNodes>
            0 -1 0 -1.2475959374569356e-04</internalNodes>
          <leafValues>
            -4.0909090638160706e-01 3.3668342232704163e-01</leafValues></_>
        <_>
          <internalNodes>
            0 -1 389 1.9113150192424655e-03</internalNodes>
          <leafValues>
            -1.4170712232589722e-01 4.4887489080429077e-01</leafValues></_>
        <_>
          <internalNodes>
            0 -1 97 -3.3849976025521755e-03</internalNodes>
          <leafValues>
            3.0310058593750000e-01 -1.9291400909423828e-01</leafValues></_>
        <_>
          <internalNodes>
            0 -1 246 -1.9620193052105606e-04</internalNodes>
          <leafValues>
            -4.6651351451873779e-01 1.0668113827705383e-01</leafValues></_>
        <_>
          <internalNodes>
            0 -1 360 1.7440191004425287e-03</internalNodes>
          <leafValues>
            1.8517410755157471e-01 -3.7731114029884338e-01</leafValues></_>
        <_>
          <internalNodes>
            0 -1 333 4.2577646672725677e-02</internalNodes>
          <leafValues>
            1.1955026537179947e-01 -7.2893428802490234e-01</leafValues></_>
        <_>
          <internalNodes>
            0 -1 310 2.3323986679315567e-03</internalNodes>
          <leafValues>
            -2.4811294674873352e-01 2.8048157691955566e-01</leafValues></_>
        <_>
          <internalNodes>
            0 -1 196 -1.4754597796127200e-03</internalNodes>
          <leafValues>
            3.6357122659683228e-01 -1.9618242979049683e-01</leafValues></_>
        <_>
          <internalNodes>
            0 -1 267 -4.6059416490606964e-04</internalNodes>
          <leafValues>
            7.0637100934982300e-01 -7.9329326748847961e-02</leafValues></_>
        <_>
          <internalNodes>
            0 -1 335 -1.6353072598576546e-02</internalNodes>
          <leafValues>
            9.7552692890167236e-01 -6.2760956585407257e-02</leafValues></_>
        <_>
          <internalNodes>
            0 -1 364 8.0008935183286667e-03</internalNodes>
          <leafValues>
            -1.9897130131721497e-01 3.1724351644515991e-01</leafValues></_>
        <_>
          <internalNodes>
            0 -1 461 -1.3444325304590166e-04</internalNodes>
          <leafValues>
            -4.6128016710281372e-01 1.6004712879657745e-01</leafValues></_>
        <_>
          <internalNodes>
            0 -1 197 1.9197771325707436e-03</internalNodes>
          <leafValues>
            -2.5107052922248840e-01 2.6791670918464661e-01</leafValues></_>
        <_>
          <internalNodes>
            0 -1 50 -1.6551716253161430e-03</internalNodes>
          <leafValues>
            2.7626591920852661e-01 -2.5817897915840149e-01</leafValues></_>
        <_>
          <internalNodes>
            0 -1 356 4.6790707856416702e-03</internalNodes>
          <leafValues>
            -8.5172660648822784e-02 7.7107191085815430e-01</leafValues></_>
        <_>
          <internalNodes>
            0 -1 432 1.6366221243515611e-03</internalNodes>
          <leafValues>
            -8.4055751562118530e-02 7.0395720005035400e-01</leafValues></_>
        <_>
          <internalNodes>
            0 -1 412 1.0344871043344028e-05</internalNodes>
          <leafValues>
            -2.2381159663200378e-01 3.0833867192268372e-01</leafValues></_>
        <_>
          <internalNodes>
            0 -1 175 1.5599297359585762e-02</internalNodes>
          <leafValues>
            -8.6088716983795166e-02 8.6651515960693359e-01</leafValues></_>
        <_>
          <internalNodes>
            0 -1 137 -7.7714677900075912e-04</internalNodes>
          <leafValues>
            3.5215032100677490e-01 -2.1737423539161682e-01</leafValues></_>
        <_>
          <internalNodes>
            0 -1 468 6.9299487222451717e-05</internalNodes>
          <leafValues>
            2.0928311347961426e-01 -3.6077746748924255e-01</leafValues></_>
        <_>
          <internalNodes>
            0 -1 90 2.2309042513370514e-02</internalNodes>
          <leafValues>
            9.2280618846416473e-02 -7.4823015928268433e-01</leafValues></_>
        <_>
          <internalNodes>
            0 -1 56 7.3805090505629778e-04</internalNodes>
          <leafValues>
            1.3203914463520050e-01 -5.4296106100082397e-01</leafValues></_>
        <_>
          <internalNodes>
            0 -1 324 1.8780825193971395e-03</internalNodes>
          <leafValues>
            -1.7080976068973541e-01 4.6869847178459167e-01</leafValues></_>
        <_>
          <internalNodes>
            0 -1 336 9.0670815552584827e-05</internalNodes>
          <leafValues>
            2.4194054305553436e-01 -3.1300824880599976e-01</leafValues></_>
        <_>
          <internalNodes>
            0 -1 222 3.2092299079522491e-04</internalNodes>
          <leafValues>
            -2.3578387498855591e-01 3.2604080438613892e-01</leafValues></_></weakClassifiers></_>
    <!-- stage 22 -->
    <_>
      <maxWeakCount>26</maxWeakCount>
      <stageThreshold>-4.1708546876907349e-01</stageThreshold>
      <weakClassifiers>
        <_>
          <internalNodes>
            0 -1 19 1.8529769033193588e-02</internalNodes>
          <leafValues>
            4.9411766231060028e-02 5.5384618043899536e-01</leafValues></_>
        <_>
          <internalNodes>
            0 -1 414 -5.3127132559893653e-06</internalNodes>
          <leafValues>
            3.2948508858680725e-01 -1.7743864655494690e-01</leafValues></_>
        <_>
          <internalNodes>
            0 -1 185 2.9356935992836952e-03</internalNodes>
          <leafValues>
            -1.5775175392627716e-01 4.1544017195701599e-01</leafValues></_>
        <_>
          <internalNodes>
            0 -1 289 -7.0259952917695045e-04</internalNodes>
          <leafValues>
            -4.8576238751411438e-01 1.3953976333141327e-01</leafValues></_>
        <_>
          <internalNodes>
            0 -1 149 9.8310702014714479e-06</internalNodes>
          <leafValues>
            -2.5254479050636292e-01 3.0340626835823059e-01</leafValues></_>
        <_>
          <internalNodes>
            0 -1 229 -8.9674533228389919e-05</internalNodes>
          <leafValues>
            -3.5614857077598572e-01 2.0755344629287720e-01</leafValues></_>
        <_>
          <internalNodes>
            0 -1 144 1.4949447941035032e-03</internalNodes>
          <leafValues>
            -1.8213500082492828e-01 3.9193886518478394e-01</leafValues></_>
        <_>
          <internalNodes>
            0 -1 453 5.4193769756238908e-06</internalNodes>
          <leafValues>
            -2.8239426016807556e-01 2.9199901223182678e-01</leafValues></_>
        <_>
          <internalNodes>
            0 -1 425 -3.4639250952750444e-04</internalNodes>
          <leafValues>
            4.3019703030586243e-01 -1.4724478125572205e-01</leafValues></_>
        <_>
          <internalNodes>
            0 -1 190 1.7693262547254562e-02</internalNodes>
          <leafValues>
            -9.5224730670452118e-02 8.1048446893692017e-01</leafValues></_>
        <_>
          <internalNodes>
            0 -1 254 6.4074629335664213e-05</internalNodes>
          <leafValues>
            -1.3964582979679108e-01 4.5789009332656860e-01</leafValues></_>
        <_>
          <internalNodes>
            0 -1 167 2.0544692873954773e-01</internalNodes>
          <leafValues>
            -9.0041473507881165e-02 8.0745166540145874e-01</leafValues></_>
        <_>
          <internalNodes>
            0 -1 86 -3.8496658205986023e-02</internalNodes>
          <leafValues>
            5.8333528041839600e-01 -1.2896619737148285e-01</leafValues></_>
        <_>
          <internalNodes>
            0 -1 141 3.1393114477396011e-03</internalNodes>
          <leafValues>
            -2.2977943718433380e-01 3.2375597953796387e-01</leafValues></_>
        <_>
          <internalNodes>
            0 -1 332 -3.6352456663735211e-04</internalNodes>
          <leafValues>
            3.2823789119720459e-01 -2.4418443441390991e-01</leafValues></_>
        <_>
          <internalNodes>
            0 -1 199 4.8278339090757072e-04</internalNodes>
          <leafValues>
            2.6402470469474792e-01 -3.2639047503471375e-01</leafValues></_>
        <_>
          <internalNodes>
            0 -1 11 1.6353800892829895e-01</internalNodes>
          <leafValues>
            -1.3628317415714264e-01 5.4866504669189453e-01</leafValues></_>
        <_>
          <internalNodes>
            0 -1 26 -3.8579542888328433e-04</internalNodes>
          <leafValues>
            3.2892668247222900e-01 -2.4214641749858856e-01</leafValues></_>
        <_>
          <internalNodes>
            0 -1 253 3.3138715662062168e-03</internalNodes>
          <leafValues>
            -9.1994643211364746e-02 7.5138771533966064e-01</leafValues></_>
        <_>
          <internalNodes>
            0 -1 325 7.6862357673235238e-05</internalNodes>
          <leafValues>
            1.7755612730979919e-01 -4.4678869843482971e-01</leafValues></_>
        <_>
          <internalNodes>
            0 -1 216 1.4146738976705819e-04</internalNodes>
          <leafValues>
            1.9452258944511414e-01 -3.8169038295745850e-01</leafValues></_>
        <_>
          <internalNodes>
            0 -1 129 2.1032751537859440e-03</internalNodes>
          <leafValues>
            -1.3738167285919189e-01 6.0514783859252930e-01</leafValues></_>
        <_>
          <internalNodes>
            0 -1 48 -6.9464009720832109e-04</internalNodes>
          <leafValues>
            4.5818036794662476e-01 -1.5511882305145264e-01</leafValues></_>
        <_>
          <internalNodes>
            0 -1 328 -3.6803144030272961e-04</internalNodes>
          <leafValues>
            -6.8828904628753662e-01 1.2226744741201401e-01</leafValues></_>
        <_>
          <internalNodes>
            0 -1 395 -3.2258436083793640e-02</internalNodes>
          <leafValues>
            -6.2756836414337158e-01 1.0385151952505112e-01</leafValues></_>
        <_>
          <internalNodes>
            0 -1 458 8.5380962118506432e-03</internalNodes>
          <leafValues>
            9.1236963868141174e-02 -8.6466914415359497e-01</leafValues></_></weakClassifiers></_>
    <!-- stage 23 -->
    <_>
      <maxWeakCount>27</maxWeakCount>
      <stageThreshold>-5.1025372743606567e-01</stageThreshold>
      <weakClassifiers>
        <_>
          <internalNodes>
            0 -1 436 -2.8820673469454050e-04</internalNodes>
          <leafValues>
            -6.1702126264572144e-01 2.9857820272445679e-01</leafValues></_>
        <_>
          <internalNodes>
            0 -1 452 -8.3056383300572634e-04</internalNodes>
          <leafValues>
            7.2056090831756592e-01 -6.1188928782939911e-02</leafValues></_>
        <_>
          <internalNodes>
            0 -1 52 -1.4241703320294619e-03</internalNodes>
          <leafValues>
            2.1121393144130707e-01 -3.3592540025711060e-01</leafValues></_>
        <_>
          <internalNodes>
            0 -1 315 1.4478813391178846e-03</internalNodes>
          <leafValues>
            -1.0366867482662201e-01 7.6997411251068115e-01</leafValues></_>
        <_>
          <internalNodes>
            0 -1 257 -3.4701393451541662e-04</internalNodes>
          <leafValues>
            -6.4032143354415894e-01 9.7499348223209381e-02</leafValues></_>
        <_>
          <internalNodes>
            0 -1 171 2.2249747999012470e-03</internalNodes>
          <leafValues>
            -1.4040096104145050e-01 4.8727422952651978e-01</leafValues></_>
        <_>
          <internalNodes>
            0 -1 415 -8.6716830264776945e-04</internalNodes>
          <leafValues>
            8.3097106218338013e-01 -7.0826873183250427e-02</leafValues></_>
        <_>
          <internalNodes>
            0 -1 151 5.0857182941399515e-05</internalNodes>
          <leafValues>
            1.9517925381660461e-01 -3.5361415147781372e-01</leafValues></_>
        <_>
          <internalNodes>
            0 -1 28 -1.2206484097987413e-03</internalNodes>
          <leafValues>
            6.3238471746444702e-01 -1.0167843848466873e-01</leafValues></_>
        <_>
          <internalNodes>
            0 -1 393 -3.0680117197334766e-03</internalNodes>
          <leafValues>
            3.7024688720703125e-01 -1.7968711256980896e-01</leafValues></_>
        <_>
          <internalNodes>
            0 -1 384 -1.0761881247162819e-02</internalNodes>
          <leafValues>
            -8.2136720418930054e-01 9.2739343643188477e-02</leafValues></_>
        <_>
          <internalNodes>
            0 -1 362 -2.5537647306919098e-02</internalNodes>
          <leafValues>
            4.8561295866966248e-01 -1.5115733444690704e-01</leafValues></_>
        <_>
          <internalNodes>
            0 -1 120 1.0973474942147732e-02</internalNodes>
          <leafValues>
            -1.0994721204042435e-01 5.6296336650848389e-01</leafValues></_>
        <_>
          <internalNodes>
            0 -1 299 -6.2592197209596634e-03</internalNodes>
          <leafValues>
            7.9818886518478394e-01 -8.9596793055534363e-02</leafValues></_>
        <_>
          <internalNodes>
            0 -1 244 -8.3361112046986818e-05</internalNodes>
          <leafValues>
            3.5625132918357849e-01 -1.8842619657516479e-01</leafValues></_>
        <_>
          <internalNodes>
            0 -1 304 5.3953317546984181e-06</internalNodes>
          <leafValues>
            -2.1277579665184021e-01 3.2705947756767273e-01</leafValues></_>
        <_>
          <internalNodes>
            0 -1 317 5.1166538469260558e-05</internalNodes>
          <leafValues>
            2.5333467125892639e-01 -3.3480975031852722e-01</leafValues></_>
        <_>
          <internalNodes>
            0 -1 258 -2.9293555417098105e-04</internalNodes>
          <leafValues>
            -4.9081528186798096e-01 1.5376429259777069e-01</leafValues></_>
        <_>
          <internalNodes>
            0 -1 305 4.1106534190475941e-03</internalNodes>
          <leafValues>
            -1.0297016054391861e-01 8.3655369281768799e-01</leafValues></_>
        <_>
          <internalNodes>
            0 -1 327 1.4980641426518559e-03</internalNodes>
          <leafValues>
