<?xml version="1.0"?>
<opencv_storage>
<cascade>
  <stageType>BOOST</stageType>
  <featureType>HAAR</featureType>
  <height>27</height>
  <width>48</width>
  <stageParams>
    <boostType>GAB</boostType>
    <minHitRate>9.9900001287460327e-01</minHitRate>
    <maxFalseAlarm>2.5000000000000000e-01</maxFalseAlarm>
    <weightTrimRate>9.4999999999999996e-01</weightTrimRate>
    <maxDepth>1</maxDepth>
    <maxWeakCount>100</maxWeakCount></stageParams>
  <featureParams>
    <maxCatCount>0</maxCatCount>
    <featSize>1</featSize>
    <mode>BASIC</mode></featureParams>
  <stageNum>18</stageNum>
  <stages>
    <!-- stage 0 -->
    <_>
      <maxWeakCount>7</maxWeakCount>
      <stageThreshold>-1.3990056514739990e+00</stageThreshold>
      <weakClassifiers>
        <_>
          <internalNodes>
            0 -1 76 1.2132924795150757e-01</internalNodes>
          <leafValues>
            -6.9736844301223755e-01 7.2850680351257324e-01</leafValues></_>
        <_>
          <internalNodes>
            0 -1 210 -2.4070490151643753e-02</internalNodes>
          <leafValues>
            5.7942575216293335e-01 -6.5951603651046753e-01</leafValues></_>
        <_>
          <internalNodes>
            0 -1 114 5.1404931582510471e-03</internalNodes>
          <leafValues>
            -4.1437146067619324e-01 8.6028206348419189e-01</leafValues></_>
        <_>
          <internalNodes>
            0 -1 120 2.6808705180883408e-02</internalNodes>
          <leafValues>
            -4.3598544597625732e-01 6.6443085670471191e-01</leafValues></_>
        <_>
          <internalNodes>
            0 -1 105 2.2410834208130836e-03</internalNodes>
          <leafValues>
            -4.5885536074638367e-01 6.1141228675842285e-01</leafValues></_>
        <_>
          <internalNodes>
            0 -1 136 -6.2878485769033432e-03</internalNodes>
          <leafValues>
            5.3882771730422974e-01 -5.0788885354995728e-01</leafValues></_>
        <_>
          <internalNodes>
            0 -1 99 -2.8071091510355473e-03</internalNodes>
          <leafValues>
            7.0471227169036865e-01 -4.2325136065483093e-01</leafValues></_></weakClassifiers></_>
    <!-- stage 1 -->
    <_>
      <maxWeakCount>8</maxWeakCount>
      <stageThreshold>-5.4201501607894897e-01</stageThreshold>
      <weakClassifiers>
        <_>
          <internalNodes>
            0 -1 54 1.8404944241046906e-01</internalNodes>
          <leafValues>
            -6.0958904027938843e-01 5.4506438970565796e-01</leafValues></_>
        <_>
          <internalNodes>
            0 -1 56 -2.3771511390805244e-02</internalNodes>
          <leafValues>
            5.7539260387420654e-01 -5.2389281988143921e-01</leafValues></_>
        <_>
          <internalNodes>
            0 -1 103 4.0920628234744072e-03</internalNodes>
          <leafValues>
            -3.6711087822914124e-01 7.4817210435867310e-01</leafValues></_>
        <_>
          <internalNodes>
            0 -1 43 1.0299262066837400e-04</internalNodes>
          <leafValues>
            3.0537503957748413e-01 -8.7039095163345337e-01</leafValues></_>
        <_>
          <internalNodes>
            0 -1 43 -6.3803003286011517e-05</internalNodes>
          <leafValues>
            -7.6913768053054810e-01 3.3505952358245850e-01</leafValues></_>
        <_>
          <internalNodes>
            0 -1 26 9.3130514025688171e-02</internalNodes>
          <leafValues>
            -6.3469827175140381e-01 3.7585335969924927e-01</leafValues></_>
        <_>
          <internalNodes>
            0 -1 25 8.3935400471091270e-03</internalNodes>
          <leafValues>
            -3.7812536954879761e-01 7.1427905559539795e-01</leafValues></_>
        <_>
          <internalNodes>
            0 -1 86 -8.1990845501422882e-05</internalNodes>
          <leafValues>
            -7.7217561006546021e-01 3.4152773022651672e-01</leafValues></_></weakClassifiers></_>
    <!-- stage 2 -->
    <_>
      <maxWeakCount>10</maxWeakCount>
      <stageThreshold>-9.4538223743438721e-01</stageThreshold>
      <weakClassifiers>
        <_>
          <internalNodes>
            0 -1 216 -1.7749035730957985e-02</internalNodes>
          <leafValues>
            4.0145984292030334e-01 -6.4143425226211548e-01</leafValues></_>
        <_>
          <internalNodes>
            0 -1 218 9.2884074547328055e-05</internalNodes>
          <leafValues>
            2.3395980894565582e-01 -8.7897086143493652e-01</leafValues></_>
        <_>
          <internalNodes>
            0 -1 21 3.1560393981635571e-03</internalNodes>
          <leafValues>
            -5.5988353490829468e-01 3.8674899935722351e-01</leafValues></_>
        <_>
          <internalNodes>
            0 -1 3 1.3508470146916807e-04</internalNodes>
          <leafValues>
            2.4769733846187592e-01 -8.6982828378677368e-01</leafValues></_>
        <_>
          <internalNodes>
            0 -1 4 -1.6180204693228006e-04</internalNodes>
          <leafValues>
            -9.0212583541870117e-01 2.4516905844211578e-01</leafValues></_>
        <_>
          <internalNodes>
            0 -1 123 2.3865802213549614e-02</internalNodes>
          <leafValues>
            -4.6798825263977051e-01 5.2947962284088135e-01</leafValues></_>
        <_>
          <internalNodes>
            0 -1 85 5.9301452711224556e-03</internalNodes>
          <leafValues>
            -3.6081662774085999e-01 6.4282488822937012e-01</leafValues></_>
        <_>
          <internalNodes>
            0 -1 70 9.5163788646459579e-03</internalNodes>
          <leafValues>
            -3.8099569082260132e-01 5.9644842147827148e-01</leafValues></_>
        <_>
          <internalNodes>
            0 -1 192 7.2648678906261921e-03</internalNodes>
          <leafValues>
            -3.5675114393234253e-01 6.9422805309295654e-01</leafValues></_>
        <_>
          <internalNodes>
            0 -1 227 6.1615261074621230e-05</internalNodes>
          <leafValues>
            2.9268190264701843e-01 -8.6503231525421143e-01</leafValues></_></weakClassifiers></_>
    <!-- stage 3 -->
    <_>
      <maxWeakCount>9</maxWeakCount>
      <stageThreshold>-6.2762260437011719e-01</stageThreshold>
      <weakClassifiers>
        <_>
          <internalNodes>
            0 -1 227 -8.4141429397277534e-05</internalNodes>
          <leafValues>
            -8.3132529258728027e-01 2.4233983457088470e-01</leafValues></_>
        <_>
          <internalNodes>
            0 -1 36 3.7867602705955505e-01</internalNodes>
          <leafValues>
            -4.0577778220176697e-01 5.5728572607040405e-01</leafValues></_>
        <_>
          <internalNodes>
            0 -1 178 9.3700075522065163e-03</internalNodes>
          <leafValues>
            -3.1093239784240723e-01 6.4601975679397583e-01</leafValues></_>
        <_>
          <internalNodes>
            0 -1 0 7.0170717663131654e-05</internalNodes>
          <leafValues>
            2.5275388360023499e-01 -7.6711767911911011e-01</leafValues></_>
        <_>
          <internalNodes>
            0 -1 158 9.9748810753226280e-03</internalNodes>
          <leafValues>
            -3.0019739270210266e-01 7.7889513969421387e-01</leafValues></_>
        <_>
          <internalNodes>
            0 -1 135 2.1761832758784294e-03</internalNodes>
          <leafValues>
            -2.9431751370429993e-01 5.9403234720230103e-01</leafValues></_>
        <_>
          <internalNodes>
            0 -1 130 -6.8942639045417309e-03</internalNodes>
          <leafValues>
            8.4844809770584106e-01 -2.5063014030456543e-01</leafValues></_>
        <_>
          <internalNodes>
            0 -1 221 4.8315276217181236e-05</internalNodes>
          <leafValues>
            3.9862248301506042e-01 -7.3005497455596924e-01</leafValues></_>
        <_>
          <internalNodes>
            0 -1 117 1.3422338292002678e-02</internalNodes>
          <leafValues>
            -4.8825439810752869e-01 3.9144569635391235e-01</leafValues></_></weakClassifiers></_>
    <!-- stage 4 -->
    <_>
      <maxWeakCount>14</maxWeakCount>
      <stageThreshold>-7.9137516021728516e-01</stageThreshold>
      <weakClassifiers>
        <_>
          <internalNodes>
            0 -1 1 -7.1780836151447147e-05</internalNodes>
          <leafValues>
            -7.6923078298568726e-01 1.8699187040328979e-01</leafValues></_>
        <_>
          <internalNodes>
            0 -1 106 1.3139562681317329e-02</internalNodes>
          <leafValues>
            -4.0733596682548523e-01 4.8964840173721313e-01</leafValues></_>
        <_>
          <internalNodes>
            0 -1 234 -6.6590437199920416e-05</internalNodes>
          <leafValues>
            -8.4714090824127197e-01 2.1996943652629852e-01</leafValues></_>
        <_>
          <internalNodes>
            0 -1 238 -2.1407753229141235e-03</internalNodes>
          <leafValues>
            5.3296101093292236e-01 -3.8749304413795471e-01</leafValues></_>
        <_>
          <internalNodes>
            0 -1 51 1.0165633284486830e-04</internalNodes>
          <leafValues>
            2.7669268846511841e-01 -7.4511545896530151e-01</leafValues></_>
        <_>
          <internalNodes>
            0 -1 154 -3.9076171815395355e-02</internalNodes>
          <leafValues>
            6.8652659654617310e-01 -3.1955882906913757e-01</leafValues></_>
        <_>
          <internalNodes>
            0 -1 29 3.5706930793821812e-03</internalNodes>
          <leafValues>
            -2.3340116441249847e-01 6.5907794237136841e-01</leafValues></_>
        <_>
          <internalNodes>
            0 -1 215 1.2979676830582321e-04</internalNodes>
          <leafValues>
            2.2359588742256165e-01 -7.1501815319061279e-01</leafValues></_>
        <_>
          <internalNodes>
            0 -1 115 6.1741250101476908e-04</internalNodes>
          <leafValues>
            -3.3351656794548035e-01 5.9105610847473145e-01</leafValues></_>
        <_>
          <internalNodes>
            0 -1 180 5.7548778131604195e-03</internalNodes>
          <leafValues>
            -2.7885502576828003e-01 6.2779361009597778e-01</leafValues></_>
        <_>
          <internalNodes>
            0 -1 186 4.0238145738840103e-03</internalNodes>
          <leafValues>
            -1.9313141703605652e-01 8.1560528278350830e-01</leafValues></_>
        <_>
          <internalNodes>
            0 -1 62 1.0115731129189953e-04</internalNodes>
          <leafValues>
            2.4550068378448486e-01 -7.8157728910446167e-01</leafValues></_>
        <_>
          <internalNodes>
            0 -1 116 -3.6940658465027809e-03</internalNodes>
          <leafValues>
            7.8965264558792114e-01 -2.5512728095054626e-01</leafValues></_>
        <_>
          <internalNodes>
            0 -1 71 2.2353739477694035e-03</internalNodes>
          <leafValues>
            -3.2375156879425049e-01 5.2803707122802734e-01</leafValues></_></weakClassifiers></_>
    <!-- stage 5 -->
    <_>
      <maxWeakCount>12</maxWeakCount>
      <stageThreshold>-4.7111296653747559e-01</stageThreshold>
      <weakClassifiers>
        <_>
          <internalNodes>
            0 -1 234 7.8657765698153526e-05</internalNodes>
          <leafValues>
            1.3500000536441803e-01 -8.3999997377395630e-01</leafValues></_>
        <_>
          <internalNodes>
            0 -1 20 1.8732130527496338e-02</internalNodes>
          <leafValues>
            -3.3367636799812317e-01 5.0921553373336792e-01</leafValues></_>
        <_>
          <internalNodes>
            0 -1 188 -6.3993155956268311e-02</internalNodes>
          <leafValues>
            4.1940715909004211e-01 -4.3160730600357056e-01</leafValues></_>
        <_>
          <internalNodes>
            0 -1 201 7.6886106398887932e-05</internalNodes>
          <leafValues>
            2.7357259392738342e-01 -6.9606971740722656e-01</leafValues></_>
        <_>
          <internalNodes>
            0 -1 166 6.5295021049678326e-03</internalNodes>
          <leafValues>
            -3.4306058287620544e-01 5.0845193862915039e-01</leafValues></_>
        <_>
          <internalNodes>
            0 -1 163 -5.0452398136258125e-03</internalNodes>
          <leafValues>
            8.1864601373672485e-01 -2.3342609405517578e-01</leafValues></_>
        <_>
          <internalNodes>
            0 -1 17 3.2466175034642220e-03</internalNodes>
          <leafValues>
            -4.2119133472442627e-01 4.7731333971023560e-01</leafValues></_>
        <_>
          <internalNodes>
            0 -1 241 1.3057410251349211e-04</internalNodes>
          <leafValues>
            2.8190609812736511e-01 -5.9963196516036987e-01</leafValues></_>
        <_>
          <internalNodes>
            0 -1 34 -1.3534256140701473e-04</internalNodes>
          <leafValues>
            -6.1267870664596558e-01 2.4978315830230713e-01</leafValues></_>
        <_>
          <internalNodes>
            0 -1 217 4.2422451078891754e-03</internalNodes>
          <leafValues>
            -3.0400702357292175e-01 5.5141657590866089e-01</leafValues></_>
        <_>
          <internalNodes>
            0 -1 161 -8.5765272378921509e-03</internalNodes>
          <leafValues>
            4.8660197854042053e-01 -3.1920126080513000e-01</leafValues></_>
        <_>
          <internalNodes>
            0 -1 222 -4.4378211896400899e-05</internalNodes>
          <leafValues>
            -6.5907716751098633e-01 3.0110001564025879e-01</leafValues></_></weakClassifiers></_>
    <!-- stage 6 -->
    <_>
      <maxWeakCount>14</maxWeakCount>
      <stageThreshold>-8.5159987211227417e-01</stageThreshold>
      <weakClassifiers>
        <_>
          <internalNodes>
            0 -1 229 -3.0521736480295658e-03</internalNodes>
          <leafValues>
            2.6582279801368713e-01 -6.4593303203582764e-01</leafValues></_>
        <_>
          <internalNodes>
            0 -1 12 1.0097851045429707e-02</internalNodes>
          <leafValues>
            -5.6004655361175537e-01 3.2666152715682983e-01</leafValues></_>
        <_>
          <internalNodes>
            0 -1 196 -1.9522894173860550e-02</internalNodes>
          <leafValues>
            3.4803888201713562e-01 -4.0019860863685608e-01</leafValues></_>
        <_>
          <internalNodes>
            0 -1 164 2.9613629449158907e-03</internalNodes>
          <leafValues>
            -2.8733569383621216e-01 5.2775341272354126e-01</leafValues></_>
        <_>
          <internalNodes>
            0 -1 220 -1.2765612336806953e-04</internalNodes>
          <leafValues>
            -7.6762610673904419e-01 1.7371065914630890e-01</leafValues></_>
        <_>
          <internalNodes>
            0 -1 27 -1.0997350327670574e-03</internalNodes>
          <leafValues>
            4.6175679564476013e-01 -3.1584855914115906e-01</leafValues></_>
        <_>
          <internalNodes>
            0 -1 138 9.4127789139747620e-02</internalNodes>
          <leafValues>
            -1.7521597445011139e-01 9.4327098131179810e-01</leafValues></_>
        <_>
          <internalNodes>
            0 -1 15 -2.0926361321471632e-04</internalNodes>
          <leafValues>
            -8.5198652744293213e-01 2.0139926671981812e-01</leafValues></_>
        <_>
          <internalNodes>
            0 -1 30 2.0230375230312347e-03</internalNodes>
          <leafValues>
            -2.8494486212730408e-01 5.3153306245803833e-01</leafValues></_>
        <_>
          <internalNodes>
            0 -1 74 -9.9395911092869937e-05</internalNodes>
          <leafValues>
            -6.9598686695098877e-01 2.1199309825897217e-01</leafValues></_>
        <_>
          <internalNodes>
            0 -1 69 6.3113896176218987e-03</internalNodes>
          <leafValues>
            -2.6116108894348145e-01 5.7700949907302856e-01</leafValues></_>
        <_>
          <internalNodes>
            0 -1 75 1.4549139887094498e-03</internalNodes>
          <leafValues>
            -2.1344055235385895e-01 6.4971888065338135e-01</leafValues></_>
        <_>
          <internalNodes>
            0 -1 87 -2.8799469582736492e-03</internalNodes>
          <leafValues>
            3.9036783576011658e-01 -3.7781712412834167e-01</leafValues></_>
        <_>
          <internalNodes>
            0 -1 224 1.7606135224923491e-03</internalNodes>
          <leafValues>
            -3.5613203048706055e-01 4.7294396162033081e-01</leafValues></_></weakClassifiers></_>
    <!-- stage 7 -->
    <_>
      <maxWeakCount>13</maxWeakCount>
      <stageThreshold>-8.5772323608398438e-01</stageThreshold>
      <weakClassifiers>
        <_>
          <internalNodes>
            0 -1 19 1.4108498580753803e-03</internalNodes>
          <leafValues>
            -5.3135311603546143e-01 4.9549549818038940e-01</leafValues></_>
        <_>
          <internalNodes>
            0 -1 11 -3.8796156644821167e-02</internalNodes>
          <leafValues>
            -8.8623625040054321e-01 1.6013808548450470e-01</leafValues></_>
        <_>
          <internalNodes>
            0 -1 242 -6.5831337124109268e-03</internalNodes>
          <leafValues>
            -8.2054746150970459e-01 2.7074491977691650e-01</leafValues></_>
        <_>
          <internalNodes>
            0 -1 244 9.4577893614768982e-03</internalNodes>
          <leafValues>
            1.5805971622467041e-01 -7.8234982490539551e-01</leafValues></_>
        <_>
          <internalNodes>
            0 -1 8 2.8717691078782082e-02</internalNodes>
          <leafValues>
            -5.1323354244232178e-01 2.6125830411911011e-01</leafValues></_>
        <_>
          <internalNodes>
            0 -1 209 3.0936650000512600e-04</internalNodes>
          <leafValues>
            2.2700707614421844e-01 -7.1308851242065430e-01</leafValues></_>
        <_>
          <internalNodes>
            0 -1 18 9.0713584795594215e-03</internalNodes>
          <leafValues>
            1.0292997211217880e-01 -9.0044850111007690e-01</leafValues></_>
        <_>
          <internalNodes>
            0 -1 212 -2.0197212696075439e-02</internalNodes>
          <leafValues>
            3.4788700938224792e-01 -4.1334712505340576e-01</leafValues></_>
        <_>
          <internalNodes>
            0 -1 147 1.4057974331080914e-03</internalNodes>
          <leafValues>
            -3.1622630357742310e-01 5.5157226324081421e-01</leafValues></_>
        <_>
          <internalNodes>
            0 -1 13 1.0813882545335218e-04</internalNodes>
          <leafValues>
            2.6832911372184753e-01 -8.0137568712234497e-01</leafValues></_>
        <_>
          <internalNodes>
            0 -1 112 -3.5904650576412678e-03</internalNodes>
          <leafValues>
            9.6637284755706787e-01 -2.1336719393730164e-01</leafValues></_>
        <_>
          <internalNodes>
            0 -1 78 2.0193920136080123e-05</internalNodes>
          <leafValues>
            -2.4417750537395477e-01 5.2853465080261230e-01</leafValues></_>
        <_>
          <internalNodes>
            0 -1 167 -3.2327257213182747e-04</internalNodes>
          <leafValues>
            5.0357317924499512e-01 -2.7079588174819946e-01</leafValues></_></weakClassifiers></_>
    <!-- stage 8 -->
    <_>
      <maxWeakCount>14</maxWeakCount>
      <stageThreshold>-6.7142128944396973e-01</stageThreshold>
      <weakClassifiers>
        <_>
          <internalNodes>
            0 -1 132 5.0588352605700493e-03</internalNodes>
          <leafValues>
            -5.3097343444824219e-01 2.3076923191547394e-01</leafValues></_>
        <_>
          <internalNodes>
            0 -1 67 6.4705118536949158e-02</internalNodes>
          <leafValues>
            -3.4604868292808533e-01 4.3154013156890869e-01</leafValues></_>
        <_>
          <internalNodes>
            0 -1 5 4.8758033663034439e-03</internalNodes>
          <leafValues>
            1.8531467020511627e-01 -7.3203766345977783e-01</leafValues></_>
        <_>
          <internalNodes>
            0 -1 233 2.3578824766445905e-04</internalNodes>
          <leafValues>
            -3.2824301719665527e-01 4.2655909061431885e-01</leafValues></_>
        <_>
          <internalNodes>
            0 -1 139 -9.8325742874294519e-04</internalNodes>
          <leafValues>
            5.2405154705047607e-01 -2.5508844852447510e-01</leafValues></_>
        <_>
          <internalNodes>
            0 -1 155 -8.3938578609377146e-04</internalNodes>
          <leafValues>
            -8.3847349882125854e-01 2.0695832371711731e-01</leafValues></_>
        <_>
          <internalNodes>
            0 -1 68 1.3621714897453785e-03</internalNodes>
          <leafValues>
            -2.9078012704849243e-01 4.4400116801261902e-01</leafValues></_>
        <_>
          <internalNodes>
            0 -1 150 2.5165663100779057e-03</internalNodes>
          <leafValues>
            1.4574335515499115e-01 -8.2746374607086182e-01</leafValues></_>
        <_>
          <internalNodes>
            0 -1 121 2.8556825127452612e-03</internalNodes>
          <leafValues>
            -3.6002001166343689e-01 3.1852102279663086e-01</leafValues></_>
        <_>
          <internalNodes>
            0 -1 194 -8.0797925591468811e-02</internalNodes>
          <leafValues>
            4.7569030523300171e-01 -3.0116009712219238e-01</leafValues></_>
        <_>
          <internalNodes>
            0 -1 33 1.3970752479508519e-04</internalNodes>
          <leafValues>
            1.1886499077081680e-01 -9.1610956192016602e-01</leafValues></_>
        <_>
          <internalNodes>
            0 -1 9 4.6822283416986465e-02</internalNodes>
          <leafValues>
            -3.1517153978347778e-01 4.6347644925117493e-01</leafValues></_>
        <_>
          <internalNodes>
            0 -1 79 4.3026669882237911e-03</internalNodes>
          <leafValues>
            -4.0028041601181030e-01 3.3371323347091675e-01</leafValues></_>
        <_>
          <internalNodes>
            0 -1 46 8.1653398228809237e-04</internalNodes>
          <leafValues>
            -3.2900470495223999e-01 4.6009647846221924e-01</leafValues></_></weakClassifiers></_>
    <!-- stage 9 -->
    <_>
      <maxWeakCount>16</maxWeakCount>
      <stageThreshold>-6.3793438673019409e-01</stageThreshold>
      <weakClassifiers>
        <_>
          <internalNodes>
            0 -1 53 4.4422862119972706e-03</internalNodes>
          <leafValues>
            -5.6250000000000000e-01 3.4572491049766541e-01</leafValues></_>
        <_>
          <internalNodes>
            0 -1 174 -4.1626390069723129e-02</internalNodes>
          <leafValues>
            5.2466613054275513e-01 -3.0178359150886536e-01</leafValues></_>
        <_>
          <internalNodes>
            0 -1 214 -1.4603597264795098e-05</internalNodes>
          <leafValues>
            3.4417533874511719e-01 -3.8451841473579407e-01</leafValues></_>
        <_>
          <internalNodes>
            0 -1 184 9.8493219411466271e-06</internalNodes>
          <leafValues>
            -3.3734086155891418e-01 3.7551888823509216e-01</leafValues></_>
        <_>
          <internalNodes>
            0 -1 39 4.7371955588459969e-03</internalNodes>
          <leafValues>
            -2.6803392171859741e-01 5.4795348644256592e-01</leafValues></_>
        <_>
          <internalNodes>
            0 -1 41 4.3467236682772636e-03</internalNodes>
          <leafValues>
            -3.8776695728302002e-01 3.3155721426010132e-01</leafValues></_>
        <_>
          <internalNodes>
            0 -1 223 -4.3112677522003651e-03</internalNodes>
          <leafValues>
            3.4153059124946594e-01 -4.4089785218238831e-01</leafValues></_>
        <_>
          <internalNodes>
            0 -1 107 3.0424129217863083e-03</internalNodes>
          <leafValues>
            -3.3548063039779663e-01 4.1629987955093384e-01</leafValues></_>
        <_>
          <internalNodes>
            0 -1 109 -3.3583317417651415e-04</internalNodes>
          <leafValues>
            -7.1415752172470093e-01 1.7214941978454590e-01</leafValues></_>
        <_>
          <internalNodes>
            0 -1 162 1.2378075552987866e-05</internalNodes>
          <leafValues>
            -3.2717061042785645e-01 4.6426650881767273e-01</leafValues></_>
        <_>
          <internalNodes>
            0 -1 110 1.7937862139660865e-05</internalNodes>
          <leafValues>
            -2.4578832089900970e-01 4.9807712435722351e-01</leafValues></_>
        <_>
          <internalNodes>
            0 -1 60 -1.4078601263463497e-02</internalNodes>
          <leafValues>
            8.7075841426849365e-01 -1.6727028787136078e-01</leafValues></_>
        <_>
          <internalNodes>
            0 -1 24 1.5467264456674457e-03</internalNodes>
          <leafValues>
            -3.4074953198432922e-01 3.8294503092765808e-01</leafValues></_>
        <_>
          <internalNodes>
            0 -1 66 8.4250979125499725e-04</internalNodes>
          <leafValues>
            2.1951957046985626e-01 -6.9538056850433350e-01</leafValues></_>
        <_>
          <internalNodes>
            0 -1 42 -3.0103130266070366e-03</internalNodes>
          <leafValues>
            6.4168143272399902e-01 -2.5929898023605347e-01</leafValues></_>
        <_>
          <internalNodes>
            0 -1 225 -1.0810125240823254e-04</internalNodes>
          <leafValues>
            4.6475976705551147e-01 -2.8250974416732788e-01</leafValues></_></weakClassifiers></_>
    <!-- stage 10 -->
    <_>
      <maxWeakCount>16</maxWeakCount>
      <stageThreshold>-6.7798221111297607e-01</stageThreshold>
      <weakClassifiers>
        <_>
          <internalNodes>
            0 -1 90 -6.5666949922160711e-06</internalNodes>
          <leafValues>
            3.5195529460906982e-01 -3.2947975397109985e-01</leafValues></_>
        <_>
          <internalNodes>
            0 -1 81 -3.9807995781302452e-03</internalNodes>
          <leafValues>
            3.9967349171638489e-01 -3.0172041058540344e-01</leafValues></_>
        <_>
          <internalNodes>
            0 -1 173 1.2275283224880695e-03</internalNodes>
          <leafValues>
            1.4779005944728851e-01 -9.0985924005508423e-01</leafValues></_>
        <_>
          <internalNodes>
            0 -1 236 -4.6878792345523834e-03</internalNodes>
          <leafValues>
            -8.5885715484619141e-01 1.1071088910102844e-01</leafValues></_>
        <_>
          <internalNodes>
            0 -1 95 -1.9800932932412252e-05</internalNodes>
          <leafValues>
            4.8570990562438965e-01 -2.4934093654155731e-01</leafValues></_>
        <_>
          <internalNodes>
            0 -1 152 6.1215064488351345e-03</internalNodes>
          <leafValues>
            -2.5756812095642090e-01 4.8961129784584045e-01</leafValues></_>
        <_>
          <internalNodes>
            0 -1 185 1.8882295989897102e-05</internalNodes>
          <leafValues>
            -2.7659264206886292e-01 4.6981111168861389e-01</leafValues></_>
        <_>
          <internalNodes>
            0 -1 119 7.3177261583623476e-06</internalNodes>
          <leafValues>
            -2.9851901531219482e-01 3.8751763105392456e-01</leafValues></_>
        <_>
          <internalNodes>
            0 -1 84 -2.3289650678634644e-02</internalNodes>
          <leafValues>
            6.0105192661285400e-01 -1.7187353968620300e-01</leafValues></_>
        <_>
          <internalNodes>
            0 -1 232 -2.4664972443133593e-04</internalNodes>
          <leafValues>
            -7.8505194187164307e-01 1.6959220170974731e-01</leafValues></_>
        <_>
          <internalNodes>
            0 -1 22 1.6562554519623518e-03</internalNodes>
          <leafValues>
            -4.1150924563407898e-01 3.0588778853416443e-01</leafValues></_>
        <_>
          <internalNodes>
            0 -1 72 1.0141064412891865e-03</internalNodes>
          <leafValues>
            -1.8567855656147003e-01 8.1521630287170410e-01</leafValues></_>
        <_>
          <internalNodes>
            0 -1 104 3.8766306824982166e-03</internalNodes>
          <leafValues>
            -2.8119155764579773e-01 3.9767283201217651e-01</leafValues></_>
        <_>
          <internalNodes>
            0 -1 18 9.1966204345226288e-03</internalNodes>
          <leafValues>
            1.3554409146308899e-01 -8.8173437118530273e-01</leafValues></_>
        <_>
          <internalNodes>
            0 -1 230 -1.7735092114889994e-05</internalNodes>
          <leafValues>
            2.9411527514457703e-01 -4.4955530762672424e-01</leafValues></_>
        <_>
          <internalNodes>
            0 -1 124 4.9913022667169571e-04</internalNodes>
          <leafValues>
            1.9868142902851105e-01 -6.2164652347564697e-01</leafValues></_></weakClassifiers></_>
    <!-- stage 11 -->
    <_>
      <maxWeakCount>16</maxWeakCount>
      <stageThreshold>-4.9067419767379761e-01</stageThreshold>
      <weakClassifiers>
        <_>
          <internalNodes>
            0 -1 16 -1.8460437655448914e-02</internalNodes>
          <leafValues>
            -7.7358490228652954e-01 7.3985680937767029e-02</leafValues></_>
        <_>
          <internalNodes>
            0 -1 222 1.3324218161869794e-04</internalNodes>
          <leafValues>
            9.5626555383205414e-02 -8.1474709510803223e-01</leafValues></_>
        <_>
          <internalNodes>
            0 -1 151 2.7488830965012312e-03</internalNodes>
          <leafValues>
            1.2809519469738007e-01 -7.4015200138092041e-01</leafValues></_>
        <_>
          <internalNodes>
            0 -1 237 -2.4855211377143860e-03</internalNodes>
          <leafValues>
            5.9716176986694336e-01 -1.7968967556953430e-01</leafValues></_>
        <_>
          <internalNodes>
            0 -1 175 9.3990110326558352e-04</internalNodes>
          <leafValues>
            -2.8099894523620605e-01 4.1984415054321289e-01</leafValues></_>
        <_>
          <internalNodes>
            0 -1 149 8.5281941574066877e-04</internalNodes>
          <leafValues>
            1.2286343425512314e-01 -8.7754255533218384e-01</leafValues></_>
        <_>
          <internalNodes>
            0 -1 100 1.9480899209156632e-03</internalNodes>
          <leafValues>
            -2.4704271554946899e-01 5.6854981184005737e-01</leafValues></_>
        <_>
          <internalNodes>
            0 -1 35 7.4119521304965019e-03</internalNodes>
          <leafValues>
            1.7427559196949005e-01 -7.2798615694046021e-01</leafValues></_>
        <_>
          <internalNodes>
            0 -1 171 -6.5691664349287748e-04</internalNodes>
          <leafValues>
            6.0496711730957031e-01 -1.9571049511432648e-01</leafValues></_>
        <_>
          <internalNodes>
            0 -1 219 -2.9079057276248932e-04</internalNodes>
          <leafValues>
            4.9690657854080200e-01 -2.0046038925647736e-01</leafValues></_>
        <_>
          <internalNodes>
            0 -1 96 7.8232248779386282e-04</internalNodes>
          <leafValues>
            -3.5676783323287964e-01 2.8941380977630615e-01</leafValues></_>
        <_>
          <internalNodes>
            0 -1 197 1.3331311492947862e-05</internalNodes>
          <leafValues>
            -2.4431647360324860e-01 4.6630582213401794e-01</leafValues></_>
        <_>
          <internalNodes>
            0 -1 211 2.0677489228546619e-03</internalNodes>
          <leafValues>
            1.3382956385612488e-01 -9.7455751895904541e-01</leafValues></_>
        <_>
          <internalNodes>
            0 -1 170 -9.9992449395358562e-04</internalNodes>
          <leafValues>
            5.7402580976486206e-01 -2.4485442042350769e-01</leafValues></_>
        <_>
          <internalNodes>
            0 -1 177 -6.9337389431893826e-03</internalNodes>
          <leafValues>
            8.5116946697235107e-01 -1.2844507396221161e-01</leafValues></_>
        <_>
          <internalNodes>
            0 -1 113 -6.9408324634423479e-06</internalNodes>
          <leafValues>
            3.7109935283660889e-01 -3.0394190549850464e-01</leafValues></_></weakClassifiers></_>
    <!-- stage 12 -->
    <_>
      <maxWeakCount>19</maxWeakCount>
      <stageThreshold>-7.2212326526641846e-01</stageThreshold>
      <weakClassifiers>
        <_>
          <internalNodes>
            0 -1 80 -1.7501806840300560e-02</internalNodes>
          <leafValues>
            5.8241760730743408e-01 -2.3963133990764618e-01</leafValues></_>
        <_>
          <internalNodes>
            0 -1 65 3.2440896029584110e-04</internalNodes>
          <leafValues>
            -3.9284890890121460e-01 2.6009884476661682e-01</leafValues></_>
        <_>
          <internalNodes>
            0 -1 200 8.1001373473554850e-05</internalNodes>
          <leafValues>
            -3.4429258108139038e-01 3.3563667535781860e-01</leafValues></_>
        <_>
          <internalNodes>
            0 -1 57 -2.5873940438032150e-02</internalNodes>
          <leafValues>
            5.7188373804092407e-01 -1.4662937819957733e-01</leafValues></_>
        <_>
          <internalNodes>
            0 -1 205 2.3830810096114874e-04</internalNodes>
          <leafValues>
            1.3238975405693054e-01 -8.9478939771652222e-01</leafValues></_>
        <_>
          <internalNodes>
            0 -1 189 8.9711723849177361e-03</internalNodes>
          <leafValues>
            -2.2075010836124420e-01 5.7085669040679932e-01</leafValues></_>
        <_>
          <internalNodes>
            0 -1 145 -4.0356856770813465e-03</internalNodes>
          <leafValues>
            6.6531068086624146e-01 -1.4410580694675446e-01</leafValues></_>
        <_>
          <internalNodes>
            0 -1 82 1.1460097506642342e-02</internalNodes>
          <leafValues>
            -1.9807101786136627e-01 5.2866905927658081e-01</leafValues></_>
        <_>
          <internalNodes>
            0 -1 168 1.3270833733258769e-05</internalNodes>
          <leafValues>
            -2.6785203814506531e-01 3.9952108263969421e-01</leafValues></_>
        <_>
          <internalNodes>
            0 -1 159 2.3359216749668121e-02</internalNodes>
          <leafValues>
            -3.9739304780960083e-01 3.0387255549430847e-01</leafValues></_>
        <_>
          <internalNodes>
            0 -1 129 1.3168619945645332e-02</internalNodes>
          <leafValues>
            1.9796770811080933e-01 -5.9064447879791260e-01</leafValues></_>
        <_>
          <internalNodes>
            0 -1 61 -4.7155581414699554e-03</internalNodes>
          <leafValues>
            7.2121995687484741e-01 -1.9342005252838135e-01</leafValues></_>
        <_>
          <internalNodes>
            0 -1 202 -2.0262721227481961e-04</internalNodes>
          <leafValues>
            -5.1745772361755371e-01 2.5293713808059692e-01</leafValues></_>
        <_>
          <internalNodes>
            0 -1 6 7.0701008662581444e-03</internalNodes>
          <leafValues>
            9.2856228351593018e-02 -8.7646496295928955e-01</leafValues></_>
        <_>
          <internalNodes>
            0 -1 32 -1.2759362289216369e-04</internalNodes>
          <leafValues>
            -6.7525005340576172e-01 1.4383599162101746e-01</leafValues></_>
        <_>
          <internalNodes>
            0 -1 28 -7.1473803836852312e-04</internalNodes>
          <leafValues>
            3.8649132847785950e-01 -3.2041361927986145e-01</leafValues></_>
        <_>
          <internalNodes>
            0 -1 240 1.9256931409472600e-05</internalNodes>
          <leafValues>
            -2.8315451741218567e-01 4.3735241889953613e-01</leafValues></_>
        <_>
          <internalNodes>
            0 -1 213 -4.7272775555029511e-04</internalNodes>
          <leafValues>
            -7.9194289445877075e-01 1.4022196829319000e-01</leafValues></_>
        <_>
          <internalNodes>
            0 -1 94 1.7369323177263141e-04</internalNodes>
          <leafValues>
            2.3251029849052429e-01 -4.8109531402587891e-01</leafValues></_></weakClassifiers></_>
    <!-- stage 13 -->
    <_>
      <maxWeakCount>16</maxWeakCount>
      <stageThreshold>-7.0953351259231567e-01</stageThreshold>
      <weakClassifiers>
        <_>
          <internalNodes>
            0 -1 239 -2.6355874724686146e-03</internalNodes>
          <leafValues>
            4.8611110448837280e-01 -3.1758528947830200e-01</leafValues></_>
        <_>
          <internalNodes>
            0 -1 44 -1.8553607165813446e-02</internalNodes>
          <leafValues>
            -8.6893689632415771e-01 1.3905285298824310e-01</leafValues></_>
        <_>
          <internalNodes>
            0 -1 125 4.8119397833943367e-03</internalNodes>
          <leafValues>
            -2.3668466508388519e-01 4.7503355145454407e-01</leafValues></_>
        <_>
          <internalNodes>
            0 -1 58 7.1207238361239433e-03</internalNodes>
          <leafValues>
            -6.0970139503479004e-01 1.6674138605594635e-01</leafValues></_>
        <_>
          <internalNodes>
            0 -1 2 1.7259080777876079e-04</internalNodes>
          <leafValues>
            2.1232277154922485e-01 -5.7786518335342407e-01</leafValues></_>
        <_>
          <internalNodes>
            0 -1 153 4.8034888459369540e-04</internalNodes>
          <leafValues>
            -1.9682574272155762e-01 6.0854345560073853e-01</leafValues></_>
        <_>
          <internalNodes>
            0 -1 191 6.5724328160285950e-03</internalNodes>
          <leafValues>
            -2.8069448471069336e-01 4.5987147092819214e-01</leafValues></_>
        <_>
          <internalNodes>
            0 -1 226 1.2059215805493295e-05</internalNodes>
          <leafValues>
            -2.9244738817214966e-01 3.8098511099815369e-01</leafValues></_>
        <_>
          <internalNodes>
            0 -1 245 -4.6971263363957405e-03</internalNodes>
          <leafValues>
            -6.4721572399139404e-01 1.6804650425910950e-01</leafValues></_>
        <_>
          <internalNodes>
            0 -1 156 -6.9480412639677525e-04</internalNodes>
          <leafValues>
            6.5653252601623535e-01 -2.1641917526721954e-01</leafValues></_>
        <_>
          <internalNodes>
            0 -1 160 6.4498896244913340e-04</internalNodes>
          <leafValues>
            -5.5964976549148560e-01 2.2931328415870667e-01</leafValues></_>
        <_>
          <internalNodes>
            0 -1 190 8.4243551827967167e-04</internalNodes>
          <leafValues>
            -2.4804912507534027e-01 5.5505669116973877e-01</leafValues></_>
        <_>
          <internalNodes>
            0 -1 49 -3.4555324818938971e-03</internalNodes>
          <leafValues>
            5.5600780248641968e-01 -2.0765079557895660e-01</leafValues></_>
        <_>
          <internalNodes>
            0 -1 50 3.7279102252796292e-04</internalNodes>
          <leafValues>
            -2.6950678229331970e-01 5.1546043157577515e-01</leafValues></_>
        <_>
          <internalNodes>
            0 -1 52 -1.3449390826281160e-04</internalNodes>
          <leafValues>
            -7.0773166418075562e-01 2.2104604542255402e-01</leafValues></_>
        <_>
          <internalNodes>
            0 -1 223 -1.3071617111563683e-02</internalNodes>
          <leafValues>
            4.7749593853950500e-01 -2.5914424657821655e-01</leafValues></_></weakClassifiers></_>
    <!-- stage 14 -->
    <_>
      <maxWeakCount>15</maxWeakCount>
      <stageThreshold>-6.0022431612014771e-01</stageThreshold>
      <weakClassifiers>
        <_>
          <internalNodes>
            0 -1 231 1.7317905439995229e-04</internalNodes>
          <leafValues>
            6.5727695822715759e-02 -7.9797977209091187e-01</leafValues></_>
        <_>
          <internalNodes>
            0 -1 206 -5.0393701530992985e-04</internalNodes>
          <leafValues>
            -9.3244951963424683e-01 7.8446917235851288e-02</leafValues></_>
        <_>
          <internalNodes>
            0 -1 134 -1.2866579709225334e-05</internalNodes>
          <leafValues>
            4.7794988751411438e-01 -2.1459648013114929e-01</leafValues></_>
        <_>
          <internalNodes>
            0 -1 165 1.2866579709225334e-05</internalNodes>
          <leafValues>
            -2.8593069314956665e-01 3.6917564272880554e-01</leafValues></_>
        <_>
          <internalNodes>
            0 -1 111 1.5260141808539629e-03</internalNodes>
          <leafValues>
            -2.4548742175102234e-01 3.9816823601722717e-01</leafValues></_>
        <_>
          <internalNodes>
            0 -1 40 9.9204797297716141e-03</internalNodes>
          <leafValues>
            -5.3898793458938599e-01 1.7587830126285553e-01</leafValues></_>
        <_>
          <internalNodes>
            0 -1 246 -5.0442060455679893e-03</internalNodes>
          <leafValues>
            -7.9281812906265259e-01 1.2120815366506577e-01</leafValues></_>
        <_>
          <internalNodes>
            0 -1 7 -6.4697011839598417e-04</internalNodes>
          <leafValues>
            -7.1369838714599609e-01 1.3832373917102814e-01</leafValues></_>
        <_>
          <internalNodes>
            0 -1 157 8.0119795165956020e-04</internalNodes>
          <leafValues>
            -2.2205686569213867e-01 6.2038618326187134e-01</leafValues></_>
        <_>
          <internalNodes>
            0 -1 198 1.3417330592346843e-05</internalNodes>
          <leafValues>
            -2.6402872800827026e-01 4.6535485982894897e-01</leafValues></_>
        <_>
          <internalNodes>
            0 -1 63 5.9657126665115356e-02</internalNodes>
          <leafValues>
            -3.2366508245468140e-01 4.0006113052368164e-01</leafValues></_>
        <_>
          <internalNodes>
            0 -1 143 -9.8435093605075963e-06</internalNodes>
          <leafValues>
            4.6648135781288147e-01 -2.7799001336097717e-01</leafValues></_>
        <_>
          <internalNodes>
            0 -1 48 2.6023852115031332e-05</internalNodes>
          <leafValues>
            -2.7112942934036255e-01 4.1783556342124939e-01</leafValues></_>
        <_>
          <internalNodes>
            0 -1 47 2.9542110496549867e-05</internalNodes>
          <leafValues>
            -2.4635021388530731e-01 4.5560392737388611e-01</leafValues></_>
        <_>
          <internalNodes>
            0 -1 142 4.2581330053508282e-03</internalNodes>
          <leafValues>
            -2.1670123934745789e-01 4.9451234936714172e-01</leafValues></_></weakClassifiers></_>
    <!-- stage 15 -->
    <_>
      <maxWeakCount>19</maxWeakCount>
      <stageThreshold>-7.4411505460739136e-01</stageThreshold>
      <weakClassifiers>
        <_>
          <internalNodes>
            0 -1 137 6.0188112547621131e-04</internalNodes>
          <leafValues>
            -2.7034121751785278e-01 3.6111110448837280e-01</leafValues></_>
        <_>
          <internalNodes>
            0 -1 193 -6.8638543598353863e-04</internalNodes>
          <leafValues>
            -7.6077985763549805e-01 1.1712621897459030e-01</leafValues></_>
        <_>
          <internalNodes>
            0 -1 88 -4.7298558056354523e-03</internalNodes>
          <leafValues>
            4.2320033907890320e-01 -2.0392450690269470e-01</leafValues></_>
        <_>
          <internalNodes>
            0 -1 126 -4.1740606538951397e-03</internalNodes>
          <leafValues>
            4.2925679683685303e-01 -2.6558846235275269e-01</leafValues></_>
        <_>
          <internalNodes>
            0 -1 187 3.5225276951678097e-04</internalNodes>
          <leafValues>
            1.6809935867786407e-01 -8.0524021387100220e-01</leafValues></_>
        <_>
          <internalNodes>
            0 -1 203 1.6996890190057456e-04</internalNodes>
          <leafValues>
            1.2558434903621674e-01 -6.2894284725189209e-01</leafValues></_>
        <_>
          <internalNodes>
            0 -1 131 -2.2925431840121746e-03</internalNodes>
          <leafValues>
            6.1271506547927856e-01 -1.6498868167400360e-01</leafValues></_>
        <_>
          <internalNodes>
            0 -1 204 -3.3145933412015438e-03</internalNodes>
          <leafValues>
            1.8877269327640533e-01 -4.4787788391113281e-01</leafValues></_>
        <_>
          <internalNodes>
            0 -1 199 6.0714344726875424e-05</internalNodes>
          <leafValues>
            -1.9404163956642151e-01 5.1255071163177490e-01</leafValues></_>
        <_>
          <internalNodes>
            0 -1 45 1.6170293092727661e-01</internalNodes>
          <leafValues>
            1.2797531485557556e-01 -7.4043625593185425e-01</leafValues></_>
        <_>
          <internalNodes>
            0 -1 98 -8.3942618221044540e-04</internalNodes>
          <leafValues>
            3.7994647026062012e-01 -2.6812690496444702e-01</leafValues></_>
        <_>
          <internalNodes>
            0 -1 64 3.2138050301000476e-04</internalNodes>
          <leafValues>
            -2.4580962955951691e-01 4.1926485300064087e-01</leafValues></_>
        <_>
          <internalNodes>
            0 -1 144 1.5674171663704328e-05</internalNodes>
          <leafValues>
            -3.2242015004158020e-01 3.2039001584053040e-01</leafValues></_>
        <_>
          <internalNodes>
            0 -1 179 7.3462456930428743e-04</internalNodes>
          <leafValues>
            1.3870017230510712e-01 -7.6392263174057007e-01</leafValues></_>
        <_>
          <internalNodes>
            0 -1 59 1.0930857062339783e-01</internalNodes>
          <leafValues>
            9.4786077737808228e-02 -8.4662216901779175e-01</leafValues></_>
        <_>
          <internalNodes>
            0 -1 37 7.3442809283733368e-02</internalNodes>
          <leafValues>
            -1.9022192060947418e-01 6.1946386098861694e-01</leafValues></_>
        <_>
          <internalNodes>
            0 -1 73 5.2766989916563034e-02</internalNodes>
          <leafValues>
            -2.6836797595024109e-01 4.1254302859306335e-01</leafValues></_>
        <_>
          <internalNodes>
            0 -1 140 -9.5747454906813800e-05</internalNodes>
          <leafValues>
            3.5577398538589478e-01 -3.6629840731620789e-01</leafValues></_>
        <_>
          <internalNodes>
            0 -1 146 1.8825421575456858e-03</internalNodes>
          <leafValues>
            -9.1095186769962311e-02 9.5566809177398682e-01</leafValues></_></weakClassifiers></_>
    <!-- stage 16 -->
    <_>
      <maxWeakCount>17</maxWeakCount>
      <stageThreshold>-5.0375294685363770e-01</stageThreshold>
      <weakClassifiers>
        <_>
          <internalNodes>
            0 -1 127 -6.8164090407663025e-06</internalNodes>
          <leafValues>
            2.1929824352264404e-01 -3.4006732702255249e-01</leafValues></_>
        <_>
          <internalNodes>
            0 -1 31 9.3395552539732307e-05</internalNodes>
          <leafValues>
            1.2512673437595367e-01 -6.4397752285003662e-01</leafValues></_>
        <_>
          <internalNodes>
            0 -1 172 6.0161179862916470e-04</internalNodes>
          <leafValues>
            5.7782405614852905e-01 -1.7214632034301758e-01</leafValues></_>
        <_>
          <internalNodes>
            0 -1 243 -5.7708099484443665e-03</internalNodes>
          <leafValues>
            -8.4137266874313354e-01 8.1833168864250183e-02</leafValues></_>
        <_>
          <internalNodes>
            0 -1 207 7.3516619158908725e-04</internalNodes>
          <leafValues>
            1.4678075909614563e-01 -6.4562529325485229e-01</leafValues></_>
        <_>
          <internalNodes>
            0 -1 77 -5.2213747985661030e-03</internalNodes>
          <leafValues>
            3.6337584257125854e-01 -2.7266395092010498e-01</leafValues></_>
        <_>
          <internalNodes>
            0 -1 228 -1.9478156900731847e-05</internalNodes>
          <leafValues>
            3.8737171888351440e-01 -2.5424146652221680e-01</leafValues></_>
        <_>
          <internalNodes>
            0 -1 23 5.5351313203573227e-03</internalNodes>
          <leafValues>
            -2.0545022189617157e-01 5.5616545677185059e-01</leafValues></_>
        <_>
          <internalNodes>
            0 -1 208 6.6996935856877826e-06</internalNodes>
          <leafValues>
            -1.7879182100296021e-01 5.5323535203933716e-01</leafValues></_>
        <_>
          <internalNodes>
            0 -1 102 4.6116375597193837e-04</internalNodes>
          <leafValues>
            -1.7005586624145508e-01 5.7519882917404175e-01</leafValues></_>
        <_>
          <internalNodes>
            0 -1 169 -1.0289852507412434e-03</internalNodes>
          <leafValues>
            -3.0486732721328735e-01 3.1753909587860107e-01</leafValues></_>
        <_>
          <internalNodes>
            0 -1 182 8.9766210294328630e-05</internalNodes>
          <leafValues>
            2.5265347957611084e-01 -3.9579501748085022e-01</leafValues></_>
        <_>
          <internalNodes>
            0 -1 83 -5.2704870700836182e-02</internalNodes>
          <leafValues>
            4.7406816482543945e-01 -2.8604727983474731e-01</leafValues></_>
        <_>
          <internalNodes>
            0 -1 91 4.8575893742963672e-04</internalNodes>
          <leafValues>
            -2.4609442055225372e-01 4.3015766143798828e-01</leafValues></_>
        <_>
          <internalNodes>
            0 -1 122 -1.4834203757345676e-03</internalNodes>
          <leafValues>
            -7.2016906738281250e-01 1.6012698411941528e-01</leafValues></_>
        <_>
          <internalNodes>
            0 -1 148 -4.0733329951763153e-03</internalNodes>
          <leafValues>
            -6.2832576036453247e-01 1.6436967253684998e-01</leafValues></_>
        <_>
          <internalNodes>
            0 -1 97 -6.9408324634423479e-06</internalNodes>
          <leafValues>
            3.8996452093124390e-01 -2.6266393065452576e-01</leafValues></_></weakClassifiers></_>
    <!-- stage 17 -->
    <_>
      <maxWeakCount>19</maxWeakCount>
      <stageThreshold>-6.4581388235092163e-01</stageThreshold>
      <weakClassifiers>
        <_>
          <internalNodes>
            0 -1 14 -8.4844324737787247e-03</internalNodes>
          <leafValues>
            -7.6699030399322510e-01 6.6350713372230530e-02</leafValues></_>
        <_>
          <internalNodes>
            0 -1 118 1.3034710660576820e-02</internalNodes>
          <leafValues>
            -3.4946128726005554e-01 3.0472019314765930e-01</leafValues></_>
        <_>
          <internalNodes>
            0 -1 92 -9.7927721217274666e-03</internalNodes>
          <leafValues>
            3.3855783939361572e-01 -2.7306112647056580e-01</leafValues></_>
        <_>
          <internalNodes>
            0 -1 108 8.0296816304326057e-03</internalNodes>
          <leafValues>
            -1.6114234924316406e-01 8.0014657974243164e-01</leafValues></_>
        <_>
          <internalNodes>
            0 -1 38 1.3814044650644064e-03</internalNodes>
          <leafValues>
            -2.9746356606483459e-01 3.2206484675407410e-01</leafValues></_>
        <_>
          <internalNodes>
            0 -1 176 -8.7771732360124588e-03</internalNodes>
          <leafValues>
            8.0674058198928833e-01 -1.2236279994249344e-01</leafValues></_>
        <_>
          <internalNodes>
            0 -1 231 -1.7179756832774729e-04</internalNodes>
          <leafValues>
            -4.1165101528167725e-01 2.3754626512527466e-01</leafValues></_>
        <_>
          <internalNodes>
            0 -1 235 -1.8624647054821253e-03</internalNodes>
          <leafValues>
            3.0418884754180908e-01 -3.5971212387084961e-01</leafValues></_>
        <_>
          <internalNodes>
            0 -1 93 -8.5784897208213806e-02</internalNodes>
          <leafValues>
            5.9642398357391357e-01 -1.6824652254581451e-01</leafValues></_>
        <_>
          <internalNodes>
            0 -1 128 4.1634280933067203e-04</internalNodes>
          <leafValues>
            -2.3143813014030457e-01 3.9698299765586853e-01</leafValues></_>
        <_>
          <internalNodes>
            0 -1 133 -1.5394711226690561e-04</internalNodes>
          <leafValues>
            3.6058768630027771e-01 -2.6807570457458496e-01</leafValues></_>
        <_>
          <internalNodes>
            0 -1 183 -4.1510208393447101e-04</internalNodes>
          <leafValues>
            4.5080757141113281e-01 -2.1925261616706848e-01</leafValues></_>
        <_>
          <internalNodes>
            0 -1 195 6.8794805556535721e-03</internalNodes>
          <leafValues>
            -3.5988593101501465e-01 2.7126824855804443e-01</leafValues></_>
        <_>
          <internalNodes>
            0 -1 141 2.3182388395071030e-03</internalNodes>
          <leafValues>
            -1.8532358109951019e-01 6.1425560712814331e-01</leafValues></_>
        <_>
          <internalNodes>
            0 -1 10 -6.7542996257543564e-03</internalNodes>
          <leafValues>
            -7.1041905879974365e-01 1.6282996535301208e-01</leafValues></_>
        <_>
          <internalNodes>
            0 -1 89 -4.4743239879608154e-02</internalNodes>
          <leafValues>
            -8.6092877388000488e-01 1.0428237169981003e-01</leafValues></_>
        <_>
          <internalNodes>
            0 -1 55 -3.2515334169147536e-05</internalNodes>
          <leafValues>
            3.6020970344543457e-01 -2.9424098134040833e-01</leafValues></_>
        <_>
          <internalNodes>
            0 -1 101 -2.7885535382665694e-04</internalNodes>
          <leafValues>
            4.7518473863601685e-01 -2.2812506556510925e-01</leafValues></_>
        <_>
          <internalNodes>
            0 -1 181 -2.5218704831786454e-04</internalNodes>
          <leafValues>
            4.3261715769767761e-01 -2.5739619135856628e-01</leafValues></_></weakClassifiers></_></stages>
  <features>
    <_>
      <rects>
        <_>
          0 0 2 1 -1.</_>
        <_>
          1 0 1 1 2.</_></rects>
      <tilted>0</tilted></_>
    <_>
      <rects>
        <_>
          0 0 3 1 -1.</_>
        <_>
          1 0 1 1 3.</_></rects>
      <tilted>0</tilted></_>
    <_>
      <rects>
        <_>
          0 0 1 4 -1.</_>
        <_>
          0 2 1 2 2.</_></rects>
      <tilted>0</tilted></_>
    <_>
      <rects>
        <_>
          0 0 3 2 -1.</_>
        <_>
          1 0 1 2 3.</_></rects>
      <tilted>0</tilted></_>
    <_>
      <rects>
        <_>
          0 0 2 3 -1.</_>
        <_>
          1 0 1 3 2.</_></rects>
      <tilted>0</tilted></_>
    <_>
      <rects>
        <_>
          0 0 1 16 -1.</_>
        <_>
          0 8 1 8 2.</_></rects>
      <tilted>0</tilted></_>
    <_>
      <rects>
        <_>
          0 0 1 18 -1.</_>
        <_>
          0 9 1 9 2.</_></rects>
      <tilted>0</tilted></_>
    <_>
      <rects>
        <_>
          0 0 3 4 -1.</_>
        <_>
          0 2 3 2 2.</_></rects>
      <tilted>0</tilted></_>
    <_>
      <rects>
        <_>
          0 0 14 16 -1.</_>
        <_>
          7 0 7 16 2.</_></rects>
      <tilted>0</tilted></_>
    <_>
      <rects>
        <_>
          0 0 21 25 -1.</_>
        <_>
          7 0 7 25 3.</_></rects>
      <tilted>0</tilted></_>
    <_>
      <rects>
        <_>
          0 0 33 1 -1.</_>
        <_>
          11 0 11 1 3.</_></rects>
      <tilted>0</tilted></_>
    <_>
      <rects>
        <_>
          0 0 48 2 -1.</_>
        <_>
          24 0 24 2 2.</_></rects>
      <tilted>0</tilted></_>
    <_>
      <rects>
        <_>
          0 0 46 4 -1.</_>
        <_>
          0 2 46 2 2.</_></rects>
      <tilted>0</tilted></_>
    <_>
      <rects>
        <_>
          0 1 1 3 -1.</_>
        <_>
          0 2 1 1 3.</_></rects>
      <tilted>0</tilted></_>
    <_>
      <rects>
        <_>
          0 1 1 26 -1.</_>
        <_>
          0 14 1 13 2.</_></rects>
      <tilted>0</tilted></_>
    <_>
      <rects>
        <_>
          0 1 4 1 -1.</_>
        <_>
          2 1 2 1 2.</_></rects>
      <tilted>0</tilted></_>
    <_>
      <rects>
        <_>
          0 1 2 26 -1.</_>
        <_>
          0 14 2 13 2.</_></rects>
      <tilted>0</tilted></_>
    <_>
      <rects>
        <_>
          0 1 6 16 -1.</_>
        <_>
          0 1 3 8 2.</_>
        <_>
          3 9 3 8 2.</_></rects>
      <tilted>0</tilted></_>
    <_>
      <rects>
        <_>
          0 3 1 24 -1.</_>
        <_>
          0 15 1 12 2.</_></rects>
      <tilted>0</tilted></_>
    <_>
      <rects>
        <_>
          0 3 2 18 -1.</_>
        <_>
          1 3 1 18 2.</_></rects>
      <tilted>0</tilted></_>
    <_>
      <rects>
        <_>
          0 3 24 4 -1.</_>
        <_>
          8 3 8 4 3.</_></rects>
      <tilted>0</tilted></_>
    <_>
      <rects>
        <_>
          0 4 4 17 -1.</_>
        <_>
          2 4 2 17 2.</_></rects>
      <tilted>0</tilted></_>
    <_>
      <rects>
        <_>
          0 8 9 14 -1.</_>
        <_>
          3 8 3 14 3.</_></rects>
      <tilted>0</tilted></_>
    <_>
      <rects>
        <_>
          0 8 9 6 -1.</_>
        <_>
          0 10 9 2 3.</_></rects>
      <tilted>0</tilted></_>
    <_>
      <rects>
        <_>
          0 9 12 5 -1.</_>
        <_>
          4 9 4 5 3.</_></rects>
      <tilted>0</tilted></_>
    <_>
      <rects>
        <_>
          0 9 15 5 -1.</_>
        <_>
          5 9 5 5 3.</_></rects>
      <tilted>0</tilted></_>
    <_>
      <rects>
        <_>
          0 10 48 8 -1.</_>
        <_>
          16 10 16 8 3.</_></rects>
      <tilted>0</tilted></_>
    <_>
      <rects>
        <_>
          0 11 2 16 -1.</_>
        <_>
          0 11 1 8 2.</_>
        <_>
          1 19 1 8 2.</_></rects>
      <tilted>0</tilted></_>
    <_>
      <rects>
        <_>
          0 13 2 12 -1.</_>
        <_>
          0 13 1 6 2.</_>
        <_>
          1 19 1 6 2.</_></rects>
      <tilted>0</tilted></_>
    <_>
      <rects>
        <_>
          0 16 12 2 -1.</_>
        <_>
          4 16 4 2 3.</_></rects>
      <tilted>0</tilted></_>
    <_>
      <rects>
        <_>
          0 21 12 1 -1.</_>
        <_>
          4 21 4 1 3.</_></rects>
      <tilted>0</tilted></_>
    <_>
      <rects>
        <_>
          0 24 1 2 -1.</_>
        <_>
          0 25 1 1 2.</_></rects>
      <tilted>0</tilted></_>
    <_>
      <rects>
        <_>
          0 24 3 3 -1.</_>
        <_>
          1 24 1 3 3.</_></rects>
      <tilted>0</tilted></_>
    <_>
      <rects>
        <_>
          0 25 1 2 -1.</_>
        <_>
          0 26 1 1 2.</_></rects>
      <tilted>0</tilted></_>
    <_>
      <rects>
        <_>
          0 25 2 2 -1.</_>
        <_>
          0 26 2 1 2.</_></rects>
      <tilted>0</tilted></_>
    <_>
      <rects>
        <_>
          0 26 18 1 -1.</_>
        <_>
          9 26 9 1 2.</_></rects>
      <tilted>0</tilted></_>
    <_>
      <rects>
        <_>
          1 0 46 27 -1.</_>
        <_>
          1 9 46 9 3.</_></rects>
      <tilted>0</tilted></_>
    <_>
      <rects>
        <_>
          1 5 24 13 -1.</_>
        <_>
          9 5 8 13 3.</_></rects>
      <tilted>0</tilted></_>
    <_>
      <rects>
        <_>
          1 7 2 16 -1.</_>
        <_>
          2 7 1 16 2.</_></rects>
      <tilted>0</tilted></_>
    <_>
      <rects>
        <_>
          1 14 14 10 -1.</_>
        <_>
          1 14 7 5 2.</_>
        <_>
          8 19 7 5 2.</_></rects>
      <tilted>0</tilted></_>
    <_>
      <rects>
        <_>
          1 15 28 11 -1.</_>
        <_>
          15 15 14 11 2.</_></rects>
      <tilted>0</tilted></_>
    <_>
      <rects>
        <_>
          1 17 36 1 -1.</_>
        <_>
          13 17 12 1 3.</_></rects>
      <tilted>0</tilted></_>
    <_>
      <rects>
        <_>
          1 20 6 6 -1.</_>
        <_>
          1 20 3 3 2.</_>
        <_>
          4 23 3 3 2.</_></rects>
      <tilted>0</tilted></_>
    <_>
      <rects>
        <_>
          2 0 3 1 -1.</_>
        <_>
          3 0 1 1 3.</_></rects>
      <tilted>0</tilted></_>
    <_>
      <rects>
        <_>
          2 0 46 1 -1.</_>
        <_>
          25 0 23 1 2.</_></rects>
      <tilted>0</tilted></_>
    <_>
      <rects>
        <_>
          2 3 24 17 -1.</_>
        <_>
          14 3 12 17 2.</_></rects>
      <tilted>0</tilted></_>
    <_>
      <rects>
        <_>
          2 9 1 9 -1.</_>
        <_>
          2 12 1 3 3.</_></rects>
      <tilted>0</tilted></_>
    <_>
      <rects>
        <_>
          2 12 2 2 -1.</_>
        <_>
          2 12 1 1 2.</_>
        <_>
          3 13 1 1 2.</_></rects>
      <tilted>0</tilted></_>
    <_>
      <rects>
        <_>
          2 14 2 2 -1.</_>
        <_>
          2 14 1 1 2.</_>
        <_>
          3 15 1 1 2.</_></rects>
      <tilted>0</tilted></_>
    <_>
      <rects>
        <_>
          2 14 2 12 -1.</_>
        <_>
          2 18 2 4 3.</_></rects>
      <tilted>0</tilted></_>
    <_>
      <rects>
        <_>
          2 20 8 2 -1.</_>
        <_>
          2 20 4 1 2.</_>
        <_>
          6 21 4 1 2.</_></rects>
      <tilted>0</tilted></_>
    <_>
      <rects>
        <_>
          2 25 3 1 -1.</_>
        <_>
          3 25 1 1 3.</_></rects>
      <tilted>0</tilted></_>
    <_>
      <rects>
        <_>
          3 0 3 2 -1.</_>
        <_>
          4 0 1 2 3.</_></rects>
      <tilted>0</tilted></_>
    <_>
      <rects>
        <_>
          3 0 4 14 -1.</_>
        <_>
          3 7 4 7 2.</_></rects>
      <tilted>0</tilted></_>
    <_>
      <rects>
        <_>
          3 0 34 24 -1.</_>
        <_>
          3 8 34 8 3.</_></rects>
      <tilted>0</tilted></_>
    <_>
      <rects>
        <_>
          4 3 4 2 -1.</_>
        <_>
          4 3 2 1 2.</_>
        <_>
          6 4 2 1 2.</_></rects>
      <tilted>0</tilted></_>
    <_>
      <rects>
        <_>
          4 21 42 6 -1.</_>
        <_>
          4 24 42 3 2.</_></rects>
      <tilted>0</tilted></_>
    <_>
      <rects>
        <_>
          4 23 31 4 -1.</_>
        <_>
          4 25 31 2 2.</_></rects>
      <tilted>0</tilted></_>
    <_>
      <rects>
        <_>
          5 0 38 4 -1.</_>
        <_>
          5 2 38 2 2.</_></rects>
      <tilted>0</tilted></_>
    <_>
      <rects>
        <_>
          5 6 19 15 -1.</_>
        <_>
          5 11 19 5 3.</_></rects>
      <tilted>0</tilted></_>
    <_>
      <rects>
        <_>
          5 18 26 4 -1.</_>
        <_>
          5 18 13 2 2.</_>
        <_>
          18 20 13 2 2.</_></rects>
      <tilted>0</tilted></_>
    <_>
      <rects>
        <_>
          5 23 5 4 -1.</_>
        <_>
          5 25 5 2 2.</_></rects>
      <tilted>0</tilted></_>
    <_>
      <rects>
        <_>
          5 26 3 1 -1.</_>
        <_>
          6 26 1 1 3.</_></rects>
      <tilted>0</tilted></_>
    <_>
      <rects>
        <_>
          6 6 17 18 -1.</_>
        <_>
          6 12 17 6 3.</_></rects>
      <tilted>0</tilted></_>
    <_>
      <rects>
        <_>
          6 7 10 2 -1.</_>
        <_>
          6 7 5 1 2.</_>
        <_>
          11 8 5 1 2.</_></rects>
      <tilted>0</tilted></_>
    <_>
      <rects>
        <_>
          6 9 4 8 -1.</_>
        <_>
          8 9 2 8 2.</_></rects>
      <tilted>0</tilted></_>
    <_>
      <rects>
        <_>
          6 12 3 13 -1.</_>
        <_>
          7 12 1 13 3.</_></rects>
      <tilted>0</tilted></_>
    <_>
      <rects>
        <_>
          7 0 37 8 -1.</_>
        <_>
          7 4 37 4 2.</_></rects>
      <tilted>0</tilted></_>
    <_>
      <rects>
        <_>
          7 2 26 3 -1.</_>
        <_>
          7 3 26 1 3.</_></rects>
      <tilted>0</tilted></_>
    <_>
      <rects>
        <_>
          7 6 12 10 -1.</_>
        <_>
          11 6 4 10 3.</_></rects>
      <tilted>0</tilted></_>
    <_>
      <rects>
        <_>
          8 0 5 12 -1.</_>
        <_>
          8 4 5 4 3.</_></rects>
      <tilted>0</tilted></_>
    <_>
      <rects>
        <_>
          8 5 18 1 -1.</_>
        <_>
          14 5 6 1 3.</_></rects>
      <tilted>0</tilted></_>
    <_>
      <rects>
        <_>
          8 8 3 3 -1.</_>
        <_>
          8 9 3 1 3.</_></rects>
      <tilted>0</tilted></_>
    <_>
      <rects>
        <_>
          8 8 22 19 -1.</_>
        <_>
          19 8 11 19 2.</_></rects>
      <tilted>0</tilted></_>
    <_>
      <rects>
        <_>
          8 26 3 1 -1.</_>
        <_>
          9 26 1 1 3.</_></rects>
      <tilted>0</tilted></_>
    <_>
      <rects>
        <_>
          9 0 13 3 -1.</_>
        <_>
          9 1 13 1 3.</_></rects>
      <tilted>0</tilted></_>
    <_>
      <rects>
        <_>
          9 0 28 24 -1.</_>
        <_>
          9 8 28 8 3.</_></rects>
      <tilted>0</tilted></_>
    <_>
      <rects>
        <_>
          9 1 36 1 -1.</_>
        <_>
          21 1 12 1 3.</_></rects>
      <tilted>0</tilted></_>
    <_>
      <rects>
        <_>
          9 7 2 2 -1.</_>
        <_>
          9 7 1 1 2.</_>
        <_>
          10 8 1 1 2.</_></rects>
      <tilted>0</tilted></_>
    <_>
      <rects>
        <_>
          9 10 30 1 -1.</_>
        <_>
          19 10 10 1 3.</_></rects>
      <tilted>0</tilted></_>
    <_>
      <rects>
        <_>
          9 23 36 4 -1.</_>
        <_>
          9 23 18 2 2.</_>
        <_>
          27 25 18 2 2.</_></rects>
      <tilted>0</tilted></_>
    <_>
      <rects>
        <_>
          9 25 31 2 -1.</_>
        <_>
          9 26 31 1 2.</_></rects>
      <tilted>0</tilted></_>
    <_>
      <rects>
        <_>
          10 0 6 9 -1.</_>
        <_>
          10 3 6 3 3.</_></rects>
      <tilted>0</tilted></_>
    <_>
      <rects>
        <_>
          10 4 17 18 -1.</_>
        <_>
          10 13 17 9 2.</_></rects>
      <tilted>0</tilted></_>
    <_>
      <rects>
        <_>
          10 16 14 10 -1.</_>
        <_>
          10 16 7 5 2.</_>
        <_>
          17 21 7 5 2.</_></rects>
      <tilted>0</tilted></_>
    <_>
      <rects>
        <_>
          10 18 9 9 -1.</_>
        <_>
          10 21 9 3 3.</_></rects>
      <tilted>0</tilted></_>
    <_>
      <rects>
        <_>
          10 25 3 1 -1.</_>
        <_>
          11 25 1 1 3.</_></rects>
      <tilted>0</tilted></_>
    <_>
      <rects>
        <_>
          10 25 38 2 -1.</_>
        <_>
          10 26 38 1 2.</_></rects>
      <tilted>0</tilted></_>
    <_>
      <rects>
        <_>
          11 0 24 2 -1.</_>
        <_>
          19 0 8 2 3.</_></rects>
      <tilted>0</tilted></_>
    <_>
      <rects>
        <_>
          11 10 21 15 -1.</_>
        <_>
          18 10 7 15 3.</_></rects>
      <tilted>0</tilted></_>
    <_>
      <rects>
        <_>
          11 20 2 1 -1.</_>
        <_>
          12 20 1 1 2.</_></rects>
      <tilted>0</tilted></_>
    <_>
      <rects>
        <_>
          12 0 26 2 -1.</_>
        <_>
          12 0 13 1 2.</_>
        <_>
          25 1 13 1 2.</_></rects>
      <tilted>0</tilted></_>
    <_>
      <rects>
        <_>
          12 0 34 3 -1.</_>
        <_>
          29 0 17 3 2.</_></rects>
      <tilted>0</tilted></_>
    <_>
      <rects>
        <_>
          12 1 24 24 -1.</_>
        <_>
          12 1 12 12 2.</_>
        <_>
          24 13 12 12 2.</_></rects>
      <tilted>0</tilted></_>
    <_>
      <rects>
        <_>
          12 5 3 22 -1.</_>
        <_>
          13 5 1 22 3.</_></rects>
      <tilted>0</tilted></_>
    <_>
      <rects>
        <_>
          12 8 2 1 -1.</_>
        <_>
          13 8 1 1 2.</_></rects>
      <tilted>0</tilted></_>
    <_>
      <rects>
        <_>
          12 11 12 2 -1.</_>
        <_>
          16 11 4 2 3.</_></rects>
      <tilted>0</tilted></_>
    <_>
      <rects>
        <_>
          12 13 2 3 -1.</_>
        <_>
          13 13 1 3 2.</_></rects>
      <tilted>0</tilted></_>
    <_>
      <rects>
        <_>
          12 16 10 4 -1.</_>
        <_>
          12 16 5 2 2.</_>
        <_>
          17 18 5 2 2.</_></rects>
      <tilted>0</tilted></_>
    <_>
      <rects>
        <_>
          12 17 10 6 -1.</_>
        <_>
          12 17 5 3 2.</_>
        <_>
          17 20 5 3 2.</_></rects>
      <tilted>0</tilted></_>
    <_>
      <rects>
        <_>
          12 21 18 1 -1.</_>
        <_>
          18 21 6 1 3.</_></rects>
      <tilted>0</tilted></_>
    <_>
      <rects>
        <_>
          12 23 6 2 -1.</_>
        <_>
          12 23 3 1 2.</_>
        <_>
          15 24 3 1 2.</_></rects>
      <tilted>0</tilted></_>
    <_>
      <rects>
        <_>
          12 24 2 3 -1.</_>
        <_>
          12 25 2 1 3.</_></rects>
      <tilted>0</tilted></_>
    <_>
      <rects>
        <_>
          13 0 3 9 -1.</_>
        <_>
          13 3 3 3 3.</_></rects>
      <tilted>0</tilted></_>
    <_>
      <rects>
        <_>
          13 0 19 6 -1.</_>
        <_>
          13 2 19 2 3.</_></rects>
      <tilted>0</tilted></_>
    <_>
      <rects>
        <_>
          13 0 27 2 -1.</_>
        <_>
          13 1 27 1 2.</_></rects>
      <tilted>0</tilted></_>
    <_>
      <rects>
        <_>
          13 0 28 4 -1.</_>
        <_>
          13 2 28 2 2.</_></rects>
      <tilted>0</tilted></_>
    <_>
      <rects>
        <_>
          13 0 31 2 -1.</_>
        <_>
          13 1 31 1 2.</_></rects>
      <tilted>0</tilted></_>
    <_>
      <rects>
        <_>
          13 5 12 3 -1.</_>
        <_>
          17 5 4 3 3.</_></rects>
      <tilted>0</tilted></_>
    <_>
      <rects>
        <_>
          13 11 3 4 -1.</_>
        <_>
          14 11 1 4 3.</_></rects>
      <tilted>0</tilted></_>
    <_>
      <rects>
        <_>
          13 14 1 2 -1.</_>
        <_>
          13 15 1 1 2.</_></rects>
      <tilted>0</tilted></_>
    <_>
      <rects>
        <_>
          13 18 2 9 -1.</_>
        <_>
          13 21 2 3 3.</_></rects>
      <tilted>0</tilted></_>
    <_>
      <rects>
        <_>
          13 18 11 3 -1.</_>
        <_>
          13 19 11 1 3.</_></rects>
      <tilted>0</tilted></_>
    <_>
      <rects>
        <_>
          13 22 2 4 -1.</_>
        <_>
          13 22 1 2 2.</_>
        <_>
          14 24 1 2 2.</_></rects>
      <tilted>0</tilted></_>
    <_>
      <rects>
        <_>
          14 0 7 4 -1.</_>
        <_>
          14 2 7 2 2.</_></rects>
      <tilted>0</tilted></_>
    <_>
      <rects>
        <_>
          14 0 14 3 -1.</_>
        <_>
          14 1 14 1 3.</_></rects>
      <tilted>0</tilted></_>
    <_>
      <rects>
        <_>
          14 1 3 9 -1.</_>
        <_>
          14 4 3 3 3.</_></rects>
      <tilted>0</tilted></_>
    <_>
      <rects>
        <_>
          14 4 14 20 -1.</_>
        <_>
          21 4 7 20 2.</_></rects>
      <tilted>0</tilted></_>
    <_>
      <rects>
        <_>
          14 7 8 12 -1.</_>
        <_>
          14 11 8 4 3.</_></rects>
      <tilted>0</tilted></_>
    <_>
      <rects>
        <_>
          14 8 2 1 -1.</_>
        <_>
          15 8 1 1 2.</_></rects>
      <tilted>0</tilted></_>
    <_>
      <rects>
        <_>
          14 9 31 12 -1.</_>
        <_>
          14 13 31 4 3.</_></rects>
      <tilted>0</tilted></_>
    <_>
      <rects>
        <_>
          14 11 21 6 -1.</_>
        <_>
          14 13 21 2 3.</_></rects>
      <tilted>0</tilted></_>
    <_>
      <rects>
        <_>
          14 16 18 3 -1.</_>
        <_>
          14 17 18 1 3.</_></rects>
      <tilted>0</tilted></_>
    <_>
      <rects>
        <_>
          15 6 8 15 -1.</_>
        <_>
          15 11 8 5 3.</_></rects>
      <tilted>0</tilted></_>
    <_>
      <rects>
        <_>
          15 13 2 14 -1.</_>
        <_>
          15 13 1 7 2.</_>
        <_>
          16 20 1 7 2.</_></rects>
      <tilted>0</tilted></_>
    <_>
      <rects>
        <_>
          15 22 27 1 -1.</_>
        <_>
          24 22 9 1 3.</_></rects>
      <tilted>0</tilted></_>
    <_>
      <rects>
        <_>
          15 25 18 2 -1.</_>
        <_>
          15 26 18 1 2.</_></rects>
      <tilted>0</tilted></_>
    <_>
      <rects>
        <_>
          16 2 2 1 -1.</_>
        <_>
          17 2 1 1 2.</_></rects>
      <tilted>0</tilted></_>
    <_>
      <rects>
        <_>
          16 2 3 2 -1.</_>
        <_>
          16 3 3 1 2.</_></rects>
      <tilted>0</tilted></_>
    <_>
      <rects>
        <_>
          16 25 24 2 -1.</_>
        <_>
          28 25 12 2 2.</_></rects>
      <tilted>0</tilted></_>
    <_>
      <rects>
        <_>
          17 2 12 6 -1.</_>
        <_>
          17 4 12 2 3.</_></rects>
      <tilted>0</tilted></_>
    <_>
      <rects>
        <_>
          17 3 31 3 -1.</_>
        <_>
          17 4 31 1 3.</_></rects>
      <tilted>0</tilted></_>
    <_>
      <rects>
        <_>
          17 7 3 15 -1.</_>
        <_>
          17 12 3 5 3.</_></rects>
      <tilted>0</tilted></_>
    <_>
      <rects>
        <_>
          17 12 8 2 -1.</_>
        <_>
          21 12 4 2 2.</_></rects>
      <tilted>0</tilted></_>
    <_>
      <rects>
        <_>
          17 16 2 1 -1.</_>
        <_>
          18 16 1 1 2.</_></rects>
      <tilted>0</tilted></_>
    <_>
      <rects>
        <_>
          17 21 5 6 -1.</_>
        <_>
          17 23 5 2 3.</_></rects>
      <tilted>0</tilted></_>
    <_>
      <rects>
        <_>
          17 21 17 6 -1.</_>
        <_>
          17 24 17 3 2.</_></rects>
      <tilted>0</tilted></_>
    <_>
      <rects>
        <_>
          18 0 3 3 -1.</_>
        <_>
          18 1 3 1 3.</_></rects>
      <tilted>0</tilted></_>
    <_>
      <rects>
        <_>
          18 9 24 14 -1.</_>
        <_>
          18 9 12 7 2.</_>
        <_>
          30 16 12 7 2.</_></rects>
      <tilted>0</tilted></_>
    <_>
      <rects>
        <_>
          18 23 15 3 -1.</_>
        <_>
          18 24 15 1 3.</_></rects>
      <tilted>0</tilted></_>
    <_>
      <rects>
        <_>
          18 26 6 1 -1.</_>
        <_>
          21 26 3 1 2.</_></rects>
      <tilted>0</tilted></_>
    <_>
      <rects>
        <_>
          19 0 22 3 -1.</_>
        <_>
          19 1 22 1 3.</_></rects>
      <tilted>0</tilted></_>
    <_>
      <rects>
        <_>
          19 9 15 2 -1.</_>
        <_>
          24 9 5 2 3.</_></rects>
      <tilted>0</tilted></_>
    <_>
      <rects>
        <_>
          19 10 1 4 -1.</_>
        <_>
          19 12 1 2 2.</_></rects>
      <tilted>0</tilted></_>
    <_>
      <rects>
        <_>
          19 17 1 3 -1.</_>
        <_>
          19 18 1 1 3.</_></rects>
      <tilted>0</tilted></_>
    <_>
      <rects>
        <_>
          19 21 4 6 -1.</_>
        <_>
          19 23 4 2 3.</_></rects>
      <tilted>0</tilted></_>
    <_>
      <rects>
        <_>
          19 24 3 3 -1.</_>
        <_>
          19 25 3 1 3.</_></rects>
      <tilted>0</tilted></_>
    <_>
      <rects>
        <_>
          19 24 12 3 -1.</_>
        <_>
          19 25 12 1 3.</_></rects>
      <tilted>0</tilted></_>
    <_>
      <rects>
        <_>
          20 7 9 20 -1.</_>
        <_>
          23 7 3 20 3.</_></rects>
      <tilted>0</tilted></_>
    <_>
      <rects>
        <_>
          20 10 3 6 -1.</_>
        <_>
          21 10 1 6 3.</_></rects>
      <tilted>0</tilted></_>
    <_>
      <rects>
        <_>
          20 12 6 3 -1.</_>
        <_>
          23 12 3 3 2.</_></rects>
      <tilted>0</tilted></_>
    <_>
      <rects>
        <_>
          20 12 10 2 -1.</_>
        <_>
          25 12 5 2 2.</_></rects>
      <tilted>0</tilted></_>
    <_>
      <rects>
        <_>
          20 18 18 2 -1.</_>
        <_>
          26 18 6 2 3.</_></rects>
      <tilted>0</tilted></_>
    <_>
      <rects>
        <_>
          21 1 2 3 -1.</_>
        <_>
          21 2 2 1 3.</_></rects>
      <tilted>0</tilted></_>
    <_>
      <rects>
        <_>
          21 8 14 17 -1.</_>
        <_>
          28 8 7 17 2.</_></rects>
      <tilted>0</tilted></_>
    <_>
      <rects>
        <_>
          21 14 4 2 -1.</_>
        <_>
          23 14 2 2 2.</_></rects>
      <tilted>0</tilted></_>
    <_>
      <rects>
        <_>
          21 25 6 2 -1.</_>
        <_>
          21 25 3 1 2.</_>
        <_>
          24 26 3 1 2.</_></rects>
      <tilted>0</tilted></_>
    <_>
      <rects>
        <_>
          22 0 3 3 -1.</_>
        <_>
          22 1 3 1 3.</_></rects>
      <tilted>0</tilted></_>
    <_>
      <rects>
        <_>
          22 0 8 9 -1.</_>
        <_>
          22 3 8 3 3.</_></rects>
      <tilted>0</tilted></_>
    <_>
      <rects>
        <_>
          22 4 16 15 -1.</_>
        <_>
          22 9 16 5 3.</_></rects>
      <tilted>0</tilted></_>
    <_>
      <rects>
        <_>
          22 8 16 12 -1.</_>
        <_>
          22 12 16 4 3.</_></rects>
      <tilted>0</tilted></_>
    <_>
      <rects>
        <_>
          23 5 18 8 -1.</_>
        <_>
          23 5 9 4 2.</_>
        <_>
          32 9 9 4 2.</_></rects>
      <tilted>0</tilted></_>
    <_>
      <rects>
        <_>
          23 15 2 1 -1.</_>
        <_>
          24 15 1 1 2.</_></rects>
      <tilted>0</tilted></_>
    <_>
      <rects>
        <_>
          24 18 3 9 -1.</_>
        <_>
          24 21 3 3 3.</_></rects>
      <tilted>0</tilted></_>
    <_>
      <rects>
        <_>
          25 11 9 14 -1.</_>
        <_>
          28 11 3 14 3.</_></rects>
      <tilted>0</tilted></_>
    <_>
      <rects>
        <_>
          25 14 2 2 -1.</_>
        <_>
          25 14 1 1 2.</_>
        <_>
          26 15 1 1 2.</_></rects>
      <tilted>0</tilted></_>
    <_>
      <rects>
        <_>
          25 18 7 9 -1.</_>
        <_>
          25 21 7 3 3.</_></rects>
      <tilted>0</tilted></_>
    <_>
      <rects>
        <_>
          26 4 8 2 -1.</_>
        <_>
          26 4 4 1 2.</_>
        <_>
          30 5 4 1 2.</_></rects>
      <tilted>0</tilted></_>
    <_>
      <rects>
        <_>
          26 13 2 2 -1.</_>
        <_>
          26 13 1 1 2.</_>
        <_>
          27 14 1 1 2.</_></rects>
      <tilted>0</tilted></_>
    <_>
      <rects>
        <_>
          26 15 17 4 -1.</_>
        <_>
          26 17 17 2 2.</_></rects>
      <tilted>0</tilted></_>
    <_>
      <rects>
        <_>
          27 0 5 3 -1.</_>
        <_>
          27 1 5 1 3.</_></rects>
      <tilted>0</tilted></_>
    <_>
      <rects>
        <_>
          27 2 3 3 -1.</_>
        <_>
          27 3 3 1 3.</_></rects>
      <tilted>0</tilted></_>
    <_>
      <rects>
        <_>
          27 4 1 21 -1.</_>
        <_>
          27 11 1 7 3.</_></rects>
      <tilted>0</tilted></_>
    <_>
      <rects>
        <_>
          27 7 3 15 -1.</_>
        <_>
          28 7 1 15 3.</_></rects>
      <tilted>0</tilted></_>
    <_>
      <rects>
        <_>
          27 19 18 8 -1.</_>
        <_>
          27 23 18 4 2.</_></rects>
      <tilted>0</tilted></_>
    <_>
      <rects>
        <_>
          28 6 8 6 -1.</_>
        <_>
          28 6 4 3 2.</_>
        <_>
          32 9 4 3 2.</_></rects>
      <tilted>0</tilted></_>
    <_>
      <rects>
        <_>
          28 10 12 3 -1.</_>
        <_>
          32 10 4 3 3.</_></rects>
      <tilted>0</tilted></_>
    <_>
      <rects>
        <_>
          28 15 8 2 -1.</_>
        <_>
          32 15 4 2 2.</_></rects>
      <tilted>0</tilted></_>
    <_>
      <rects>
        <_>
          28 18 10 9 -1.</_>
        <_>
          28 21 10 3 3.</_></rects>
      <tilted>0</tilted></_>
    <_>
      <rects>
        <_>
          29 0 3 11 -1.</_>
        <_>
          30 0 1 11 3.</_></rects>
      <tilted>0</tilted></_>
    <_>
      <rects>
        <_>
          29 1 2 8 -1.</_>
        <_>
          29 5 2 4 2.</_></rects>
      <tilted>0</tilted></_>
    <_>
      <rects>
        <_>
          29 15 8 4 -1.</_>
        <_>
          29 15 4 2 2.</_>
        <_>
          33 17 4 2 2.</_></rects>
      <tilted>0</tilted></_>
    <_>
      <rects>
        <_>
          30 14 2 11 -1.</_>
        <_>
          31 14 1 11 2.</_></rects>
      <tilted>0</tilted></_>
    <_>
      <rects>
        <_>
          30 21 6 6 -1.</_>
        <_>
          30 21 3 3 2.</_>
        <_>
          33 24 3 3 2.</_></rects>
      <tilted>0</tilted></_>
    <_>
      <rects>
        <_>
          31 11 3 3 -1.</_>
        <_>
          32 11 1 3 3.</_></rects>
      <tilted>0</tilted></_>
    <_>
      <rects>
        <_>
          31 16 2 2 -1.</_>
        <_>
          31 16 1 1 2.</_>
        <_>
          32 17 1 1 2.</_></rects>
      <tilted>0</tilted></_>
    <_>
      <rects>
        <_>
          31 21 6 6 -1.</_>
        <_>
          31 23 6 2 3.</_></rects>
      <tilted>0</tilted></_>
    <_>
      <rects>
        <_>
          31 24 3 3 -1.</_>
        <_>
          32 24 1 3 3.</_></rects>
      <tilted>0</tilted></_>
    <_>
      <rects>
        <_>
          32 0 16 20 -1.</_>
        <_>
          40 0 8 20 2.</_></rects>
      <tilted>0</tilted></_>
    <_>
      <rects>
        <_>
          32 12 16 6 -1.</_>
        <_>
          32 14 16 2 3.</_></rects>
      <tilted>0</tilted></_>
    <_>
      <rects>
        <_>
          32 24 8 3 -1.</_>
        <_>
          32 25 8 1 3.</_></rects>
      <tilted>0</tilted></_>
    <_>
      <rects>
        <_>
          33 7 15 4 -1.</_>
        <_>
          38 7 5 4 3.</_></rects>
      <tilted>0</tilted></_>
    <_>
      <rects>
        <_>
          33 18 15 3 -1.</_>
        <_>
          38 18 5 3 3.</_></rects>
      <tilted>0</tilted></_>
    <_>
      <rects>
        <_>
          34 2 14 2 -1.</_>
        <_>
          34 3 14 1 2.</_></rects>
      <tilted>0</tilted></_>
    <_>
      <rects>
        <_>
          34 4 14 22 -1.</_>
        <_>
          41 4 7 22 2.</_></rects>
      <tilted>0</tilted></_>
    <_>
      <rects>
        <_>
          34 9 7 15 -1.</_>
        <_>
          34 14 7 5 3.</_></rects>
      <tilted>0</tilted></_>
    <_>
      <rects>
        <_>
          34 15 14 7 -1.</_>
        <_>
          41 15 7 7 2.</_></rects>
      <tilted>0</tilted></_>
    <_>
      <rects>
        <_>
          34 18 1 2 -1.</_>
        <_>
          34 19 1 1 2.</_></rects>
      <tilted>0</tilted></_>
    <_>
      <rects>
        <_>
          34 21 2 1 -1.</_>
        <_>
          35 21 1 1 2.</_></rects>
      <tilted>0</tilted></_>
    <_>
      <rects>
        <_>
          34 22 4 2 -1.</_>
        <_>
          34 23 4 1 2.</_></rects>
      <tilted>0</tilted></_>
    <_>
      <rects>
        <_>
          35 10 3 3 -1.</_>
        <_>
          35 11 3 1 3.</_></rects>
      <tilted>0</tilted></_>
    <_>
      <rects>
        <_>
          36 0 3 1 -1.</_>
        <_>
          37 0 1 1 3.</_></rects>
      <tilted>0</tilted></_>
    <_>
      <rects>
        <_>
          36 0 3 6 -1.</_>
        <_>
          37 0 1 6 3.</_></rects>
      <tilted>0</tilted></_>
    <_>
      <rects>
        <_>
          36 5 3 2 -1.</_>
        <_>
          37 5 1 2 3.</_></rects>
      <tilted>0</tilted></_>
    <_>
      <rects>
        <_>
          36 16 12 3 -1.</_>
        <_>
          42 16 6 3 2.</_></rects>
      <tilted>0</tilted></_>
    <_>
      <rects>
        <_>
          37 0 3 1 -1.</_>
        <_>
          38 0 1 1 3.</_></rects>
      <tilted>0</tilted></_>
    <_>
      <rects>
        <_>
          37 0 3 5 -1.</_>
        <_>
          38 0 1 5 3.</_></rects>
      <tilted>0</tilted></_>
    <_>
      <rects>
        <_>
          37 7 2 14 -1.</_>
        <_>
          38 7 1 14 2.</_></rects>
      <tilted>0</tilted></_>
    <_>
      <rects>
        <_>
          37 25 1 2 -1.</_>
        <_>
          37 26 1 1 2.</_></rects>
      <tilted>0</tilted></_>
    <_>
      <rects>
        <_>
          38 0 6 2 -1.</_>
        <_>
          41 0 3 2 2.</_></rects>
      <tilted>0</tilted></_>
    <_>
      <rects>
        <_>
          38 5 10 21 -1.</_>
        <_>
          43 5 5 21 2.</_></rects>
      <tilted>0</tilted></_>
    <_>
      <rects>
        <_>
          38 8 3 19 -1.</_>
        <_>
          39 8 1 19 3.</_></rects>
      <tilted>0</tilted></_>
    <_>
      <rects>
        <_>
          38 8 10 10 -1.</_>
        <_>
          43 8 5 10 2.</_></rects>
      <tilted>0</tilted></_>
    <_>
      <rects>
        <_>
          38 21 3 4 -1.</_>
        <_>
          39 21 1 4 3.</_></rects>
      <tilted>0</tilted></_>
    <_>
      <rects>
        <_>
          39 10 2 1 -1.</_>
        <_>
          40 10 1 1 2.</_></rects>
      <tilted>0</tilted></_>
    <_>
      <rects>
        <_>
          40 0 3 2 -1.</_>
        <_>
          41 0 1 2 3.</_></rects>
      <tilted>0</tilted></_>
    <_>
      <rects>
        <_>
          40 4 8 18 -1.</_>
        <_>
          44 4 4 18 2.</_></rects>
      <tilted>0</tilted></_>
    <_>
      <rects>
        <_>
          40 14 8 10 -1.</_>
        <_>
          40 14 4 5 2.</_>
        <_>
          44 19 4 5 2.</_></rects>
      <tilted>0</tilted></_>
    <_>
      <rects>
        <_>
          41 0 3 1 -1.</_>
        <_>
          42 0 1 1 3.</_></rects>
      <tilted>0</tilted></_>
    <_>
      <rects>
        <_>
          41 12 6 2 -1.</_>
        <_>
          41 12 3 1 2.</_>
        <_>
          44 13 3 1 2.</_></rects>
      <tilted>0</tilted></_>
    <_>
      <rects>
        <_>
          41 26 3 1 -1.</_>
        <_>
          42 26 1 1 3.</_></rects>
      <tilted>0</tilted></_>
    <_>
      <rects>
        <_>
          42 0 2 1 -1.</_>
        <_>
          43 0 1 1 2.</_></rects>
      <tilted>0</tilted></_>
    <_>
      <rects>
        <_>
          42 0 3 1 -1.</_>
        <_>
          43 0 1 1 3.</_></rects>
      <tilted>0</tilted></_>
    <_>
      <rects>
        <_>
          42 1 6 20 -1.</_>
        <_>
          42 1 3 10 2.</_>
        <_>
          45 11 3 10 2.</_></rects>
      <tilted>0</tilted></_>
    <_>
      <rects>
        <_>
          42 10 2 12 -1.</_>
        <_>
          42 14 2 4 3.</_></rects>
      <tilted>0</tilted></_>
    <_>
      <rects>
        <_>
          42 14 4 2 -1.</_>
        <_>
          42 14 2 1 2.</_>
        <_>
          44 15 2 1 2.</_></rects>
      <tilted>0</tilted></_>
    <_>
      <rects>
        <_>
          43 18 4 2 -1.</_>
        <_>
          43 18 2 1 2.</_>
        <_>
          45 19 2 1 2.</_></rects>
      <tilted>0</tilted></_>
    <_>
      <rects>
        <_>
          44 0 3 1 -1.</_>
        <_>
          45 0 1 1 3.</_></rects>
      <tilted>0</tilted></_>
    <_>
      <rects>
        <_>
          44 0 3 2 -1.</_>
        <_>
          44 1 3 1 2.</_></rects>
      <tilted>0</tilted></_>
    <_>
      <rects>
        <_>
          44 5 4 22 -1.</_>
        <_>
          46 5 2 22 2.</_></rects>
      <tilted>0</tilted></_>
    <_>
      <rects>
        <_>
          44 11 2 1 -1.</_>
        <_>
          45 11 1 1 2.</_></rects>
      <tilted>0</tilted></_>
    <_>
      <rects>
        <_>
          44 26 4 1 -1.</_>
        <_>
          46 26 2 1 2.</_></rects>
      <tilted>0</tilted></_>
    <_>
      <rects>
        <_>
          45 0 3 4 -1.</_>
        <_>
          46 0 1 4 3.</_></rects>
      <tilted>0</tilted></_>
    <_>
      <rects>
        <_>
          45 6 3 21 -1.</_>
        <_>
          46 6 1 21 3.</_></rects>
      <tilted>0</tilted></_>
    <_>
      <rects>
        <_>
          46 0 2 1 -1.</_>
        <_>
          47 0 1 1 2.</_></rects>
      <tilted>0</tilted></_>
    <_>
      <rects>
        <_>
          46 0 2 26 -1.</_>
        <_>
          47 0 1 26 2.</_></rects>
      <tilted>0</tilted></_>
    <_>
      <rects>
        <_>
          46 0 2 12 -1.</_>
        <_>
          46 6 2 6 2.</_></rects>
      <tilted>0</tilted></_>
    <_>
      <rects>
        <_>
          46 2 2 22 -1.</_>
        <_>
          46 2 1 11 2.</_>
        <_>
          47 13 1 11 2.</_></rects>
      <tilted>0</tilted></_>
    <_>
      <rects>
        <_>
          46 6 2 20 -1.</_>
        <_>
          47 6 1 20 2.</_></rects>
      <tilted>0</tilted></_>
    <_>
      <rects>
        <_>
          46 7 2 14 -1.</_>
        <_>
          47 7 1 14 2.</_></rects>
      <tilted>0</tilted></_>
    <_>
      <rects>
        <_>
          46 14 2 2 -1.</_>
        <_>
          46 14 1 1 2.</_>
        <_>
          47 15 1 1 2.</_></rects>
      <tilted>0</tilted></_>
    <_>
      <rects>
        <_>
          47 0 1 6 -1.</_>
        <_>
          47 2 1 2 3.</_></rects>
      <tilted>0</tilted></_>
    <_>
      <rects>
        <_>
          47 0 1 26 -1.</_>
        <_>
          47 13 1 13 2.</_></rects>
      <tilted>0</tilted></_>
    <_>
      <rects>
        <_>
          47 2 1 18 -1.</_>
        <_>
          47 8 1 6 3.</_></rects>
      <tilted>0</tilted></_>
    <_>
      <rects>
        <_>
          47 3 1 24 -1.</_>
        <_>
          47 15 1 12 2.</_></rects>
      <tilted>0</tilted></_>
    <_>
      <rects>
        <_>
          47 7 1 20 -1.</_>
        <_>
          47 17 1 10 2.</_></rects>
      <tilted>0</tilted></_>
    <_>
      <rects>
        <_>
          47 9 1 15 -1.</_>
        <_>
          47 14 1 5 3.</_></rects>
      <tilted>0</tilted></_></features></cascade>
</opencv_storage>
