<?xml version="1.0"?>
<opencv_storage>
<cascade>
  <stageType>BOOST</stageType>
  <featureType>HAAR</featureType>
  <height>27</height>
  <width>48</width>
  <stageParams>
    <boostType>GAB</boostType>
    <minHitRate>9.9900001287460327e-01</minHitRate>
    <maxFalseAlarm>2.5000000000000000e-01</maxFalseAlarm>
    <weightTrimRate>9.4999999999999996e-01</weightTrimRate>
    <maxDepth>1</maxDepth>
    <maxWeakCount>100</maxWeakCount></stageParams>
  <featureParams>
    <maxCatCount>0</maxCatCount>
    <featSize>1</featSize>
    <mode>BASIC</mode></featureParams>
  <stageNum>18</stageNum>
  <stages>
    <!-- stage 0 -->
    <_>
      <maxWeakCount>5</maxWeakCount>
      <stageThreshold>-1.1286226511001587e+00</stageThreshold>
      <weakClassifiers>
        <_>
          <internalNodes>
            0 -1 101 -1.5657567977905273e-01</internalNodes>
          <leafValues>
            7.7777779102325439e-01 -6.6754615306854248e-01</leafValues></_>
        <_>
          <internalNodes>
            0 -1 9 -1.8135331571102142e-02</internalNodes>
          <leafValues>
            7.2464662790298462e-01 -5.2714174985885620e-01</leafValues></_>
        <_>
          <internalNodes>
            0 -1 58 5.1483521237969398e-03</internalNodes>
          <leafValues>
            -5.1299172639846802e-01 6.1371445655822754e-01</leafValues></_>
        <_>
          <internalNodes>
            0 -1 219 1.1698684655129910e-02</internalNodes>
          <leafValues>
            -3.5675147175788879e-01 7.7843773365020752e-01</leafValues></_>
        <_>
          <internalNodes>
            0 -1 106 -2.6809036731719971e-02</internalNodes>
          <leafValues>
            7.5750648975372314e-01 -3.1597986817359924e-01</leafValues></_></weakClassifiers></_>
    <!-- stage 1 -->
    <_>
      <maxWeakCount>11</maxWeakCount>
      <stageThreshold>-9.2875593900680542e-01</stageThreshold>
      <weakClassifiers>
        <_>
          <internalNodes>
            0 -1 46 -2.0130929350852966e-01</internalNodes>
          <leafValues>
            6.7938929796218872e-01 -5.5610972642898560e-01</leafValues></_>
        <_>
          <internalNodes>
            0 -1 105 -6.1683602631092072e-02</internalNodes>
          <leafValues>
            5.2974498271942139e-01 -3.7724348902702332e-01</leafValues></_>
        <_>
          <internalNodes>
            0 -1 268 -1.3738640700466931e-04</internalNodes>
          <leafValues>
            -9.4227576255798340e-01 2.0076940953731537e-01</leafValues></_>
        <_>
          <internalNodes>
            0 -1 268 2.1196775196585804e-04</internalNodes>
          <leafValues>
            2.7842873334884644e-01 -7.3961943387985229e-01</leafValues></_>
        <_>
          <internalNodes>
            0 -1 155 -9.9650993943214417e-03</internalNodes>
          <leafValues>
            6.4897799491882324e-01 -4.1085794568061829e-01</leafValues></_>
        <_>
          <internalNodes>
            0 -1 119 -4.1568852029740810e-03</internalNodes>
          <leafValues>
            6.6300147771835327e-01 -2.3823039233684540e-01</leafValues></_>
        <_>
          <internalNodes>
            0 -1 68 -3.6101281642913818e-02</internalNodes>
          <leafValues>
            9.3556445837020874e-01 -1.8772292137145996e-01</leafValues></_>
        <_>
          <internalNodes>
            0 -1 218 -2.0995754748582840e-02</internalNodes>
          <leafValues>
            5.8599340915679932e-01 -3.4528630971908569e-01</leafValues></_>
        <_>
          <internalNodes>
            0 -1 45 -1.2608851830009371e-04</internalNodes>
          <leafValues>
            -8.1391394138336182e-01 2.4459382891654968e-01</leafValues></_>
        <_>
          <internalNodes>
            0 -1 223 4.1314703412353992e-03</internalNodes>
          <leafValues>
            -2.7195003628730774e-01 8.2676768302917480e-01</leafValues></_>
        <_>
          <internalNodes>
            0 -1 93 2.0557178650051355e-03</internalNodes>
          <leafValues>
            -2.4228380620479584e-01 7.3485285043716431e-01</leafValues></_></weakClassifiers></_>
    <!-- stage 2 -->
    <_>
      <maxWeakCount>10</maxWeakCount>
      <stageThreshold>-6.2857347726821899e-01</stageThreshold>
      <weakClassifiers>
        <_>
          <internalNodes>
            0 -1 71 9.0353801846504211e-02</internalNodes>
          <leafValues>
            -5.7507079839706421e-01 3.8547486066818237e-01</leafValues></_>
        <_>
          <internalNodes>
            0 -1 3 -3.8434416055679321e-02</internalNodes>
          <leafValues>
            7.9302722215652466e-01 -2.6001805067062378e-01</leafValues></_>
        <_>
          <internalNodes>
            0 -1 256 1.6335607506334782e-04</internalNodes>
          <leafValues>
            2.3615245521068573e-01 -8.0611282587051392e-01</leafValues></_>
        <_>
          <internalNodes>
            0 -1 40 -5.1904341671615839e-04</internalNodes>
          <leafValues>
            -8.0534076690673828e-01 1.9653473794460297e-01</leafValues></_>
        <_>
          <internalNodes>
            0 -1 235 1.8420819193124771e-02</internalNodes>
          <leafValues>
            -2.4530111253261566e-01 8.6668902635574341e-01</leafValues></_>
        <_>
          <internalNodes>
            0 -1 246 -1.9418619573116302e-02</internalNodes>
          <leafValues>
            8.4893578290939331e-01 -1.5673026442527771e-01</leafValues></_>
        <_>
          <internalNodes>
            0 -1 129 -2.9735270887613297e-02</internalNodes>
          <leafValues>
            4.5674020051956177e-01 -3.9530938863754272e-01</leafValues></_>
        <_>
          <internalNodes>
            0 -1 91 1.0716805234551430e-02</internalNodes>
          <leafValues>
            -2.6522222161293030e-01 6.3859879970550537e-01</leafValues></_>
        <_>
          <internalNodes>
            0 -1 183 -1.4336584135890007e-02</internalNodes>
          <leafValues>
            7.7978479862213135e-01 -2.7334216237068176e-01</leafValues></_>
        <_>
          <internalNodes>
            0 -1 165 -2.3113450151868165e-04</internalNodes>
          <leafValues>
            -7.3446214199066162e-01 2.5768378376960754e-01</leafValues></_></weakClassifiers></_>
    <!-- stage 3 -->
    <_>
      <maxWeakCount>12</maxWeakCount>
      <stageThreshold>-7.1019643545150757e-01</stageThreshold>
      <weakClassifiers>
        <_>
          <internalNodes>
            0 -1 145 4.1031669825315475e-03</internalNodes>
          <leafValues>
            -4.6341463923454285e-01 4.5901638269424438e-01</leafValues></_>
        <_>
          <internalNodes>
            0 -1 10 -2.9883878305554390e-02</internalNodes>
          <leafValues>
            4.0973636507987976e-01 -3.8911595940589905e-01</leafValues></_>
        <_>
          <internalNodes>
            0 -1 73 -4.3507568538188934e-02</internalNodes>
          <leafValues>
            6.0079276561737061e-01 -3.0435523390769958e-01</leafValues></_>
        <_>
          <internalNodes>
            0 -1 166 5.5016542319208384e-04</internalNodes>
          <leafValues>
            2.5532111525535583e-01 -8.2026612758636475e-01</leafValues></_>
        <_>
          <internalNodes>
            0 -1 265 -4.1984049603343010e-03</internalNodes>
          <leafValues>
            6.1703002452850342e-01 -2.8502625226974487e-01</leafValues></_>
        <_>
          <internalNodes>
            0 -1 33 -1.7902821302413940e-02</internalNodes>
          <leafValues>
            5.7049328088760376e-01 -3.1014183163642883e-01</leafValues></_>
        <_>
          <internalNodes>
            0 -1 271 -9.1008325398433954e-05</internalNodes>
          <leafValues>
            -5.3573018312454224e-01 2.8183487057685852e-01</leafValues></_>
        <_>
          <internalNodes>
            0 -1 146 -3.2575521618127823e-02</internalNodes>
          <leafValues>
            5.6092721223831177e-01 -2.8841155767440796e-01</leafValues></_>
        <_>
          <internalNodes>
            0 -1 115 -1.1735766194760799e-02</internalNodes>
          <leafValues>
            6.7472404241561890e-01 -2.0901033282279968e-01</leafValues></_>
        <_>
          <internalNodes>
            0 -1 112 4.2679747566580772e-03</internalNodes>
          <leafValues>
            -4.1366934776306152e-01 3.9874094724655151e-01</leafValues></_>
        <_>
          <internalNodes>
            0 -1 257 -1.4956090599298477e-03</internalNodes>
          <leafValues>
            5.1263719797134399e-01 -3.2354995608329773e-01</leafValues></_>
        <_>
          <internalNodes>
            0 -1 239 -1.1185002222191542e-04</internalNodes>
          <leafValues>
            -6.0311156511306763e-01 2.5170814990997314e-01</leafValues></_></weakClassifiers></_>
    <!-- stage 4 -->
    <_>
      <maxWeakCount>14</maxWeakCount>
      <stageThreshold>-1.1270701885223389e+00</stageThreshold>
      <weakClassifiers>
        <_>
          <internalNodes>
            0 -1 70 1.8936261534690857e-02</internalNodes>
          <leafValues>
            -6.7003369331359863e-01 2.7659574151039124e-01</leafValues></_>
        <_>
          <internalNodes>
            0 -1 192 -3.2431151717901230e-02</internalNodes>
          <leafValues>
            5.1121145486831665e-01 -3.5732552409172058e-01</leafValues></_>
        <_>
          <internalNodes>
            0 -1 22 -3.7945933640003204e-02</internalNodes>
          <leafValues>
            9.7458767890930176e-01 -1.4967364072799683e-01</leafValues></_>
        <_>
          <internalNodes>
            0 -1 56 -3.1310670077800751e-02</internalNodes>
          <leafValues>
            8.2805103063583374e-01 -1.3422106206417084e-01</leafValues></_>
        <_>
          <internalNodes>
            0 -1 233 -1.1504253372550011e-02</internalNodes>
          <leafValues>
            6.9581997394561768e-01 -1.8814304471015930e-01</leafValues></_>
        <_>
          <internalNodes>
            0 -1 82 1.0692694922909141e-04</internalNodes>
          <leafValues>
            2.7226832509040833e-01 -6.3000154495239258e-01</leafValues></_>
        <_>
          <internalNodes>
            0 -1 107 -3.7183176726102829e-02</internalNodes>
          <leafValues>
            7.4110347032546997e-01 -2.0350253582000732e-01</leafValues></_>
        <_>
          <internalNodes>
            0 -1 92 -8.6946785449981689e-03</internalNodes>
          <leafValues>
            8.2150095701217651e-01 -1.6629567742347717e-01</leafValues></_>
        <_>
          <internalNodes>
            0 -1 96 2.1156719885766506e-03</internalNodes>
          <leafValues>
            -1.7982487380504608e-01 7.2619158029556274e-01</leafValues></_>
        <_>
          <internalNodes>
            0 -1 160 2.3861718364059925e-04</internalNodes>
          <leafValues>
            2.9701697826385498e-01 -5.3621393442153931e-01</leafValues></_>
        <_>
          <internalNodes>
            0 -1 253 3.0727274715900421e-03</internalNodes>
          <leafValues>
            -4.5244976878166199e-01 3.8545948266983032e-01</leafValues></_>
        <_>
          <internalNodes>
            0 -1 59 -7.0808697491884232e-03</internalNodes>
          <leafValues>
            7.3251646757125854e-01 -2.0617982745170593e-01</leafValues></_>
        <_>
          <internalNodes>
            0 -1 94 -4.5216087251901627e-02</internalNodes>
          <leafValues>
            8.7825053930282593e-01 -1.6573466360569000e-01</leafValues></_>
        <_>
          <internalNodes>
            0 -1 171 2.7429754845798016e-04</internalNodes>
          <leafValues>
            2.4605135619640350e-01 -7.4773168563842773e-01</leafValues></_></weakClassifiers></_>
    <!-- stage 5 -->
    <_>
      <maxWeakCount>11</maxWeakCount>
      <stageThreshold>-1.0228170156478882e+00</stageThreshold>
      <weakClassifiers>
        <_>
          <internalNodes>
            0 -1 81 1.1116648092865944e-02</internalNodes>
          <leafValues>
            -4.2660549283027649e-01 5.4166668653488159e-01</leafValues></_>
        <_>
          <internalNodes>
            0 -1 243 1.7158661037683487e-02</internalNodes>
          <leafValues>
            -1.5721139311790466e-01 8.9929771423339844e-01</leafValues></_>
        <_>
          <internalNodes>
            0 -1 130 5.4172761738300323e-03</internalNodes>
          <leafValues>
            -1.7900098860263824e-01 6.8325650691986084e-01</leafValues></_>
        <_>
          <internalNodes>
            0 -1 157 -5.1166121847927570e-03</internalNodes>
          <leafValues>
            6.0016107559204102e-01 -2.3490810394287109e-01</leafValues></_>
        <_>
          <internalNodes>
            0 -1 111 1.2068396434187889e-02</internalNodes>
          <leafValues>
            -1.2049723416566849e-01 7.8385955095291138e-01</leafValues></_>
        <_>
          <internalNodes>
            0 -1 264 -2.5775324320420623e-04</internalNodes>
          <leafValues>
            -7.6667433977127075e-01 1.8670415878295898e-01</leafValues></_>
        <_>
          <internalNodes>
            0 -1 214 -8.7973382323980331e-03</internalNodes>
          <leafValues>
            5.6704556941986084e-01 -2.6081073284149170e-01</leafValues></_>
        <_>
          <internalNodes>
            0 -1 168 3.3501321449875832e-03</internalNodes>
          <leafValues>
            -2.8973117470741272e-01 4.7154402732849121e-01</leafValues></_>
        <_>
          <internalNodes>
            0 -1 109 -9.6239542472176254e-05</internalNodes>
          <leafValues>
            -2.7809008955955505e-01 4.3236860632896423e-01</leafValues></_>
        <_>
          <internalNodes>
            0 -1 8 1.7106605228036642e-03</internalNodes>
          <leafValues>
            -2.7265861630439758e-01 4.7971600294113159e-01</leafValues></_>
        <_>
          <internalNodes>
            0 -1 180 2.5814873515628278e-04</internalNodes>
          <leafValues>
            1.7492349445819855e-01 -7.4175560474395752e-01</leafValues></_></weakClassifiers></_>
    <!-- stage 6 -->
    <_>
      <maxWeakCount>14</maxWeakCount>
      <stageThreshold>-8.2934236526489258e-01</stageThreshold>
      <weakClassifiers>
        <_>
          <internalNodes>
            0 -1 39 -1.9997887313365936e-02</internalNodes>
          <leafValues>
            7.6666665077209473e-01 -3.8135594129562378e-01</leafValues></_>
        <_>
          <internalNodes>
            0 -1 261 -2.1362733968999237e-04</internalNodes>
          <leafValues>
            -6.4946871995925903e-01 2.0960980653762817e-01</leafValues></_>
        <_>
          <internalNodes>
            0 -1 179 2.8944183140993118e-03</internalNodes>
          <leafValues>
            -2.4056884646415710e-01 5.0112581253051758e-01</leafValues></_>
        <_>
          <internalNodes>
            0 -1 32 9.9487500265240669e-03</internalNodes>
          <leafValues>
            -2.0002664625644684e-01 6.2768238782882690e-01</leafValues></_>
        <_>
          <internalNodes>
            0 -1 274 -2.9191601788625121e-04</internalNodes>
          <leafValues>
            -7.2097361087799072e-01 2.0318736135959625e-01</leafValues></_>
        <_>
          <internalNodes>
            0 -1 161 3.6189546808600426e-03</internalNodes>
          <leafValues>
            -2.9145294427871704e-01 4.1456958651542664e-01</leafValues></_>
        <_>
          <internalNodes>
            0 -1 266 -1.5992143016774207e-04</internalNodes>
          <leafValues>
            -7.0402193069458008e-01 2.0845541357994080e-01</leafValues></_>
        <_>
          <internalNodes>
            0 -1 4 -2.0532370544970036e-03</internalNodes>
          <leafValues>
            5.1339596509933472e-01 -2.6427653431892395e-01</leafValues></_>
        <_>
          <internalNodes>
            0 -1 137 -5.2821571007370949e-03</internalNodes>
          <leafValues>
            8.4485179185867310e-01 -1.5753170847892761e-01</leafValues></_>
        <_>
          <internalNodes>
            0 -1 227 -1.8247684463858604e-02</internalNodes>
          <leafValues>
            8.5322368144989014e-01 -1.1129366606473923e-01</leafValues></_>
        <_>
          <internalNodes>
            0 -1 195 -1.2364549911580980e-04</internalNodes>
          <leafValues>
            -6.4836448431015015e-01 2.1735081076622009e-01</leafValues></_>
        <_>
          <internalNodes>
            0 -1 88 -6.7488756030797958e-03</internalNodes>
          <leafValues>
            7.0020079612731934e-01 -2.3144434392452240e-01</leafValues></_>
        <_>
          <internalNodes>
            0 -1 190 -3.8034078897908330e-04</internalNodes>
          <leafValues>
            3.8789716362953186e-01 -3.1071329116821289e-01</leafValues></_>
        <_>
          <internalNodes>
            0 -1 126 -1.5641298145055771e-02</internalNodes>
          <leafValues>
            7.1419346332550049e-01 -1.7789225280284882e-01</leafValues></_></weakClassifiers></_>
    <!-- stage 7 -->
    <_>
      <maxWeakCount>12</maxWeakCount>
      <stageThreshold>-7.9369777441024780e-01</stageThreshold>
      <weakClassifiers>
        <_>
          <internalNodes>
            0 -1 53 -1.5717871487140656e-02</internalNodes>
          <leafValues>
            2.6086956262588501e-01 -5.2298849821090698e-01</leafValues></_>
        <_>
          <internalNodes>
            0 -1 11 3.2143355347216129e-03</internalNodes>
          <leafValues>
            -3.4654721617698669e-01 4.0288174152374268e-01</leafValues></_>
        <_>
          <internalNodes>
            0 -1 225 -2.0160540938377380e-02</internalNodes>
          <leafValues>
            7.5668948888778687e-01 -1.8048073351383209e-01</leafValues></_>
        <_>
          <internalNodes>
            0 -1 24 6.8129636347293854e-03</internalNodes>
          <leafValues>
            -1.9833515584468842e-01 5.4591929912567139e-01</leafValues></_>
        <_>
          <internalNodes>
            0 -1 154 -2.9073882848024368e-02</internalNodes>
          <leafValues>
            3.8779550790786743e-01 -3.0540212988853455e-01</leafValues></_>
        <_>
          <internalNodes>
            0 -1 212 1.2852047802880406e-05</internalNodes>
          <leafValues>
            -3.4617328643798828e-01 3.4926590323448181e-01</leafValues></_>
        <_>
          <internalNodes>
            0 -1 164 -3.3425364643335342e-02</internalNodes>
          <leafValues>
            9.1261124610900879e-01 -9.4193078577518463e-02</leafValues></_>
        <_>
          <internalNodes>
            0 -1 125 -2.1326186135411263e-02</internalNodes>
          <leafValues>
            5.7466495037078857e-01 -1.7905314266681671e-01</leafValues></_>
        <_>
          <internalNodes>
            0 -1 229 -6.2469718977808952e-04</internalNodes>
          <leafValues>
            4.9315369129180908e-01 -2.7317136526107788e-01</leafValues></_>
        <_>
          <internalNodes>
            0 -1 31 -1.8954064580611885e-04</internalNodes>
          <leafValues>
            -6.5933442115783691e-01 2.2395326197147369e-01</leafValues></_>
        <_>
          <internalNodes>
            0 -1 65 -7.5832549482584000e-03</internalNodes>
          <leafValues>
            4.8693063855171204e-01 -2.6634904742240906e-01</leafValues></_>
        <_>
          <internalNodes>
            0 -1 221 -9.3024347734171897e-05</internalNodes>
          <leafValues>
            -5.3809279203414917e-01 2.4588541686534882e-01</leafValues></_></weakClassifiers></_>
    <!-- stage 8 -->
    <_>
      <maxWeakCount>15</maxWeakCount>
      <stageThreshold>-8.2672977447509766e-01</stageThreshold>
      <weakClassifiers>
        <_>
          <internalNodes>
            0 -1 47 1.2835726141929626e-01</internalNodes>
          <leafValues>
            -5.6610167026519775e-01 1.3924050331115723e-01</leafValues></_>
        <_>
          <internalNodes>
            0 -1 12 -7.8463427722454071e-02</internalNodes>
          <leafValues>
            3.0817595124244690e-01 -3.5207846760749817e-01</leafValues></_>
        <_>
          <internalNodes>
            0 -1 209 2.3899227380752563e-03</internalNodes>
          <leafValues>
            -2.9628363251686096e-01 3.9105874300003052e-01</leafValues></_>
        <_>
          <internalNodes>
            0 -1 201 -4.5200265012681484e-03</internalNodes>
          <leafValues>
            2.3694616556167603e-01 -5.0617349147796631e-01</leafValues></_>
        <_>
          <internalNodes>
            0 -1 60 -3.5059267282485962e-01</internalNodes>
          <leafValues>
            -1. 1.0746929049491882e-01</leafValues></_>
        <_>
          <internalNodes>
            0 -1 148 -7.5952103361487389e-04</internalNodes>
          <leafValues>
            4.3959522247314453e-01 -2.6767599582672119e-01</leafValues></_>
        <_>
          <internalNodes>
            0 -1 86 8.1241931766271591e-03</internalNodes>
          <leafValues>
            2.1001441776752472e-01 -5.5758535861968994e-01</leafValues></_>
        <_>
          <internalNodes>
            0 -1 269 -3.7475756835192442e-04</internalNodes>
          <leafValues>
            -8.0484151840209961e-01 1.1791748553514481e-01</leafValues></_>
        <_>
          <internalNodes>
            0 -1 220 4.4795313442591578e-05</internalNodes>
          <leafValues>
            -3.2322856783866882e-01 3.2327502965927124e-01</leafValues></_>
        <_>
          <internalNodes>
            0 -1 176 6.4443604787811637e-04</internalNodes>
          <leafValues>
            9.3410991132259369e-02 -8.7068957090377808e-01</leafValues></_>
        <_>
          <internalNodes>
            0 -1 64 -1.4354294538497925e-01</internalNodes>
          <leafValues>
            -7.2387290000915527e-01 1.2439879775047302e-01</leafValues></_>
        <_>
          <internalNodes>
            0 -1 224 2.3001567460596561e-03</internalNodes>
          <leafValues>
            -2.6297891139984131e-01 4.5277753472328186e-01</leafValues></_>
        <_>
          <internalNodes>
            0 -1 85 -1.4587096869945526e-02</internalNodes>
          <leafValues>
            4.8007917404174805e-01 -2.1025495231151581e-01</leafValues></_>
        <_>
          <internalNodes>
            0 -1 240 3.3597724977880716e-03</internalNodes>
          <leafValues>
            -2.4110859632492065e-01 4.6213144063949585e-01</leafValues></_>
        <_>
          <internalNodes>
            0 -1 35 1.7248713993467391e-04</internalNodes>
          <leafValues>
            1.9216874241828918e-01 -6.6673499345779419e-01</leafValues></_></weakClassifiers></_>
    <!-- stage 9 -->
    <_>
      <maxWeakCount>17</maxWeakCount>
      <stageThreshold>-9.0274065732955933e-01</stageThreshold>
      <weakClassifiers>
        <_>
          <internalNodes>
            0 -1 27 1.1905363947153091e-01</internalNodes>
          <leafValues>
            -4.8823529481887817e-01 1.6666667163372040e-01</leafValues></_>
        <_>
          <internalNodes>
            0 -1 21 -2.0123945432715118e-04</internalNodes>
          <leafValues>
            -6.6708809137344360e-01 1.4634607732295990e-01</leafValues></_>
        <_>
          <internalNodes>
            0 -1 21 2.1926988847553730e-04</internalNodes>
          <leafValues>
            1.1984161287546158e-01 -7.5123977661132813e-01</leafValues></_>
        <_>
          <internalNodes>
            0 -1 156 -2.4135211788234301e-05</internalNodes>
          <leafValues>
            2.7755212783813477e-01 -3.3498784899711609e-01</leafValues></_>
        <_>
          <internalNodes>
            0 -1 6 -2.3137056268751621e-03</internalNodes>
          <leafValues>
            3.6442020535469055e-01 -2.7233180403709412e-01</leafValues></_>
        <_>
          <internalNodes>
            0 -1 67 8.1720445305109024e-03</internalNodes>
          <leafValues>
            -2.1925020217895508e-01 5.2052807807922363e-01</leafValues></_>
        <_>
          <internalNodes>
            0 -1 17 7.8738039519521408e-06</internalNodes>
          <leafValues>
            -3.1663742661476135e-01 3.2646325230598450e-01</leafValues></_>
        <_>
          <internalNodes>
            0 -1 232 -3.4925976069644094e-04</internalNodes>
          <leafValues>
            -6.6363078355789185e-01 1.7661331593990326e-01</leafValues></_>
        <_>
          <internalNodes>
            0 -1 123 2.5353918317705393e-05</internalNodes>
          <leafValues>
            -2.9471009969711304e-01 4.2885720729827881e-01</leafValues></_>
        <_>
          <internalNodes>
            0 -1 26 -1.0576078202575445e-03</internalNodes>
          <leafValues>
            3.2231125235557556e-01 -3.1686779856681824e-01</leafValues></_>
        <_>
          <internalNodes>
            0 -1 37 -2.5910825934261084e-04</internalNodes>
          <leafValues>
            -3.9339777827262878e-01 2.6237237453460693e-01</leafValues></_>
        <_>
          <internalNodes>
            0 -1 136 8.3912967238575220e-04</internalNodes>
          <leafValues>
            2.1429181098937988e-01 -5.0878459215164185e-01</leafValues></_>
        <_>
          <internalNodes>
            0 -1 77 -2.0258319636923261e-05</internalNodes>
          <leafValues>
            4.6068015694618225e-01 -2.4311721324920654e-01</leafValues></_>
        <_>
          <internalNodes>
            0 -1 202 -2.4513115931767970e-05</internalNodes>
          <leafValues>
            4.4587272405624390e-01 -2.4225424230098724e-01</leafValues></_>
        <_>
          <internalNodes>
            0 -1 19 -4.8755266470834613e-04</internalNodes>
          <leafValues>
            -6.3032907247543335e-01 1.7927266657352448e-01</leafValues></_>
        <_>
          <internalNodes>
            0 -1 158 1.5392401255667210e-03</internalNodes>
          <leafValues>
            -2.2901605069637299e-01 5.5182677507400513e-01</leafValues></_>
        <_>
          <internalNodes>
            0 -1 197 7.0277720689773560e-02</internalNodes>
          <leafValues>
            -3.1597861647605896e-01 4.0312650799751282e-01</leafValues></_></weakClassifiers></_>
    <!-- stage 10 -->
    <_>
      <maxWeakCount>16</maxWeakCount>
      <stageThreshold>-6.0713362693786621e-01</stageThreshold>
      <weakClassifiers>
        <_>
          <internalNodes>
            0 -1 52 -2.0051666069775820e-04</internalNodes>
          <leafValues>
            -7.5324672460556030e-01 -4.7619048506021500e-02</leafValues></_>
        <_>
          <internalNodes>
            0 -1 255 -2.0802376093342900e-04</internalNodes>
          <leafValues>
            -7.3428004980087280e-01 1.1979615688323975e-01</leafValues></_>
        <_>
          <internalNodes>
            0 -1 113 -2.3840386347728781e-05</internalNodes>
          <leafValues>
            4.1088739037513733e-01 -2.7522909641265869e-01</leafValues></_>
        <_>
          <internalNodes>
            0 -1 248 2.2986117983236909e-05</internalNodes>
          <leafValues>
            -2.8853830695152283e-01 4.4800710678100586e-01</leafValues></_>
        <_>
          <internalNodes>
            0 -1 251 -1.7289114475715905e-04</internalNodes>
          <leafValues>
            -7.1295183897018433e-01 1.7167326807975769e-01</leafValues></_>
        <_>
          <internalNodes>
            0 -1 133 2.3897482606116682e-05</internalNodes>
          <leafValues>
            -2.9976594448089600e-01 3.6773318052291870e-01</leafValues></_>
        <_>
          <internalNodes>
            0 -1 187 2.5848617951851338e-05</internalNodes>
          <leafValues>
            -2.7154549956321716e-01 4.2192229628562927e-01</leafValues></_>
        <_>
          <internalNodes>
            0 -1 276 2.2634652850683779e-05</internalNodes>
          <leafValues>
            -2.9210713505744934e-01 4.0280169248580933e-01</leafValues></_>
        <_>
          <internalNodes>
            0 -1 270 -2.0379305351525545e-04</internalNodes>
          <leafValues>
            -7.3150044679641724e-01 1.6242903470993042e-01</leafValues></_>
        <_>
          <internalNodes>
            0 -1 272 2.3840386347728781e-05</internalNodes>
          <leafValues>
            -2.7851909399032593e-01 4.2701610922813416e-01</leafValues></_>
        <_>
          <internalNodes>
            0 -1 55 -5.9136599302291870e-03</internalNodes>
          <leafValues>
            5.1866090297698975e-01 -2.3609285056591034e-01</leafValues></_>
        <_>
          <internalNodes>
            0 -1 206 -7.4511872298899107e-06</internalNodes>
          <leafValues>
            4.3899613618850708e-01 -2.8363981842994690e-01</leafValues></_>
        <_>
          <internalNodes>
            0 -1 78 -5.0156166253145784e-05</internalNodes>
          <leafValues>
            4.8948135972023010e-01 -2.1283382177352905e-01</leafValues></_>
        <_>
          <internalNodes>
            0 -1 57 -5.7811928854789585e-05</internalNodes>
          <leafValues>
            4.1692817211151123e-01 -3.1119567155838013e-01</leafValues></_>
        <_>
          <internalNodes>
            0 -1 178 -2.2869944587000646e-05</internalNodes>
          <leafValues>
            3.3655282855033875e-01 -3.8054931163787842e-01</leafValues></_>
        <_>
          <internalNodes>
            0 -1 267 2.2680300753563643e-04</internalNodes>
          <leafValues>
            -3.4033495187759399e-01 4.1339698433876038e-01</leafValues></_></weakClassifiers></_>
    <!-- stage 11 -->
    <_>
      <maxWeakCount>18</maxWeakCount>
      <stageThreshold>-9.4988077878952026e-01</stageThreshold>
      <weakClassifiers>
        <_>
          <internalNodes>
            0 -1 7 -8.3948224782943726e-02</internalNodes>
          <leafValues>
            6.2500000000000000e-02 -5.4347825050354004e-01</leafValues></_>
        <_>
          <internalNodes>
            0 -1 226 -2.1788182493764907e-05</internalNodes>
          <leafValues>
            3.1717181205749512e-01 -3.3037358522415161e-01</leafValues></_>
        <_>
          <internalNodes>
            0 -1 118 3.0104359611868858e-02</internalNodes>
          <leafValues>
            1.8067978322505951e-01 -6.0431718826293945e-01</leafValues></_>
        <_>
          <internalNodes>
            0 -1 193 2.1930898583377711e-05</internalNodes>
          <leafValues>
            -2.8846517205238342e-01 3.2115897536277771e-01</leafValues></_>
        <_>
          <internalNodes>
            0 -1 234 2.5902303605107591e-05</internalNodes>
          <leafValues>
            -2.3687632381916046e-01 3.6365056037902832e-01</leafValues></_>
        <_>
          <internalNodes>
            0 -1 100 -9.9722608865704387e-05</internalNodes>
          <leafValues>
            -5.1255518198013306e-01 1.7152155935764313e-01</leafValues></_>
        <_>
          <internalNodes>
            0 -1 259 7.4511872298899107e-06</internalNodes>
          <leafValues>
            -3.0974054336547852e-01 3.0504715442657471e-01</leafValues></_>
        <_>
          <internalNodes>
            0 -1 238 1.6043088398873806e-03</internalNodes>
          <leafValues>
            -1.5206684172153473e-01 5.9901577234268188e-01</leafValues></_>
        <_>
          <internalNodes>
            0 -1 189 -1.6840753960423172e-04</internalNodes>
          <leafValues>
            -4.3523427844047546e-01 2.1392250061035156e-01</leafValues></_>
        <_>
          <internalNodes>
            0 -1 0 -1.6519436030648649e-04</internalNodes>
          <leafValues>
            -6.2211900949478149e-01 1.5325111150741577e-01</leafValues></_>
        <_>
          <internalNodes>
            0 -1 103 3.6170988460071385e-04</internalNodes>
          <leafValues>
            -2.0660381019115448e-01 5.2031385898590088e-01</leafValues></_>
        <_>
          <internalNodes>
            0 -1 163 -1.4757107237528544e-05</internalNodes>
          <leafValues>
            2.7989125251770020e-01 -3.6391112208366394e-01</leafValues></_>
        <_>
          <internalNodes>
            0 -1 252 4.6710069000255316e-05</internalNodes>
          <leafValues>
            -2.6421698927879333e-01 3.6244484782218933e-01</leafValues></_>
        <_>
          <internalNodes>
            0 -1 181 5.8435198297956958e-05</internalNodes>
          <leafValues>
            -2.8614234924316406e-01 4.1488400101661682e-01</leafValues></_>
        <_>
          <internalNodes>
            0 -1 273 1.5070310837472789e-05</internalNodes>
          <leafValues>
            -2.5984105467796326e-01 3.7515926361083984e-01</leafValues></_>
        <_>
          <internalNodes>
            0 -1 241 2.2156145860208198e-05</internalNodes>
          <leafValues>
            -2.5290149450302124e-01 3.6892700195312500e-01</leafValues></_>
        <_>
          <internalNodes>
            0 -1 140 -7.8046415001153946e-03</internalNodes>
          <leafValues>
            -5.4283547401428223e-01 1.9699783623218536e-01</leafValues></_>
        <_>
          <internalNodes>
            0 -1 208 -5.9057143516838551e-05</internalNodes>
          <leafValues>
            -3.4677395224571228e-01 2.7478450536727905e-01</leafValues></_></weakClassifiers></_>
    <!-- stage 12 -->
    <_>
      <maxWeakCount>22</maxWeakCount>
      <stageThreshold>-8.1917452812194824e-01</stageThreshold>
      <weakClassifiers>
        <_>
          <internalNodes>
            0 -1 99 -2.3608133196830750e-03</internalNodes>
          <leafValues>
            4.4999998807907104e-01 -3.7610620260238647e-01</leafValues></_>
        <_>
          <internalNodes>
            0 -1 141 5.4544716840609908e-04</internalNodes>
          <leafValues>
            -2.3524838685989380e-01 3.4765058755874634e-01</leafValues></_>
        <_>
          <internalNodes>
            0 -1 14 -3.4919404424726963e-04</internalNodes>
          <leafValues>
            1.8914273381233215e-01 -4.3659558892250061e-01</leafValues></_>
        <_>
          <internalNodes>
            0 -1 117 -4.6969889081083238e-04</internalNodes>
          <leafValues>
            3.9073303341865540e-01 -2.1679024398326874e-01</leafValues></_>
        <_>
          <internalNodes>
            0 -1 98 5.4209595546126366e-03</internalNodes>
          <leafValues>
            -3.6102581024169922e-01 2.3078894615173340e-01</leafValues></_>
        <_>
          <internalNodes>
            0 -1 16 -2.2335550966090523e-05</internalNodes>
          <leafValues>
            4.0067246556282043e-01 -2.0641949772834778e-01</leafValues></_>
        <_>
          <internalNodes>
            0 -1 90 2.3836496984586120e-04</internalNodes>
          <leafValues>
            -2.1645741164684296e-01 4.0898853540420532e-01</leafValues></_>
        <_>
          <internalNodes>
            0 -1 80 -2.6286652428098023e-05</internalNodes>
          <leafValues>
            3.6067903041839600e-01 -2.2325064241886139e-01</leafValues></_>
        <_>
          <internalNodes>
            0 -1 173 -3.0113742686808109e-03</internalNodes>
          <leafValues>
            4.4812771677970886e-01 -2.1273720264434814e-01</leafValues></_>
        <_>
          <internalNodes>
            0 -1 83 -1.1440371163189411e-03</internalNodes>
          <leafValues>
            5.4934823513031006e-01 -1.8190440535545349e-01</leafValues></_>
        <_>
          <internalNodes>
            0 -1 143 8.9390669018030167e-04</internalNodes>
          <leafValues>
            2.1839679777622223e-01 -4.9384823441505432e-01</leafValues></_>
        <_>
          <internalNodes>
            0 -1 153 -2.3577298634336330e-05</internalNodes>
          <leafValues>
            2.9189366102218628e-01 -3.2055243849754333e-01</leafValues></_>
        <_>
          <internalNodes>
            0 -1 124 -9.1557338600978255e-04</internalNodes>
          <leafValues>
            4.9042809009552002e-01 -2.0799365639686584e-01</leafValues></_>
        <_>
          <internalNodes>
            0 -1 66 -1.6742596926633269e-04</internalNodes>
          <leafValues>
            -5.1661825180053711e-01 2.2240076959133148e-01</leafValues></_>
        <_>
          <internalNodes>
            0 -1 2 -1.4381052553653717e-01</internalNodes>
          <leafValues>
            3.3132541179656982e-01 -2.9510936141014099e-01</leafValues></_>
        <_>
          <internalNodes>
            0 -1 236 5.3000124171376228e-04</internalNodes>
          <leafValues>
            -2.1593132615089417e-01 5.1797640323638916e-01</leafValues></_>
        <_>
          <internalNodes>
            0 -1 142 7.4607995338737965e-04</internalNodes>
          <leafValues>
            -2.1566297113895416e-01 4.5734778046607971e-01</leafValues></_>
        <_>
          <internalNodes>
            0 -1 95 3.7483562482520938e-04</internalNodes>
          <leafValues>
            -2.6235985755920410e-01 3.7527409195899963e-01</leafValues></_>
        <_>
          <internalNodes>
            0 -1 89 -1.0074565652757883e-03</internalNodes>
          <leafValues>
            4.9110925197601318e-01 -2.4490416049957275e-01</leafValues></_>
        <_>
          <internalNodes>
            0 -1 207 2.8128717094659805e-02</internalNodes>
          <leafValues>
            1.6307771205902100e-01 -6.9578105211257935e-01</leafValues></_>
        <_>
          <internalNodes>
            0 -1 245 2.3320670152315870e-05</internalNodes>
          <leafValues>
            -3.1094056367874146e-01 3.5829290747642517e-01</leafValues></_>
        <_>
          <internalNodes>
            0 -1 188 4.8049225006252527e-04</internalNodes>
          <leafValues>
            -2.8716143965721130e-01 3.2546621561050415e-01</leafValues></_></weakClassifiers></_>
    <!-- stage 13 -->
    <_>
      <maxWeakCount>22</maxWeakCount>
      <stageThreshold>-8.3110463619232178e-01</stageThreshold>
      <weakClassifiers>
        <_>
          <internalNodes>
            0 -1 38 1.6518017649650574e-01</internalNodes>
          <leafValues>
            -4.6060606837272644e-01 8.9108914136886597e-02</leafValues></_>
        <_>
          <internalNodes>
            0 -1 275 -1.3627717271447182e-04</internalNodes>
          <leafValues>
            -5.7344746589660645e-01 1.2388101965188980e-01</leafValues></_>
        <_>
          <internalNodes>
            0 -1 159 7.6615449506789446e-04</internalNodes>
          <leafValues>
            2.1085318922996521e-01 -3.9033254981040955e-01</leafValues></_>
        <_>
          <internalNodes>
            0 -1 175 1.3163749827072024e-04</internalNodes>
          <leafValues>
            2.3562557995319366e-01 -3.8735300302505493e-01</leafValues></_>
        <_>
          <internalNodes>
            0 -1 122 -9.4310760498046875e-02</internalNodes>
          <leafValues>
            -7.2587448358535767e-01 1.2034215033054352e-01</leafValues></_>
        <_>
          <internalNodes>
            0 -1 162 -2.5538383051753044e-03</internalNodes>
          <leafValues>
            2.8304257988929749e-01 -2.8741949796676636e-01</leafValues></_>
        <_>
          <internalNodes>
            0 -1 177 -7.1491738781332970e-03</internalNodes>
          <leafValues>
            5.5281609296798706e-01 -1.5308454632759094e-01</leafValues></_>
        <_>
          <internalNodes>
            0 -1 231 7.1584153920412064e-04</internalNodes>
          <leafValues>
            1.3277786970138550e-01 -6.4695864915847778e-01</leafValues></_>
        <_>
          <internalNodes>
            0 -1 228 -1.0911923891399056e-04</internalNodes>
          <leafValues>
            -4.1174650192260742e-01 2.0396867394447327e-01</leafValues></_>
        <_>
          <internalNodes>
            0 -1 191 -4.2383605614304543e-03</internalNodes>
          <leafValues>
            1.8418759107589722e-01 -4.5932611823081970e-01</leafValues></_>
        <_>
          <internalNodes>
            0 -1 151 -2.0298262825235724e-05</internalNodes>
          <leafValues>
            3.5564324259757996e-01 -2.5351577997207642e-01</leafValues></_>
        <_>
          <internalNodes>
            0 -1 72 -5.9059443883597851e-03</internalNodes>
          <leafValues>
            4.7559943795204163e-01 -1.8343475461006165e-01</leafValues></_>
        <_>
          <internalNodes>
            0 -1 48 6.2306709587574005e-03</internalNodes>
          <leafValues>
            -1.4789456129074097e-01 6.7361116409301758e-01</leafValues></_>
        <_>
          <internalNodes>
            0 -1 185 -2.4365766876144335e-05</internalNodes>
          <leafValues>
            3.6103755235671997e-01 -2.9123008251190186e-01</leafValues></_>
        <_>
          <internalNodes>
            0 -1 131 -1.5964117646217346e-01</internalNodes>
          <leafValues>
            -8.1843525171279907e-01 1.0848883539438248e-01</leafValues></_>
        <_>
          <internalNodes>
            0 -1 15 2.2091694176197052e-02</internalNodes>
          <leafValues>
            1.0290242731571198e-01 -7.4640995264053345e-01</leafValues></_>
        <_>
          <internalNodes>
            0 -1 217 3.8277843850664794e-04</internalNodes>
          <leafValues>
            -2.9287764430046082e-01 3.1532037258148193e-01</leafValues></_>
        <_>
          <internalNodes>
            0 -1 121 -2.2586726117879152e-03</internalNodes>
          <leafValues>
            3.3435392379760742e-01 -2.8173035383224487e-01</leafValues></_>
        <_>
          <internalNodes>
            0 -1 216 -2.9196401592344046e-03</internalNodes>
          <leafValues>
            5.8035171031951904e-01 -1.6318671405315399e-01</leafValues></_>
        <_>
          <internalNodes>
            0 -1 13 -1.8848091713152826e-04</internalNodes>
          <leafValues>
            -5.2356624603271484e-01 1.9188223779201508e-01</leafValues></_>
        <_>
          <internalNodes>
            0 -1 222 1.1349198757670820e-05</internalNodes>
          <leafValues>
            -3.5545301437377930e-01 2.7345484495162964e-01</leafValues></_>
        <_>
          <internalNodes>
            0 -1 51 3.0677795875817537e-03</internalNodes>
          <leafValues>
            -2.4625825881958008e-01 3.8729459047317505e-01</leafValues></_></weakClassifiers></_>
    <!-- stage 14 -->
    <_>
      <maxWeakCount>19</maxWeakCount>
      <stageThreshold>-6.1900180578231812e-01</stageThreshold>
      <weakClassifiers>
        <_>
          <internalNodes>
            0 -1 128 -2.3757480084896088e-03</internalNodes>
          <leafValues>
            6.9124422967433929e-02 -4.7301587462425232e-01</leafValues></_>
        <_>
          <internalNodes>
            0 -1 260 -1.3680593110620975e-04</internalNodes>
          <leafValues>
            -6.1534637212753296e-01 1.2611526250839233e-01</leafValues></_>
        <_>
          <internalNodes>
            0 -1 258 1.5319152735173702e-03</internalNodes>
          <leafValues>
            -2.5553712248802185e-01 3.9023917913436890e-01</leafValues></_>
        <_>
          <internalNodes>
            0 -1 74 -1.9621709361672401e-03</internalNodes>
          <leafValues>
            5.2626252174377441e-01 -2.0334023237228394e-01</leafValues></_>
        <_>
          <internalNodes>
            0 -1 50 1.8944895418826491e-04</internalNodes>
          <leafValues>
            1.9490084052085876e-01 -4.6389043331146240e-01</leafValues></_>
        <_>
          <internalNodes>
            0 -1 213 -1.9718381736311130e-05</internalNodes>
          <leafValues>
            3.3804786205291748e-01 -2.8599929809570313e-01</leafValues></_>
        <_>
          <internalNodes>
            0 -1 18 6.2675404478795826e-05</internalNodes>
          <leafValues>
            -2.8592461347579956e-01 3.2190832495689392e-01</leafValues></_>
        <_>
          <internalNodes>
            0 -1 199 1.0224214754998684e-02</internalNodes>
          <leafValues>
            -1.9746349751949310e-01 4.2179077863693237e-01</leafValues></_>
        <_>
          <internalNodes>
            0 -1 180 -2.8460897738113999e-04</internalNodes>
          <leafValues>
            -6.0330986976623535e-01 1.5382741391658783e-01</leafValues></_>
        <_>
          <internalNodes>
            0 -1 172 -1.8567315419204533e-04</internalNodes>
          <leafValues>
            3.3350601792335510e-01 -3.0039608478546143e-01</leafValues></_>
        <_>
          <internalNodes>
            0 -1 203 8.2965253386646509e-04</internalNodes>
          <leafValues>
            -2.7146980166435242e-01 3.8839536905288696e-01</leafValues></_>
        <_>
          <internalNodes>
            0 -1 20 -1.1655210983008146e-04</internalNodes>
          <leafValues>
            -6.4432466030120850e-01 1.5109059214591980e-01</leafValues></_>
        <_>
          <internalNodes>
            0 -1 42 -3.2293528784066439e-03</internalNodes>
          <leafValues>
            4.8276951909065247e-01 -2.1399481594562531e-01</leafValues></_>
        <_>
          <internalNodes>
            0 -1 76 1.7114340153057128e-05</internalNodes>
          <leafValues>
            -2.7307012677192688e-01 4.2029026150703430e-01</leafValues></_>
        <_>
          <internalNodes>
            0 -1 127 -7.4546448886394501e-03</internalNodes>
          <leafValues>
            3.8576680421829224e-01 -2.5600087642669678e-01</leafValues></_>
        <_>
          <internalNodes>
            0 -1 242 2.1066724002594128e-05</internalNodes>
          <leafValues>
            -2.5190708041191101e-01 3.5338273644447327e-01</leafValues></_>
        <_>
          <internalNodes>
            0 -1 102 -1.5237814746797085e-02</internalNodes>
          <leafValues>
            6.6500180959701538e-01 -1.5799130499362946e-01</leafValues></_>
        <_>
          <internalNodes>
            0 -1 61 4.2489217594265938e-04</internalNodes>
          <leafValues>
            -2.9477569460868835e-01 3.8243457674980164e-01</leafValues></_>
        <_>
          <internalNodes>
            0 -1 41 -7.5483862019609660e-05</internalNodes>
          <leafValues>
            -5.7257747650146484e-01 1.6434074938297272e-01</leafValues></_></weakClassifiers></_>
    <!-- stage 15 -->
    <_>
      <maxWeakCount>21</maxWeakCount>
      <stageThreshold>-7.7852249145507813e-01</stageThreshold>
      <weakClassifiers>
        <_>
          <internalNodes>
            0 -1 170 -3.3927399199455976e-03</internalNodes>
          <leafValues>
            3.0612245202064514e-01 -3.7788018584251404e-01</leafValues></_>
        <_>
          <internalNodes>
            0 -1 169 1.0028037428855896e-01</internalNodes>
          <leafValues>
            7.1895115077495575e-02 -9.3064695596694946e-01</leafValues></_>
        <_>
          <internalNodes>
            0 -1 147 2.5161180645227432e-02</internalNodes>
          <leafValues>
            1.4167685806751251e-01 -6.0062146186828613e-01</leafValues></_>
        <_>
          <internalNodes>
            0 -1 110 -5.6176320649683475e-03</internalNodes>
          <leafValues>
            3.4409177303314209e-01 -3.2033127546310425e-01</leafValues></_>
        <_>
          <internalNodes>
            0 -1 62 -1.1055405484512448e-03</internalNodes>
          <leafValues>
            4.8682340979576111e-01 -1.5555995702743530e-01</leafValues></_>
        <_>
          <internalNodes>
            0 -1 194 1.9474880537018180e-04</internalNodes>
          <leafValues>
            -2.7724754810333252e-01 2.9843342304229736e-01</leafValues></_>
        <_>
          <internalNodes>
            0 -1 211 -2.3775007866788656e-04</internalNodes>
          <leafValues>
            -6.9994533061981201e-01 1.4144267141819000e-01</leafValues></_>
        <_>
          <internalNodes>
            0 -1 75 1.2985243462026119e-02</internalNodes>
          <leafValues>
            7.3214508593082428e-02 -7.5779742002487183e-01</leafValues></_>
        <_>
          <internalNodes>
            0 -1 139 -1.5195118030533195e-03</internalNodes>
          <leafValues>
            2.9962629079818726e-01 -2.7609363198280334e-01</leafValues></_>
        <_>
          <internalNodes>
            0 -1 79 -1.5476623177528381e-01</internalNodes>
          <leafValues>
            -8.7742483615875244e-01 7.7149182558059692e-02</leafValues></_>
        <_>
          <internalNodes>
            0 -1 134 7.7710236655548215e-04</internalNodes>
          <leafValues>
            1.3463993370532990e-01 -5.6220108270645142e-01</leafValues></_>
        <_>
          <internalNodes>
            0 -1 152 9.8212738521397114e-04</internalNodes>
          <leafValues>
            1.4923295378684998e-01 -5.9201395511627197e-01</leafValues></_>
        <_>
          <internalNodes>
            0 -1 174 8.2845112774521112e-04</internalNodes>
          <leafValues>
            -2.6665747165679932e-01 3.5718834400177002e-01</leafValues></_>
        <_>
          <internalNodes>
            0 -1 36 -7.2297996666748077e-05</internalNodes>
          <leafValues>
            -3.1902533769607544e-01 2.7396371960639954e-01</leafValues></_>
        <_>
          <internalNodes>
            0 -1 237 -2.2475272999145091e-05</internalNodes>
          <leafValues>
            2.8264349699020386e-01 -2.8664499521255493e-01</leafValues></_>
        <_>
          <internalNodes>
            0 -1 87 -1.4430785086005926e-04</internalNodes>
          <leafValues>
            -6.5521746873855591e-01 1.3394802808761597e-01</leafValues></_>
        <_>
          <internalNodes>
            0 -1 186 2.5104958331212401e-04</internalNodes>
          <leafValues>
            -2.2332246601581573e-01 4.5078921318054199e-01</leafValues></_>
        <_>
          <internalNodes>
            0 -1 135 -2.3245229385793209e-03</internalNodes>
          <leafValues>
            4.8035511374473572e-01 -1.8046297132968903e-01</leafValues></_>
        <_>
          <internalNodes>
            0 -1 138 -2.6227701455354691e-02</internalNodes>
          <leafValues>
            -9.1908001899719238e-01 1.0645875334739685e-01</leafValues></_>
        <_>
          <internalNodes>
            0 -1 230 -1.5087504289112985e-04</internalNodes>
          <leafValues>
            -4.6081346273422241e-01 1.7952169477939606e-01</leafValues></_>
        <_>
          <internalNodes>
            0 -1 29 2.0328201571828686e-05</internalNodes>
          <leafValues>
            -2.6742941141128540e-01 3.3845418691635132e-01</leafValues></_></weakClassifiers></_>
    <!-- stage 16 -->
    <_>
      <maxWeakCount>21</maxWeakCount>
      <stageThreshold>-7.8240638971328735e-01</stageThreshold>
      <weakClassifiers>
        <_>
          <internalNodes>
            0 -1 144 2.4099259171634912e-03</internalNodes>
          <leafValues>
            -3.4177213907241821e-01 4.8275861144065857e-01</leafValues></_>
        <_>
          <internalNodes>
            0 -1 97 -4.4968906790018082e-02</internalNodes>
          <leafValues>
            -6.8317747116088867e-01 9.5279902219772339e-02</leafValues></_>
        <_>
          <internalNodes>
            0 -1 54 4.4626760063692927e-04</internalNodes>
          <leafValues>
            8.8178835809230804e-02 -6.9528859853744507e-01</leafValues></_>
        <_>
          <internalNodes>
            0 -1 23 -2.4362487602047622e-04</internalNodes>
          <leafValues>
            3.7011566758155823e-01 -1.9867873191833496e-01</leafValues></_>
        <_>
          <internalNodes>
            0 -1 196 2.2964719391893595e-05</internalNodes>
          <leafValues>
            -2.9364219307899475e-01 2.4838522076606750e-01</leafValues></_>
        <_>
          <internalNodes>
            0 -1 1 -1.7557365936227143e-04</internalNodes>
          <leafValues>
            -3.8497829437255859e-01 2.1031729876995087e-01</leafValues></_>
        <_>
          <internalNodes>
            0 -1 215 -8.8169798254966736e-04</internalNodes>
          <leafValues>
            -4.0990900993347168e-01 2.0393338799476624e-01</leafValues></_>
        <_>
          <internalNodes>
            0 -1 5 3.2805104274302721e-04</internalNodes>
          <leafValues>
            -2.2958901524543762e-01 4.0349641442298889e-01</leafValues></_>
        <_>
          <internalNodes>
            0 -1 28 -1.8910379149019718e-03</internalNodes>
          <leafValues>
            5.5169802904129028e-01 -1.5858215093612671e-01</leafValues></_>
        <_>
          <internalNodes>
            0 -1 200 -1.9234049250371754e-04</internalNodes>
          <leafValues>
            -4.7693237662315369e-01 1.9054630398750305e-01</leafValues></_>
        <_>
          <internalNodes>
            0 -1 84 2.1194466389715672e-03</internalNodes>
          <leafValues>
            -4.3503561615943909e-01 2.0349314808845520e-01</leafValues></_>
        <_>
          <internalNodes>
            0 -1 263 -2.3155520466389135e-05</internalNodes>
          <leafValues>
            3.2592296600341797e-01 -2.6583340764045715e-01</leafValues></_>
        <_>
          <internalNodes>
            0 -1 254 1.9428567611612380e-05</internalNodes>
          <leafValues>
            -2.5114479660987854e-01 3.8083532452583313e-01</leafValues></_>
        <_>
          <internalNodes>
            0 -1 182 4.3902564793825150e-03</internalNodes>
          <leafValues>
            -1.4643792808055878e-01 6.2527310848236084e-01</leafValues></_>
        <_>
          <internalNodes>
            0 -1 44 -3.6293661687523127e-03</internalNodes>
          <leafValues>
            7.2840398550033569e-01 -1.1266791075468063e-01</leafValues></_>
        <_>
          <internalNodes>
            0 -1 25 1.9046470522880554e-02</internalNodes>
          <leafValues>
            -1.0268331319093704e-01 6.9435697793960571e-01</leafValues></_>
        <_>
          <internalNodes>
            0 -1 204 1.9564105605240911e-04</internalNodes>
          <leafValues>
            1.3992428779602051e-01 -6.9337493181228638e-01</leafValues></_>
        <_>
          <internalNodes>
            0 -1 69 -1.1301106214523315e-01</internalNodes>
          <leafValues>
            -7.5786548852920532e-01 9.8443113267421722e-02</leafValues></_>
        <_>
          <internalNodes>
            0 -1 49 -2.4114426225423813e-02</internalNodes>
          <leafValues>
            2.4414691329002380e-01 -3.9200359582901001e-01</leafValues></_>
        <_>
          <internalNodes>
            0 -1 114 -1.2933856248855591e-01</internalNodes>
          <leafValues>
            -5.9121006727218628e-01 1.6507792472839355e-01</leafValues></_>
        <_>
          <internalNodes>
            0 -1 244 2.1484203898580745e-05</internalNodes>
          <leafValues>
            -2.4982056021690369e-01 3.8310083746910095e-01</leafValues></_></weakClassifiers></_>
    <!-- stage 17 -->
    <_>
      <maxWeakCount>21</maxWeakCount>
      <stageThreshold>-8.2314568758010864e-01</stageThreshold>
      <weakClassifiers>
        <_>
          <internalNodes>
            0 -1 120 -7.3480848222970963e-03</internalNodes>
          <leafValues>
            4.0983606129884720e-02 -5.0000000000000000e-01</leafValues></_>
        <_>
          <internalNodes>
            0 -1 262 -3.3616600558161736e-04</internalNodes>
          <leafValues>
            -4.7788560390472412e-01 1.2718565762042999e-01</leafValues></_>
        <_>
          <internalNodes>
            0 -1 104 -4.7915829345583916e-03</internalNodes>
          <leafValues>
            -6.5096628665924072e-01 1.0501915216445923e-01</leafValues></_>
        <_>
          <internalNodes>
            0 -1 150 2.6816457509994507e-02</internalNodes>
          <leafValues>
            1.4950905740261078e-01 -6.3523334264755249e-01</leafValues></_>
        <_>
          <internalNodes>
            0 -1 277 -1.6493484508828260e-05</internalNodes>
          <leafValues>
            2.9445502161979675e-01 -2.6535636186599731e-01</leafValues></_>
        <_>
          <internalNodes>
            0 -1 108 -8.9421297889202833e-04</internalNodes>
          <leafValues>
            5.4665368795394897e-01 -1.7609292268753052e-01</leafValues></_>
        <_>
          <internalNodes>
            0 -1 198 -8.5225083239492960e-06</internalNodes>
          <leafValues>
            3.1388285756111145e-01 -2.6368230581283569e-01</leafValues></_>
        <_>
          <internalNodes>
            0 -1 149 -1.6102569643408060e-03</internalNodes>
          <leafValues>
            -5.9858357906341553e-01 1.4532083272933960e-01</leafValues></_>
        <_>
          <internalNodes>
            0 -1 247 3.5409783013164997e-03</internalNodes>
          <leafValues>
            -2.6373940706253052e-01 3.4498688578605652e-01</leafValues></_>
        <_>
          <internalNodes>
            0 -1 184 -1.2849987251684070e-04</internalNodes>
          <leafValues>
            -4.0457016229629517e-01 2.0698435604572296e-01</leafValues></_>
        <_>
          <internalNodes>
            0 -1 249 -9.7776668553706259e-05</internalNodes>
          <leafValues>
            3.9272129535675049e-01 -2.1032989025115967e-01</leafValues></_>
        <_>
          <internalNodes>
            0 -1 43 -5.5207319557666779e-02</internalNodes>
          <leafValues>
            -7.0753866434097290e-01 1.0823565721511841e-01</leafValues></_>
        <_>
          <internalNodes>
            0 -1 250 -7.5449870200827718e-04</internalNodes>
          <leafValues>
            -5.6894832849502563e-01 1.4739377796649933e-01</leafValues></_>
        <_>
          <internalNodes>
            0 -1 63 1.1382685042917728e-03</internalNodes>
          <leafValues>
            -2.0600602030754089e-01 4.3352830410003662e-01</leafValues></_>
        <_>
          <internalNodes>
            0 -1 132 4.0554284350946546e-04</internalNodes>
          <leafValues>
            -1.9528882205486298e-01 4.4417127966880798e-01</leafValues></_>
        <_>
          <internalNodes>
            0 -1 205 -1.9936414901167154e-04</internalNodes>
          <leafValues>
            -5.1304399967193604e-01 1.8106023967266083e-01</leafValues></_>
        <_>
          <internalNodes>
            0 -1 30 -8.8071734353434294e-05</internalNodes>
          <leafValues>
            -5.3227800130844116e-01 1.7991094291210175e-01</leafValues></_>
        <_>
          <internalNodes>
            0 -1 167 -1.6788976790849119e-04</internalNodes>
          <leafValues>
            4.1757360100746155e-01 -2.6251226663589478e-01</leafValues></_>
        <_>
          <internalNodes>
            0 -1 210 1.2028534001728985e-05</internalNodes>
          <leafValues>
            -3.0894345045089722e-01 3.2057592272758484e-01</leafValues></_>
        <_>
          <internalNodes>
            0 -1 34 -3.0323914252221584e-03</internalNodes>
          <leafValues>
            5.6394356489181519e-01 -1.7181898653507233e-01</leafValues></_>
        <_>
          <internalNodes>
            0 -1 116 -2.8518717736005783e-02</internalNodes>
          <leafValues>
            4.2261987924575806e-01 -2.1428032219409943e-01</leafValues></_></weakClassifiers></_></stages>
  <features>
    <_>
      <rects>
        <_>
          0 0 1 3 -1.</_>
        <_>
          0 1 1 1 3.</_></rects>
      <tilted>0</tilted></_>
    <_>
      <rects>
        <_>
          0 0 1 6 -1.</_>
        <_>
          0 2 1 2 3.</_></rects>
      <tilted>0</tilted></_>
    <_>
      <rects>
        <_>
          0 0 22 26 -1.</_>
        <_>
          11 0 11 26 2.</_></rects>
      <tilted>0</tilted></_>
    <_>
      <rects>
        <_>
          0 2 8 16 -1.</_>
        <_>
          4 2 4 16 2.</_></rects>
      <tilted>0</tilted></_>
    <_>
      <rects>
        <_>
          0 3 6 15 -1.</_>
        <_>
          2 3 2 15 3.</_></rects>
      <tilted>0</tilted></_>
    <_>
      <rects>
        <_>
          0 3 12 2 -1.</_>
        <_>
          0 4 12 1 2.</_></rects>
      <tilted>0</tilted></_>
    <_>
      <rects>
        <_>
          0 4 14 1 -1.</_>
        <_>
          7 4 7 1 2.</_></rects>
      <tilted>0</tilted></_>
    <_>
      <rects>
        <_>
          0 4 22 22 -1.</_>
        <_>
          11 4 11 22 2.</_></rects>
      <tilted>0</tilted></_>
    <_>
      <rects>
        <_>
          0 4 14 6 -1.</_>
        <_>
          0 6 14 2 3.</_></rects>
      <tilted>0</tilted></_>
    <_>
      <rects>
        <_>
          0 5 8 12 -1.</_>
        <_>
          4 5 4 12 2.</_></rects>
      <tilted>0</tilted></_>
    <_>
      <rects>
        <_>
          0 7 12 18 -1.</_>
        <_>
          6 7 6 18 2.</_></rects>
      <tilted>0</tilted></_>
    <_>
      <rects>
        <_>
          0 9 4 18 -1.</_>
        <_>
          0 9 2 9 2.</_>
        <_>
          2 18 2 9 2.</_></rects>
      <tilted>0</tilted></_>
    <_>
      <rects>
        <_>
          0 9 20 18 -1.</_>
        <_>
          10 9 10 18 2.</_></rects>
      <tilted>0</tilted></_>
    <_>
      <rects>
        <_>
          0 10 2 3 -1.</_>
        <_>
          0 11 2 1 3.</_></rects>
      <tilted>0</tilted></_>
    <_>
      <rects>
        <_>
          0 11 4 6 -1.</_>
        <_>
          2 11 2 6 2.</_></rects>
      <tilted>0</tilted></_>
    <_>
      <rects>
        <_>
          0 13 44 6 -1.</_>
        <_>
          0 13 22 3 2.</_>
        <_>
          22 16 22 3 2.</_></rects>
      <tilted>0</tilted></_>
    <_>
      <rects>
        <_>
          0 15 2 2 -1.</_>
        <_>
          0 15 1 1 2.</_>
        <_>
          1 16 1 1 2.</_></rects>
      <tilted>0</tilted></_>
    <_>
      <rects>
        <_>
          0 19 1 3 -1.</_>
        <_>
          0 20 1 1 3.</_></rects>
      <tilted>0</tilted></_>
    <_>
      <rects>
        <_>
          0 23 2 3 -1.</_>
        <_>
          1 23 1 3 2.</_></rects>
      <tilted>0</tilted></_>
    <_>
      <rects>
        <_>
          0 24 7 3 -1.</_>
        <_>
          0 25 7 1 3.</_></rects>
      <tilted>0</tilted></_>
    <_>
      <rects>
        <_>
          0 25 2 2 -1.</_>
        <_>
          0 25 1 1 2.</_>
        <_>
          1 26 1 1 2.</_></rects>
      <tilted>0</tilted></_>
    <_>
      <rects>
        <_>
          0 26 3 1 -1.</_>
        <_>
          1 26 1 1 3.</_></rects>
      <tilted>0</tilted></_>
    <_>
      <rects>
        <_>
          1 0 12 12 -1.</_>
        <_>
          5 0 4 12 3.</_></rects>
      <tilted>0</tilted></_>
    <_>
      <rects>
        <_>
          1 5 3 19 -1.</_>
        <_>
          2 5 1 19 3.</_></rects>
      <tilted>0</tilted></_>
    <_>
      <rects>
        <_>
          1 7 9 20 -1.</_>
        <_>
          4 7 3 20 3.</_></rects>
      <tilted>0</tilted></_>
    <_>
      <rects>
        <_>
          1 9 15 8 -1.</_>
        <_>
          6 9 5 8 3.</_></rects>
      <tilted>0</tilted></_>
    <_>
      <rects>
        <_>
          1 14 18 1 -1.</_>
        <_>
          7 14 6 1 3.</_></rects>
      <tilted>0</tilted></_>
    <_>
      <rects>
        <_>
          1 15 45 12 -1.</_>
        <_>
          1 21 45 6 2.</_></rects>
      <tilted>0</tilted></_>
    <_>
      <rects>
        <_>
          1 17 12 4 -1.</_>
        <_>
          1 19 12 2 2.</_></rects>
      <tilted>0</tilted></_>
    <_>
      <rects>
        <_>
          1 18 1 3 -1.</_>
        <_>
          1 19 1 1 3.</_></rects>
      <tilted>0</tilted></_>
    <_>
      <rects>
        <_>
          1 20 3 1 -1.</_>
        <_>
          2 20 1 1 3.</_></rects>
      <tilted>0</tilted></_>
    <_>
      <rects>
        <_>
          1 26 3 1 -1.</_>
        <_>
          2 26 1 1 3.</_></rects>
      <tilted>0</tilted></_>
    <_>
      <rects>
        <_>
          2 0 9 20 -1.</_>
        <_>
          5 0 3 20 3.</_></rects>
      <tilted>0</tilted></_>
    <_>
      <rects>
        <_>
          2 0 9 24 -1.</_>
        <_>
          5 0 3 24 3.</_></rects>
      <tilted>0</tilted></_>
    <_>
      <rects>
        <_>
          2 5 8 4 -1.</_>
        <_>
          2 5 4 2 2.</_>
        <_>
          6 7 4 2 2.</_></rects>
      <tilted>0</tilted></_>
    <_>
      <rects>
        <_>
          2 6 2 2 -1.</_>
        <_>
          3 6 1 2 2.</_></rects>
      <tilted>0</tilted></_>
    <_>
      <rects>
        <_>
          2 8 4 3 -1.</_>
        <_>
          2 9 4 1 3.</_></rects>
      <tilted>0</tilted></_>
    <_>
      <rects>
        <_>
          2 9 2 6 -1.</_>
        <_>
          2 11 2 2 3.</_></rects>
      <tilted>0</tilted></_>
    <_>
      <rects>
        <_>
          2 11 32 16 -1.</_>
        <_>
          2 19 32 8 2.</_></rects>
      <tilted>0</tilted></_>
    <_>
      <rects>
        <_>
          2 13 12 6 -1.</_>
        <_>
          6 13 4 6 3.</_></rects>
      <tilted>0</tilted></_>
    <_>
      <rects>
        <_>
          2 24 3 3 -1.</_>
        <_>
          3 24 1 3 3.</_></rects>
      <tilted>0</tilted></_>
    <_>
      <rects>
        <_>
          2 25 3 1 -1.</_>
        <_>
          3 25 1 1 3.</_></rects>
      <tilted>0</tilted></_>
    <_>
      <rects>
        <_>
          3 1 11 6 -1.</_>
        <_>
          3 3 11 2 3.</_></rects>
      <tilted>0</tilted></_>
    <_>
      <rects>
        <_>
          3 2 24 7 -1.</_>
        <_>
          11 2 8 7 3.</_></rects>
      <tilted>0</tilted></_>
    <_>
      <rects>
        <_>
          3 8 1 16 -1.</_>
        <_>
          3 16 1 8 2.</_></rects>
      <tilted>0</tilted></_>
    <_>
      <rects>
        <_>
          3 23 2 2 -1.</_>
        <_>
          3 23 1 1 2.</_>
        <_>
          4 24 1 1 2.</_></rects>
      <tilted>0</tilted></_>
    <_>
      <rects>
        <_>
          4 0 29 27 -1.</_>
        <_>
          4 9 29 9 3.</_></rects>
      <tilted>0</tilted></_>
    <_>
      <rects>
        <_>
          4 3 30 24 -1.</_>
        <_>
          4 15 30 12 2.</_></rects>
      <tilted>0</tilted></_>
    <_>
      <rects>
        <_>
          4 6 1 12 -1.</_>
        <_>
          4 12 1 6 2.</_></rects>
      <tilted>0</tilted></_>
    <_>
      <rects>
        <_>
          4 11 33 16 -1.</_>
        <_>
          15 11 11 16 3.</_></rects>
      <tilted>0</tilted></_>
    <_>
      <rects>
        <_>
          4 23 3 4 -1.</_>
        <_>
          5 23 1 4 3.</_></rects>
      <tilted>0</tilted></_>
    <_>
      <rects>
        <_>
          4 23 8 4 -1.</_>
        <_>
          4 25 8 2 2.</_></rects>
      <tilted>0</tilted></_>
    <_>
      <rects>
        <_>
          4 24 3 3 -1.</_>
        <_>
          5 24 1 3 3.</_></rects>
      <tilted>0</tilted></_>
    <_>
      <rects>
        <_>
          4 24 28 2 -1.</_>
        <_>
          18 24 14 2 2.</_></rects>
      <tilted>0</tilted></_>
    <_>
      <rects>
        <_>
          5 0 3 2 -1.</_>
        <_>
          6 0 1 2 3.</_></rects>
      <tilted>0</tilted></_>
    <_>
      <rects>
        <_>
          5 1 6 15 -1.</_>
        <_>
          7 1 2 15 3.</_></rects>
      <tilted>0</tilted></_>
    <_>
      <rects>
        <_>
          5 2 12 18 -1.</_>
        <_>
          9 2 4 18 3.</_></rects>
      <tilted>0</tilted></_>
    <_>
      <rects>
        <_>
          5 3 1 2 -1.</_>
        <_>
          5 4 1 1 2.</_></rects>
      <tilted>0</tilted></_>
    <_>
      <rects>
        <_>
          5 3 2 24 -1.</_>
        <_>
          5 15 2 12 2.</_></rects>
      <tilted>0</tilted></_>
    <_>
      <rects>
        <_>
          5 4 6 10 -1.</_>
        <_>
          5 4 3 5 2.</_>
        <_>
          8 9 3 5 2.</_></rects>
      <tilted>0</tilted></_>
    <_>
      <rects>
        <_>
          5 4 42 20 -1.</_>
        <_>
          19 4 14 20 3.</_></rects>
      <tilted>0</tilted></_>
    <_>
      <rects>
        <_>
          5 7 3 4 -1.</_>
        <_>
          5 9 3 2 2.</_></rects>
      <tilted>0</tilted></_>
    <_>
      <rects>
        <_>
          5 9 12 3 -1.</_>
        <_>
          5 10 12 1 3.</_></rects>
      <tilted>0</tilted></_>
    <_>
      <rects>
        <_>
          5 11 14 2 -1.</_>
        <_>
          5 11 7 1 2.</_>
        <_>
          12 12 7 1 2.</_></rects>
      <tilted>0</tilted></_>
    <_>
      <rects>
        <_>
          5 16 39 10 -1.</_>
        <_>
          18 16 13 10 3.</_></rects>
      <tilted>0</tilted></_>
    <_>
      <rects>
        <_>
          5 21 42 6 -1.</_>
        <_>
          5 23 42 2 3.</_></rects>
      <tilted>0</tilted></_>
    <_>
      <rects>
        <_>
          5 25 2 2 -1.</_>
        <_>
          6 25 1 2 2.</_></rects>
      <tilted>0</tilted></_>
    <_>
      <rects>
        <_>
          6 1 38 6 -1.</_>
        <_>
          6 3 38 2 3.</_></rects>
      <tilted>0</tilted></_>
    <_>
      <rects>
        <_>
          6 3 41 9 -1.</_>
        <_>
          6 6 41 3 3.</_></rects>
      <tilted>0</tilted></_>
    <_>
      <rects>
        <_>
          6 7 16 20 -1.</_>
        <_>
          14 7 8 20 2.</_></rects>
      <tilted>0</tilted></_>
    <_>
      <rects>
        <_>
          6 10 8 14 -1.</_>
        <_>
          6 17 8 7 2.</_></rects>
      <tilted>0</tilted></_>
    <_>
      <rects>
        <_>
          6 13 24 14 -1.</_>
        <_>
          6 20 24 7 2.</_></rects>
      <tilted>0</tilted></_>
    <_>
      <rects>
        <_>
          7 0 6 16 -1.</_>
        <_>
          9 0 2 16 3.</_></rects>
      <tilted>0</tilted></_>
    <_>
      <rects>
        <_>
          7 0 25 12 -1.</_>
        <_>
          7 4 25 4 3.</_></rects>
      <tilted>0</tilted></_>
    <_>
      <rects>
        <_>
          7 0 31 3 -1.</_>
        <_>
          7 1 31 1 3.</_></rects>
      <tilted>0</tilted></_>
    <_>
      <rects>
        <_>
          7 8 7 9 -1.</_>
        <_>
          7 11 7 3 3.</_></rects>
      <tilted>0</tilted></_>
    <_>
      <rects>
        <_>
          7 12 2 1 -1.</_>
        <_>
          8 12 1 1 2.</_></rects>
      <tilted>0</tilted></_>
    <_>
      <rects>
        <_>
          7 15 1 2 -1.</_>
        <_>
          7 16 1 1 2.</_></rects>
      <tilted>0</tilted></_>
    <_>
      <rects>
        <_>
          7 17 2 2 -1.</_>
        <_>
          7 17 1 1 2.</_>
        <_>
          8 18 1 1 2.</_></rects>
      <tilted>0</tilted></_>
    <_>
      <rects>
        <_>
          7 17 26 10 -1.</_>
        <_>
          20 17 13 10 2.</_></rects>
      <tilted>0</tilted></_>
    <_>
      <rects>
        <_>
          7 18 2 2 -1.</_>
        <_>
          7 18 1 1 2.</_>
        <_>
          8 19 1 1 2.</_></rects>
      <tilted>0</tilted></_>
    <_>
      <rects>
        <_>
          7 23 16 4 -1.</_>
        <_>
          7 25 16 2 2.</_></rects>
      <tilted>0</tilted></_>
    <_>
      <rects>
        <_>
          7 25 3 1 -1.</_>
        <_>
          8 25 1 1 3.</_></rects>
      <tilted>0</tilted></_>
    <_>
      <rects>
        <_>
          8 11 4 4 -1.</_>
        <_>
          8 11 2 2 2.</_>
        <_>
          10 13 2 2 2.</_></rects>
      <tilted>0</tilted></_>
    <_>
      <rects>
        <_>
          8 12 1 12 -1.</_>
        <_>
          8 18 1 6 2.</_></rects>
      <tilted>0</tilted></_>
    <_>
      <rects>
        <_>
          8 21 40 6 -1.</_>
        <_>
          8 21 20 3 2.</_>
        <_>
          28 24 20 3 2.</_></rects>
      <tilted>0</tilted></_>
    <_>
      <rects>
        <_>
          8 22 36 4 -1.</_>
        <_>
          20 22 12 4 3.</_></rects>
      <tilted>0</tilted></_>
    <_>
      <rects>
        <_>
          8 26 3 1 -1.</_>
        <_>
          9 26 1 1 3.</_></rects>
      <tilted>0</tilted></_>
    <_>
      <rects>
        <_>
          9 1 9 12 -1.</_>
        <_>
          12 1 3 12 3.</_></rects>
      <tilted>0</tilted></_>
    <_>
      <rects>
        <_>
          9 2 3 22 -1.</_>
        <_>
          10 2 1 22 3.</_></rects>
      <tilted>0</tilted></_>
    <_>
      <rects>
        <_>
          9 2 2 3 -1.</_>
        <_>
          9 3 2 1 3.</_></rects>
      <tilted>0</tilted></_>
    <_>
      <rects>
        <_>
          9 2 38 9 -1.</_>
        <_>
          9 5 38 3 3.</_></rects>
      <tilted>0</tilted></_>
    <_>
      <rects>
        <_>
          9 3 3 9 -1.</_>
        <_>
          9 6 3 3 3.</_></rects>
      <tilted>0</tilted></_>
    <_>
      <rects>
        <_>
          9 3 4 6 -1.</_>
        <_>
          9 5 4 2 3.</_></rects>
      <tilted>0</tilted></_>
    <_>
      <rects>
        <_>
          9 3 26 9 -1.</_>
        <_>
          9 6 26 3 3.</_></rects>
      <tilted>0</tilted></_>
    <_>
      <rects>
        <_>
          9 4 3 23 -1.</_>
        <_>
          10 4 1 23 3.</_></rects>
      <tilted>0</tilted></_>
    <_>
      <rects>
        <_>
          9 5 5 4 -1.</_>
        <_>
          9 7 5 2 2.</_></rects>
      <tilted>0</tilted></_>
    <_>
      <rects>
        <_>
          9 10 36 4 -1.</_>
        <_>
          27 10 18 4 2.</_></rects>
      <tilted>0</tilted></_>
    <_>
      <rects>
        <_>
          9 11 5 10 -1.</_>
        <_>
          9 16 5 5 2.</_></rects>
      <tilted>0</tilted></_>
    <_>
      <rects>
        <_>
          9 21 6 2 -1.</_>
        <_>
          11 21 2 2 3.</_></rects>
      <tilted>0</tilted></_>
    <_>
      <rects>
        <_>
          9 23 3 2 -1.</_>
        <_>
          10 23 1 2 3.</_></rects>
      <tilted>0</tilted></_>
    <_>
      <rects>
        <_>
          10 0 34 27 -1.</_>
        <_>
          10 9 34 9 3.</_></rects>
      <tilted>0</tilted></_>
    <_>
      <rects>
        <_>
          10 2 7 6 -1.</_>
        <_>
          10 5 7 3 2.</_></rects>
      <tilted>0</tilted></_>
    <_>
      <rects>
        <_>
          10 3 4 2 -1.</_>
        <_>
          10 3 2 1 2.</_>
        <_>
          12 4 2 1 2.</_></rects>
      <tilted>0</tilted></_>
    <_>
      <rects>
        <_>
          10 16 8 2 -1.</_>
        <_>
          14 16 4 2 2.</_></rects>
      <tilted>0</tilted></_>
    <_>
      <rects>
        <_>
          10 17 36 10 -1.</_>
        <_>
          22 17 12 10 3.</_></rects>
      <tilted>0</tilted></_>
    <_>
      <rects>
        <_>
          11 0 30 15 -1.</_>
        <_>
          11 5 30 5 3.</_></rects>
      <tilted>0</tilted></_>
    <_>
      <rects>
        <_>
          11 3 15 22 -1.</_>
        <_>
          16 3 5 22 3.</_></rects>
      <tilted>0</tilted></_>
    <_>
      <rects>
        <_>
          11 10 3 9 -1.</_>
        <_>
          12 10 1 9 3.</_></rects>
      <tilted>0</tilted></_>
    <_>
      <rects>
        <_>
          11 10 8 6 -1.</_>
        <_>
          11 12 8 2 3.</_></rects>
      <tilted>0</tilted></_>
    <_>
      <rects>
        <_>
          11 11 18 5 -1.</_>
        <_>
          17 11 6 5 3.</_></rects>
      <tilted>0</tilted></_>
    <_>
      <rects>
        <_>
          11 17 12 8 -1.</_>
        <_>
          11 17 6 4 2.</_>
        <_>
          17 21 6 4 2.</_></rects>
      <tilted>0</tilted></_>
    <_>
      <rects>
        <_>
          11 21 12 6 -1.</_>
        <_>
          11 24 12 3 2.</_></rects>
      <tilted>0</tilted></_>
    <_>
      <rects>
        <_>
          12 1 2 2 -1.</_>
        <_>
          12 1 1 1 2.</_>
        <_>
          13 2 1 1 2.</_></rects>
      <tilted>0</tilted></_>
    <_>
      <rects>
        <_>
          12 3 18 21 -1.</_>
        <_>
          12 10 18 7 3.</_></rects>
      <tilted>0</tilted></_>
    <_>
      <rects>
        <_>
          12 5 8 8 -1.</_>
        <_>
          16 5 4 8 2.</_></rects>
      <tilted>0</tilted></_>
    <_>
      <rects>
        <_>
          12 6 21 13 -1.</_>
        <_>
          19 6 7 13 3.</_></rects>
      <tilted>0</tilted></_>
    <_>
      <rects>
        <_>
          12 8 2 5 -1.</_>
        <_>
          13 8 1 5 2.</_></rects>
      <tilted>0</tilted></_>
    <_>
      <rects>
        <_>
          12 14 26 12 -1.</_>
        <_>
          12 14 13 6 2.</_>
        <_>
          25 20 13 6 2.</_></rects>
      <tilted>0</tilted></_>
    <_>
      <rects>
        <_>
          13 7 6 7 -1.</_>
        <_>
          16 7 3 7 2.</_></rects>
      <tilted>0</tilted></_>
    <_>
      <rects>
        <_>
          13 8 18 10 -1.</_>
        <_>
          19 8 6 10 3.</_></rects>
      <tilted>0</tilted></_>
    <_>
      <rects>
        <_>
          13 10 16 2 -1.</_>
        <_>
          21 10 8 2 2.</_></rects>
      <tilted>0</tilted></_>
    <_>
      <rects>
        <_>
          13 13 34 14 -1.</_>
        <_>
          13 13 17 7 2.</_>
        <_>
          30 20 17 7 2.</_></rects>
      <tilted>0</tilted></_>
    <_>
      <rects>
        <_>
          13 14 2 2 -1.</_>
        <_>
          13 14 1 1 2.</_>
        <_>
          14 15 1 1 2.</_></rects>
      <tilted>0</tilted></_>
    <_>
      <rects>
        <_>
          14 0 3 16 -1.</_>
        <_>
          15 0 1 16 3.</_></rects>
      <tilted>0</tilted></_>
    <_>
      <rects>
        <_>
          14 0 15 15 -1.</_>
        <_>
          19 0 5 15 3.</_></rects>
      <tilted>0</tilted></_>
    <_>
      <rects>
        <_>
          14 8 6 15 -1.</_>
        <_>
          17 8 3 15 2.</_></rects>
      <tilted>0</tilted></_>
    <_>
      <rects>
        <_>
          14 18 32 6 -1.</_>
        <_>
          14 18 16 3 2.</_>
        <_>
          30 21 16 3 2.</_></rects>
      <tilted>0</tilted></_>
    <_>
      <rects>
        <_>
          15 0 9 4 -1.</_>
        <_>
          15 2 9 2 2.</_></rects>
      <tilted>0</tilted></_>
    <_>
      <rects>
        <_>
          15 1 30 16 -1.</_>
        <_>
          25 1 10 16 3.</_></rects>
      <tilted>0</tilted></_>
    <_>
      <rects>
        <_>
          15 4 15 6 -1.</_>
        <_>
          15 6 15 2 3.</_></rects>
      <tilted>0</tilted></_>
    <_>
      <rects>
        <_>
          15 14 33 11 -1.</_>
        <_>
          26 14 11 11 3.</_></rects>
      <tilted>0</tilted></_>
    <_>
      <rects>
        <_>
          16 6 8 2 -1.</_>
        <_>
          16 7 8 1 2.</_></rects>
      <tilted>0</tilted></_>
    <_>
      <rects>
        <_>
          16 15 2 2 -1.</_>
        <_>
          16 15 1 1 2.</_>
        <_>
          17 16 1 1 2.</_></rects>
      <tilted>0</tilted></_>
    <_>
      <rects>
        <_>
          17 1 6 2 -1.</_>
        <_>
          19 1 2 2 3.</_></rects>
      <tilted>0</tilted></_>
    <_>
      <rects>
        <_>
          17 9 30 3 -1.</_>
        <_>
          17 10 30 1 3.</_></rects>
      <tilted>0</tilted></_>
    <_>
      <rects>
        <_>
          17 23 5 2 -1.</_>
        <_>
          17 24 5 1 2.</_></rects>
      <tilted>0</tilted></_>
    <_>
      <rects>
        <_>
          18 0 4 6 -1.</_>
        <_>
          18 2 4 2 3.</_></rects>
      <tilted>0</tilted></_>
    <_>
      <rects>
        <_>
          18 1 2 18 -1.</_>
        <_>
          18 7 2 6 3.</_></rects>
      <tilted>0</tilted></_>
    <_>
      <rects>
        <_>
          18 8 10 3 -1.</_>
        <_>
          23 8 5 3 2.</_></rects>
      <tilted>0</tilted></_>
    <_>
      <rects>
        <_>
          18 10 12 8 -1.</_>
        <_>
          18 10 6 4 2.</_>
        <_>
          24 14 6 4 2.</_></rects>
      <tilted>0</tilted></_>
    <_>
      <rects>
        <_>
          18 10 12 3 -1.</_>
        <_>
          18 11 12 1 3.</_></rects>
      <tilted>0</tilted></_>
    <_>
      <rects>
        <_>
          18 17 29 3 -1.</_>
        <_>
          18 18 29 1 3.</_></rects>
      <tilted>0</tilted></_>
    <_>
      <rects>
        <_>
          18 25 6 2 -1.</_>
        <_>
          20 25 2 2 3.</_></rects>
      <tilted>0</tilted></_>
    <_>
      <rects>
        <_>
          19 2 8 3 -1.</_>
        <_>
          19 3 8 1 3.</_></rects>
      <tilted>0</tilted></_>
    <_>
      <rects>
        <_>
          19 2 10 6 -1.</_>
        <_>
          19 4 10 2 3.</_></rects>
      <tilted>0</tilted></_>
    <_>
      <rects>
        <_>
          19 5 27 7 -1.</_>
        <_>
          28 5 9 7 3.</_></rects>
      <tilted>0</tilted></_>
    <_>
      <rects>
        <_>
          19 11 28 2 -1.</_>
        <_>
          33 11 14 2 2.</_></rects>
      <tilted>0</tilted></_>
    <_>
      <rects>
        <_>
          19 12 6 3 -1.</_>
        <_>
          22 12 3 3 2.</_></rects>
      <tilted>0</tilted></_>
    <_>
      <rects>
        <_>
          19 15 11 4 -1.</_>
        <_>
          19 17 11 2 2.</_></rects>
      <tilted>0</tilted></_>
    <_>
      <rects>
        <_>
          19 15 24 10 -1.</_>
        <_>
          19 15 12 5 2.</_>
        <_>
          31 20 12 5 2.</_></rects>
      <tilted>0</tilted></_>
    <_>
      <rects>
        <_>
          20 4 2 1 -1.</_>
        <_>
          21 4 1 1 2.</_></rects>
      <tilted>0</tilted></_>
    <_>
      <rects>
        <_>
          20 9 2 12 -1.</_>
        <_>
          20 9 1 6 2.</_>
        <_>
          21 15 1 6 2.</_></rects>
      <tilted>0</tilted></_>
    <_>
      <rects>
        <_>
          20 13 2 1 -1.</_>
        <_>
          21 13 1 1 2.</_></rects>
      <tilted>0</tilted></_>
    <_>
      <rects>
        <_>
          20 16 27 10 -1.</_>
        <_>
          29 16 9 10 3.</_></rects>
      <tilted>0</tilted></_>
    <_>
      <rects>
        <_>
          21 0 11 9 -1.</_>
        <_>
          21 3 11 3 3.</_></rects>
      <tilted>0</tilted></_>
    <_>
      <rects>
        <_>
          21 1 1 2 -1.</_>
        <_>
          21 2 1 1 2.</_></rects>
      <tilted>0</tilted></_>
    <_>
      <rects>
        <_>
          21 4 11 6 -1.</_>
        <_>
          21 6 11 2 3.</_></rects>
      <tilted>0</tilted></_>
    <_>
      <rects>
        <_>
          21 5 20 3 -1.</_>
        <_>
          21 6 20 1 3.</_></rects>
      <tilted>0</tilted></_>
    <_>
      <rects>
        <_>
          21 15 2 9 -1.</_>
        <_>
          21 18 2 3 3.</_></rects>
      <tilted>0</tilted></_>
    <_>
      <rects>
        <_>
          21 17 2 9 -1.</_>
        <_>
          22 17 1 9 2.</_></rects>
      <tilted>0</tilted></_>
    <_>
      <rects>
        <_>
          21 20 27 6 -1.</_>
        <_>
          21 22 27 2 3.</_></rects>
      <tilted>0</tilted></_>
    <_>
      <rects>
        <_>
          21 23 27 1 -1.</_>
        <_>
          30 23 9 1 3.</_></rects>
      <tilted>0</tilted></_>
    <_>
      <rects>
        <_>
          21 25 2 1 -1.</_>
        <_>
          22 25 1 1 2.</_></rects>
      <tilted>0</tilted></_>
    <_>
      <rects>
        <_>
          22 0 15 8 -1.</_>
        <_>
          27 0 5 8 3.</_></rects>
      <tilted>0</tilted></_>
    <_>
      <rects>
        <_>
          22 1 3 1 -1.</_>
        <_>
          23 1 1 1 3.</_></rects>
      <tilted>0</tilted></_>
    <_>
      <rects>
        <_>
          22 1 3 2 -1.</_>
        <_>
          23 1 1 2 3.</_></rects>
      <tilted>0</tilted></_>
    <_>
      <rects>
        <_>
          22 2 4 1 -1.</_>
        <_>
          24 2 2 1 2.</_></rects>
      <tilted>0</tilted></_>
    <_>
      <rects>
        <_>
          22 3 24 6 -1.</_>
        <_>
          22 5 24 2 3.</_></rects>
      <tilted>0</tilted></_>
    <_>
      <rects>
        <_>
          22 4 23 16 -1.</_>
        <_>
          22 12 23 8 2.</_></rects>
      <tilted>0</tilted></_>
    <_>
      <rects>
        <_>
          22 7 25 3 -1.</_>
        <_>
          22 8 25 1 3.</_></rects>
      <tilted>0</tilted></_>
    <_>
      <rects>
        <_>
          22 15 1 3 -1.</_>
        <_>
          22 16 1 1 3.</_></rects>
      <tilted>0</tilted></_>
    <_>
      <rects>
        <_>
          22 15 6 1 -1.</_>
        <_>
          25 15 3 1 2.</_></rects>
      <tilted>0</tilted></_>
    <_>
      <rects>
        <_>
          22 19 6 5 -1.</_>
        <_>
          25 19 3 5 2.</_></rects>
      <tilted>0</tilted></_>
    <_>
      <rects>
        <_>
          22 20 15 3 -1.</_>
        <_>
          22 21 15 1 3.</_></rects>
      <tilted>0</tilted></_>
    <_>
      <rects>
        <_>
          22 24 3 3 -1.</_>
        <_>
          23 24 1 3 3.</_></rects>
      <tilted>0</tilted></_>
    <_>
      <rects>
        <_>
          23 4 3 2 -1.</_>
        <_>
          24 4 1 2 3.</_></rects>
      <tilted>0</tilted></_>
    <_>
      <rects>
        <_>
          23 4 14 2 -1.</_>
        <_>
          30 4 7 2 2.</_></rects>
      <tilted>0</tilted></_>
    <_>
      <rects>
        <_>
          23 26 2 1 -1.</_>
        <_>
          24 26 1 1 2.</_></rects>
      <tilted>0</tilted></_>
    <_>
      <rects>
        <_>
          23 26 22 1 -1.</_>
        <_>
          34 26 11 1 2.</_></rects>
      <tilted>0</tilted></_>
    <_>
      <rects>
        <_>
          24 0 3 2 -1.</_>
        <_>
          25 0 1 2 3.</_></rects>
      <tilted>0</tilted></_>
    <_>
      <rects>
        <_>
          24 1 4 2 -1.</_>
        <_>
          24 1 2 1 2.</_>
        <_>
          26 2 2 1 2.</_></rects>
      <tilted>0</tilted></_>
    <_>
      <rects>
        <_>
          24 1 3 6 -1.</_>
        <_>
          24 4 3 3 2.</_></rects>
      <tilted>0</tilted></_>
    <_>
      <rects>
        <_>
          24 1 8 9 -1.</_>
        <_>
          24 4 8 3 3.</_></rects>
      <tilted>0</tilted></_>
    <_>
      <rects>
        <_>
          24 2 3 4 -1.</_>
        <_>
          25 2 1 4 3.</_></rects>
      <tilted>0</tilted></_>
    <_>
      <rects>
        <_>
          24 4 2 2 -1.</_>
        <_>
          25 4 1 2 2.</_></rects>
      <tilted>0</tilted></_>
    <_>
      <rects>
        <_>
          24 5 2 2 -1.</_>
        <_>
          24 6 2 1 2.</_></rects>
      <tilted>0</tilted></_>
    <_>
      <rects>
        <_>
          24 6 2 2 -1.</_>
        <_>
          24 6 1 1 2.</_>
        <_>
          25 7 1 1 2.</_></rects>
      <tilted>0</tilted></_>
    <_>
      <rects>
        <_>
          24 12 12 6 -1.</_>
        <_>
          24 14 12 2 3.</_></rects>
      <tilted>0</tilted></_>
    <_>
      <rects>
        <_>
          24 24 3 3 -1.</_>
        <_>
          25 24 1 3 3.</_></rects>
      <tilted>0</tilted></_>
    <_>
      <rects>
        <_>
          25 3 4 5 -1.</_>
        <_>
          27 3 2 5 2.</_></rects>
      <tilted>0</tilted></_>
    <_>
      <rects>
        <_>
          25 8 13 15 -1.</_>
        <_>
          25 13 13 5 3.</_></rects>
      <tilted>0</tilted></_>
    <_>
      <rects>
        <_>
          25 12 21 13 -1.</_>
        <_>
          32 12 7 13 3.</_></rects>
      <tilted>0</tilted></_>
    <_>
      <rects>
        <_>
          25 15 1 2 -1.</_>
        <_>
          25 16 1 1 2.</_></rects>
      <tilted>0</tilted></_>
    <_>
      <rects>
        <_>
          25 25 18 2 -1.</_>
        <_>
          25 25 9 1 2.</_>
        <_>
          34 26 9 1 2.</_></rects>
      <tilted>0</tilted></_>
    <_>
      <rects>
        <_>
          26 0 3 1 -1.</_>
        <_>
          27 0 1 1 3.</_></rects>
      <tilted>0</tilted></_>
    <_>
      <rects>
        <_>
          26 0 1 3 -1.</_>
        <_>
          26 1 1 1 3.</_></rects>
      <tilted>0</tilted></_>
    <_>
      <rects>
        <_>
          26 1 20 26 -1.</_>
        <_>
          36 1 10 26 2.</_></rects>
      <tilted>0</tilted></_>
    <_>
      <rects>
        <_>
          26 14 2 1 -1.</_>
        <_>
          27 14 1 1 2.</_></rects>
      <tilted>0</tilted></_>
    <_>
      <rects>
        <_>
          26 21 20 3 -1.</_>
        <_>
          36 21 10 3 2.</_></rects>
      <tilted>0</tilted></_>
    <_>
      <rects>
        <_>
          26 24 3 3 -1.</_>
        <_>
          27 24 1 3 3.</_></rects>
      <tilted>0</tilted></_>
    <_>
      <rects>
        <_>
          27 7 14 18 -1.</_>
        <_>
          27 13 14 6 3.</_></rects>
      <tilted>0</tilted></_>
    <_>
      <rects>
        <_>
          27 17 2 2 -1.</_>
        <_>
          27 17 1 1 2.</_>
        <_>
          28 18 1 1 2.</_></rects>
      <tilted>0</tilted></_>
    <_>
      <rects>
        <_>
          27 17 8 4 -1.</_>
        <_>
          27 17 4 2 2.</_>
        <_>
          31 19 4 2 2.</_></rects>
      <tilted>0</tilted></_>
    <_>
      <rects>
        <_>
          28 0 3 1 -1.</_>
        <_>
          29 0 1 1 3.</_></rects>
      <tilted>0</tilted></_>
    <_>
      <rects>
        <_>
          28 0 3 2 -1.</_>
        <_>
          29 0 1 2 3.</_></rects>
      <tilted>0</tilted></_>
    <_>
      <rects>
        <_>
          28 9 2 2 -1.</_>
        <_>
          28 9 1 1 2.</_>
        <_>
          29 10 1 1 2.</_></rects>
      <tilted>0</tilted></_>
    <_>
      <rects>
        <_>
          28 10 20 15 -1.</_>
        <_>
          28 15 20 5 3.</_></rects>
      <tilted>0</tilted></_>
    <_>
      <rects>
        <_>
          29 0 15 1 -1.</_>
        <_>
          34 0 5 1 3.</_></rects>
      <tilted>0</tilted></_>
    <_>
      <rects>
        <_>
          29 4 16 1 -1.</_>
        <_>
          37 4 8 1 2.</_></rects>
      <tilted>0</tilted></_>
    <_>
      <rects>
        <_>
          29 21 3 3 -1.</_>
        <_>
          30 21 1 3 3.</_></rects>
      <tilted>0</tilted></_>
    <_>
      <rects>
        <_>
          30 0 3 1 -1.</_>
        <_>
          31 0 1 1 3.</_></rects>
      <tilted>0</tilted></_>
    <_>
      <rects>
        <_>
          30 6 10 3 -1.</_>
        <_>
          30 7 10 1 3.</_></rects>
      <tilted>0</tilted></_>
    <_>
      <rects>
        <_>
          30 16 2 2 -1.</_>
        <_>
          30 16 1 1 2.</_>
        <_>
          31 17 1 1 2.</_></rects>
      <tilted>0</tilted></_>
    <_>
      <rects>
        <_>
          31 1 13 9 -1.</_>
        <_>
          31 4 13 3 3.</_></rects>
      <tilted>0</tilted></_>
    <_>
      <rects>
        <_>
          31 2 9 3 -1.</_>
        <_>
          34 2 3 3 3.</_></rects>
      <tilted>0</tilted></_>
    <_>
      <rects>
        <_>
          31 8 12 1 -1.</_>
        <_>
          35 8 4 1 3.</_></rects>
      <tilted>0</tilted></_>
    <_>
      <rects>
        <_>
          31 9 13 3 -1.</_>
        <_>
          31 10 13 1 3.</_></rects>
      <tilted>0</tilted></_>
    <_>
      <rects>
        <_>
          32 5 16 21 -1.</_>
        <_>
          32 12 16 7 3.</_></rects>
      <tilted>0</tilted></_>
    <_>
      <rects>
        <_>
          32 6 14 12 -1.</_>
        <_>
          32 6 7 6 2.</_>
        <_>
          39 12 7 6 2.</_></rects>
      <tilted>0</tilted></_>
    <_>
      <rects>
        <_>
          32 13 4 2 -1.</_>
        <_>
          32 13 2 1 2.</_>
        <_>
          34 14 2 1 2.</_></rects>
      <tilted>0</tilted></_>
    <_>
      <rects>
        <_>
          32 25 3 1 -1.</_>
        <_>
          33 25 1 1 3.</_></rects>
      <tilted>0</tilted></_>
    <_>
      <rects>
        <_>
          33 0 12 2 -1.</_>
        <_>
          37 0 4 2 3.</_></rects>
      <tilted>0</tilted></_>
    <_>
      <rects>
        <_>
          33 9 10 4 -1.</_>
        <_>
          33 9 5 2 2.</_>
        <_>
          38 11 5 2 2.</_></rects>
      <tilted>0</tilted></_>
    <_>
      <rects>
        <_>
          33 10 10 4 -1.</_>
        <_>
          33 10 5 2 2.</_>
        <_>
          38 12 5 2 2.</_></rects>
      <tilted>0</tilted></_>
    <_>
      <rects>
        <_>
          33 14 12 12 -1.</_>
        <_>
          33 14 6 6 2.</_>
        <_>
          39 20 6 6 2.</_></rects>
      <tilted>0</tilted></_>
    <_>
      <rects>
        <_>
          34 1 1 2 -1.</_>
        <_>
          34 2 1 1 2.</_></rects>
      <tilted>0</tilted></_>
    <_>
      <rects>
        <_>
          34 7 9 18 -1.</_>
        <_>
          37 7 3 18 3.</_></rects>
      <tilted>0</tilted></_>
    <_>
      <rects>
        <_>
          34 8 3 3 -1.</_>
        <_>
          35 8 1 3 3.</_></rects>
      <tilted>0</tilted></_>
    <_>
      <rects>
        <_>
          34 17 8 2 -1.</_>
        <_>
          38 17 4 2 2.</_></rects>
      <tilted>0</tilted></_>
    <_>
      <rects>
        <_>
          34 24 3 3 -1.</_>
        <_>
          35 24 1 3 3.</_></rects>
      <tilted>0</tilted></_>
    <_>
      <rects>
        <_>
          35 0 3 5 -1.</_>
        <_>
          36 0 1 5 3.</_></rects>
      <tilted>0</tilted></_>
    <_>
      <rects>
        <_>
          35 3 3 3 -1.</_>
        <_>
          36 3 1 3 3.</_></rects>
      <tilted>0</tilted></_>
    <_>
      <rects>
        <_>
          35 11 8 12 -1.</_>
        <_>
          35 11 4 6 2.</_>
        <_>
          39 17 4 6 2.</_></rects>
      <tilted>0</tilted></_>
    <_>
      <rects>
        <_>
          35 18 2 1 -1.</_>
        <_>
          36 18 1 1 2.</_></rects>
      <tilted>0</tilted></_>
    <_>
      <rects>
        <_>
          36 9 12 10 -1.</_>
        <_>
          36 9 6 5 2.</_>
        <_>
          42 14 6 5 2.</_></rects>
      <tilted>0</tilted></_>
    <_>
      <rects>
        <_>
          36 12 3 9 -1.</_>
        <_>
          37 12 1 9 3.</_></rects>
      <tilted>0</tilted></_>
    <_>
      <rects>
        <_>
          37 0 1 2 -1.</_>
        <_>
          37 1 1 1 2.</_></rects>
      <tilted>0</tilted></_>
    <_>
      <rects>
        <_>
          37 1 3 25 -1.</_>
        <_>
          38 1 1 25 3.</_></rects>
      <tilted>0</tilted></_>
    <_>
      <rects>
        <_>
          37 3 3 2 -1.</_>
        <_>
          38 3 1 2 3.</_></rects>
      <tilted>0</tilted></_>
    <_>
      <rects>
        <_>
          37 4 9 7 -1.</_>
        <_>
          40 4 3 7 3.</_></rects>
      <tilted>0</tilted></_>
    <_>
      <rects>
        <_>
          37 18 2 2 -1.</_>
        <_>
          37 18 1 1 2.</_>
        <_>
          38 19 1 1 2.</_></rects>
      <tilted>0</tilted></_>
    <_>
      <rects>
        <_>
          38 4 2 2 -1.</_>
        <_>
          38 4 1 1 2.</_>
        <_>
          39 5 1 1 2.</_></rects>
      <tilted>0</tilted></_>
    <_>
      <rects>
        <_>
          38 8 8 10 -1.</_>
        <_>
          38 8 4 5 2.</_>
        <_>
          42 13 4 5 2.</_></rects>
      <tilted>0</tilted></_>
    <_>
      <rects>
        <_>
          38 15 2 2 -1.</_>
        <_>
          38 15 1 1 2.</_>
        <_>
          39 16 1 1 2.</_></rects>
      <tilted>0</tilted></_>
    <_>
      <rects>
        <_>
          38 21 2 2 -1.</_>
        <_>
          38 21 1 1 2.</_>
        <_>
          39 22 1 1 2.</_></rects>
      <tilted>0</tilted></_>
    <_>
      <rects>
        <_>
          39 0 9 12 -1.</_>
        <_>
          39 4 9 4 3.</_></rects>
      <tilted>0</tilted></_>
    <_>
      <rects>
        <_>
          39 1 9 15 -1.</_>
        <_>
          42 1 3 15 3.</_></rects>
      <tilted>0</tilted></_>
    <_>
      <rects>
        <_>
          39 3 2 2 -1.</_>
        <_>
          39 3 1 1 2.</_>
        <_>
          40 4 1 1 2.</_></rects>
      <tilted>0</tilted></_>
    <_>
      <rects>
        <_>
          39 16 2 2 -1.</_>
        <_>
          39 17 2 1 2.</_></rects>
      <tilted>0</tilted></_>
    <_>
      <rects>
        <_>
          39 26 9 1 -1.</_>
        <_>
          42 26 3 1 3.</_></rects>
      <tilted>0</tilted></_>
    <_>
      <rects>
        <_>
          40 0 3 1 -1.</_>
        <_>
          41 0 1 1 3.</_></rects>
      <tilted>0</tilted></_>
    <_>
      <rects>
        <_>
          40 2 6 1 -1.</_>
        <_>
          42 2 2 1 3.</_></rects>
      <tilted>0</tilted></_>
    <_>
      <rects>
        <_>
          40 15 8 12 -1.</_>
        <_>
          40 21 8 6 2.</_></rects>
      <tilted>0</tilted></_>
    <_>
      <rects>
        <_>
          40 17 2 2 -1.</_>
        <_>
          40 17 1 1 2.</_>
        <_>
          41 18 1 1 2.</_></rects>
      <tilted>0</tilted></_>
    <_>
      <rects>
        <_>
          41 0 3 1 -1.</_>
        <_>
          42 0 1 1 3.</_></rects>
      <tilted>0</tilted></_>
    <_>
      <rects>
        <_>
          41 1 3 1 -1.</_>
        <_>
          42 1 1 1 3.</_></rects>
      <tilted>0</tilted></_>
    <_>
      <rects>
        <_>
          41 2 4 12 -1.</_>
        <_>
          41 2 2 6 2.</_>
        <_>
          43 8 2 6 2.</_></rects>
      <tilted>0</tilted></_>
    <_>
      <rects>
        <_>
          41 5 4 12 -1.</_>
        <_>
          41 11 4 6 2.</_></rects>
      <tilted>0</tilted></_>
    <_>
      <rects>
        <_>
          41 24 2 2 -1.</_>
        <_>
          41 25 2 1 2.</_></rects>
      <tilted>0</tilted></_>
    <_>
      <rects>
        <_>
          42 0 2 1 -1.</_>
        <_>
          43 0 1 1 2.</_></rects>
      <tilted>0</tilted></_>
    <_>
      <rects>
        <_>
          43 0 3 3 -1.</_>
        <_>
          44 0 1 3 3.</_></rects>
      <tilted>0</tilted></_>
    <_>
      <rects>
        <_>
          43 1 5 3 -1.</_>
        <_>
          43 2 5 1 3.</_></rects>
      <tilted>0</tilted></_>
    <_>
      <rects>
        <_>
          44 0 1 2 -1.</_>
        <_>
          44 1 1 1 2.</_></rects>
      <tilted>0</tilted></_>
    <_>
      <rects>
        <_>
          44 0 2 2 -1.</_>
        <_>
          45 0 1 2 2.</_></rects>
      <tilted>0</tilted></_>
    <_>
      <rects>
        <_>
          44 1 3 8 -1.</_>
        <_>
          44 5 3 4 2.</_></rects>
      <tilted>0</tilted></_>
    <_>
      <rects>
        <_>
          44 2 3 1 -1.</_>
        <_>
          45 2 1 1 3.</_></rects>
      <tilted>0</tilted></_>
    <_>
      <rects>
        <_>
          44 14 1 6 -1.</_>
        <_>
          44 16 1 2 3.</_></rects>
      <tilted>0</tilted></_>
    <_>
      <rects>
        <_>
          45 0 3 1 -1.</_>
        <_>
          46 0 1 1 3.</_></rects>
      <tilted>0</tilted></_>
    <_>
      <rects>
        <_>
          45 0 2 4 -1.</_>
        <_>
          45 0 1 2 2.</_>
        <_>
          46 2 1 2 2.</_></rects>
      <tilted>0</tilted></_>
    <_>
      <rects>
        <_>
          45 0 3 4 -1.</_>
        <_>
          46 0 1 4 3.</_></rects>
      <tilted>0</tilted></_>
    <_>
      <rects>
        <_>
          45 1 3 1 -1.</_>
        <_>
          46 1 1 1 3.</_></rects>
      <tilted>0</tilted></_>
    <_>
      <rects>
        <_>
          45 13 3 1 -1.</_>
        <_>
          46 13 1 1 3.</_></rects>
      <tilted>0</tilted></_>
    <_>
      <rects>
        <_>
          45 13 2 4 -1.</_>
        <_>
          45 13 1 2 2.</_>
        <_>
          46 15 1 2 2.</_></rects>
      <tilted>0</tilted></_>
    <_>
      <rects>
        <_>
          45 23 3 4 -1.</_>
        <_>
          46 23 1 4 3.</_></rects>
      <tilted>0</tilted></_>
    <_>
      <rects>
        <_>
          46 0 2 1 -1.</_>
        <_>
          47 0 1 1 2.</_></rects>
      <tilted>0</tilted></_>
    <_>
      <rects>
        <_>
          46 13 2 1 -1.</_>
        <_>
          47 13 1 1 2.</_></rects>
      <tilted>0</tilted></_>
    <_>
      <rects>
        <_>
          46 23 2 1 -1.</_>
        <_>
          47 23 1 1 2.</_></rects>
      <tilted>0</tilted></_></features></cascade>
</opencv_storage>
